tree
version=v4
num_class=1
num_tree_per_iteration=1
label_index=0
max_feature_idx=24
objective=regression
feature_names=user_id item_id user_avg_rating user_num_ratings user_avg_rating_genre_0 user_avg_rating_genre_1 user_avg_rating_genre_2 user_avg_rating_genre_3 user_avg_rating_genre_4 user_avg_rating_genre_5 user_avg_rating_genre_6 user_avg_rating_genre_7 user_avg_rating_genre_8 user_avg_rating_genre_9 user_avg_rating_genre_10 user_avg_rating_genre_11 user_avg_rating_genre_12 user_avg_rating_genre_13 user_avg_rating_genre_14 user_avg_rating_genre_15 user_avg_rating_genre_16 user_avg_rating_genre_17 num_genres movie_avg_rating movie_num_ratings
feature_infos=[0:6039] [0:3705] [1:5] [5:2046] [0:0.98113207547169812] [0:0.96999999999999997] [0:0.91666666666666663] [0:0.95454545454545459] [0:1] [0:0.92156862745098034] [0:0.6428571428571429] [0:1] [0:0.92307692307692313] [0:0.71999999999999997] [0:1] [0:0.78947368421052633] [0:0.75] [0:0.95833333333333337] [0:0.978494623655914] [0:0.97959183673469385] [0:0.92452830188679247] [0:0.65000000000000002] [1:6] [1:5] [1:2861]
tree_sizes=2887 3064 3055 3054 3078 3075 3074 3066 3058 3097 3072 3071 3071 3078 3080 3090 3078 3075 3094 3105 3098 3096 3094 3110 3088 3111 3092 3103 3113 3108 3104 3105 3101 3098 3114 3126 3124 3104 3109 3118 3109 3111 3119 3107 3137 3121 3105 3112 3123 3127 3128 3115 3127 3126 3121 3112 3142 3114 3133 3125 3119 3137 3143 3115 3142 3136 3116 3116 3098 3125 3111 3129 3135 3106 3124 3104 3124 3134 3148 3120 3132 3149 3123 3116 3137 3139 3096 3101 3122 3095 3124 3137 3131 3130 3112 3138 3126 3119 3142 3127 3071 3112 3116 3117 3107 3130 3107 3137 3144 3109 3119 3145 3091 3094 3098 3097 3095 3100 3099 3062 3096 3105 3087 3146 3077 3089 3118 3104 3104 3136 3076 3144 3070 3123 3081 3098 3117 3044 3097 3097 3121 3090 3103 3059 3066 3104 3088 3095 3135 3080 3071 3075 3064 3043 3029 3023 3024 3073 3089 3058 3103 3086 3110 3084 3090 2996 2987 3069 3069 3096 3082 3028 3080 2987 3031 3081 3071 3058 3011 3013 3024 3077 3043 3006 3013 3031 3056 3093 3089 3073 3084 3046 3057 3087 2988 2986 2990 2945 2972 2890 3010 3067 3092 3123 3014 3012 2972 3068 3019 2993 3049 3026 2955 3052 3016 3046 2985 2957 3050 3001 2935 2939 2999 3001 2949 3095 2966 2969 2980 2930 2944 3042 2991 2923 3021 2929 2998 3008 3050 2939 2879 3000 2987 2940 2951 2956 2993 2964 2939 2938 2965 2949 3002 3054 2940 3020 2985 2948 3061 2901 2969 2857 2986 2960 2956 2934 3051 2955 2919 2974 2942 2928 2971 3027 3050 2893 2872 2881 2912 2994 3037 3046 2999 3058 2885 2916 2922 2950 3018 2979 3009 3025 2961 2950 3010 3034 2973 2984 2919 3000 3101 3063 3055 3055 3032 2984 2917 2954 2948 3140 2847 2855 2859 2894 2968 3080 3087 3085 3051 2987 2915 2960 2878 2916 2880 2976 2957 2926 2957 2971 3044 2930 2887 2941 2964 2929 2914 2991 2965 2955 2982 2883 2899 3000 2869 2963 2983 2947 2939 2904 3030 3020 3040 2932 3035 2845 2946 3016 2855 2871 2894 2876 2859 2870 2968 2949 2857 2878 2911 2868 2998 2952 3017 2971 2862 2983 3009 2959 2993 3068 3011 2981 2990 2930 2943 2850 2973 2831 2985 2842 3005 3026 2955 2995 2942 3004 2971 2967 3027 2956 2954 2972 3023 2912 3016 2898 2860 2887 2882 2925 2896 2943 2903 2876 2941 2898 2983 2893 3044 2966 2980 2938 3030 3005 3046 3072 3082 3069 2973 2936 2867 2948 2842 3010 2894 2863 2872 2906 2843 2876 2928 2904 2886 3009 2968 2915 2916 2900 2884 2855 2971 2936 2980 2859 2961 2956 2876 2911 2983 2989 2879 2849 3076 2847 3010 2927 2998 2967 2920 2963 3060 2952 3014 2895 2848 2973 2953 2819 2949 2818 3009 3064 2989 2961 2856 2850 2846 3012 2903 2950 2986 2992 2858 2946 3019 2990 2995 2994 2876 2831 2873 2870 3005 2985 2866 2991 2997 2914 2961 2897 2948 2927 2832 2949 2837 2994 2792 2814 2997 2927 2902 2965 2911 2938 2920 3026 2982 2915 2911 3039 2952 2879 2903 2853 2956 2979 3019 2809 2953 2844 2967 2830 2995 2907 2832 3015 3036 3049 3020 2996 2913 2916 3023 2958 2927 2834 2965 2897 2939 2889 2957 3007 2944 2832 2992 2927 2920 2877 2907 2918 2954 2954 2932 2930 2909 2893 2874 2890 2905 2853 2917 2848 2890 2862 2932 2992 3008 2962 2840 3049 2975 2890 2970 2849 2859 2873 2936 2993 2852 2893 2886 2892 2958 2887 2836 2887 2913 2800 2882 2860 2979 2997 2959 2927 2897 3003 2890 2997 2876 3021 2800 2926 2895 2818 2935 2970 2936 2898 2833 3001 2987 2965 2945 2976 2941 3001 2891 2869 2961 2904 2921 2976 2892 2888 2985 2840 2837 3002 2859 2933 2885 2892 2994 2931 2878 2851 2953 2924 2863 2854 2978 2939 3030 2910 2944 3003 2856 2997 2969 2870 2911 2932 2885 3000 2946 2965 2932 2956 2939 2906 2926 2974 2938 2907 2956 2983 3001 2926 2965 2942 2971 3041 2979 3028 2874 2901 2915 2879 2952 2887 2912 2902 2920 2840 2955 2976 2971 2858 2918 2998 2925 2931 2962 2914 2954 2915 2985 2929 2994 2839 3000 2853 2984 2910 2917 2993 2828 3030 2911 2968 2863 2998 2874 2883 2949 2955 3036 2969 2921 2946 2962 2920 2858 2933 2923 3001 2963 2947 3029 2962 2920 2921 2879 2926 2944 2925 2854 2897 2877 2865 2886 2845 2952 2930 2841 2832 2834 2830 2917 3020 2893 2877 2938 2815 2850 2947 2950 2916 2943 2925 2824 2825 2796 2946 2808 3004 3001 3021 2931 2982 2976 2898 2942 2867 3001 2881 2919 2892 2949 2903 2896 2865 2911 3011 2934 2970 2969 3006 2969 2900 2987 2968 3015 2992 2972 2905 2847 2903 2941 2827 2850 2845 2856 2835 2855 2940 2848 2961 2882 2944 2964 2931 2902 2963 3004 2816 2872 2816 2834 2901 2923 3032 2963 2964 2920 2847 2895 2869 2902 2839 2874 2907 2877 2904 2889 2959 2947 2917 3010 2985 2941 2895 2903 3043 2935 2974 2988 3024 3029 2899 2890 2916 2887 2970 2907 2872 2873 2875 2864 2876 2886 2923 2930 2909 2939 2889 2868 2879 3071 3030 2989 2927 2961 2951 2800 2987 3022 3013 2951 3001 2943 2950 2925 2974 2948 2980 2934 2945 2952 2959 2817 2816 2811 2810 2950 2955 2929 2877 2800 2960 2832 2889 2865 2829 2872 2943 2844 2934 2911 2849 2915 2872 2931 2830 2897 2931 2942 2949 2791 2893 2890 2944 2905 2977 2932 2999 2954 2965 2905 2870 2921 3031 2906 3035 2951 2916 2854 2829 2827 2822 2958 2879 2887 2959 2882 2938 2970 2891 2891 2945 2958 2864 2914 2870 2865 2924 2900 2911 2954 2893 3011 2963 3002 2984 2835 2842 2947 2860 2847 2929 2877 2898 2893 2944 2910 2873 2879 2813 2893 2864

Tree=0
num_leaves=31
num_cat=0
split_feature=23 2 2 23 23 23 23 2 2 2 2 2 23 23 23 2 23 2 23 2 2 23 2 23 23 2 2 2 2 2
split_gain=129927 29290.6 28964.2 11715.6 10089 9714.42 9387.38 4294.19 3518.38 3435.5 3337.3 2329.66 1948.1 1846.6 1655.48 1186.99 1149.06 1129.74 1084.18 1079.44 1076.8 1031.07 838.891 793.757 781.007 742.458 708.255 618.161 505.975 467.422
threshold=3.4344149796578605 3.4619523258058291 3.5586047924757609 2.8550299944747022 3.9246840324426535 3.9371454619124804 2.8059963217997521 3.0232041969330106 4.0112373737373748 3.7739388794567068 3.0382710644094186 4.0020833333333341 2.4600503919372909 2.3238162975005081 4.1801083928672957 3.0498756218905476 4.1963801274718096 4.0112373737373748 3.6892071517931613 4.0933866279069777 3.0232041969330106 3.7351507297355675 2.6024451318309034 3.1514928698752231 3.2020858672706178 2.7902592301649647 2.3923391155052993 3.0498756218905476 4.0638026487190624 3.7695717204144175
decision_type=2 2 2 2 2 2 2 2 2 2 2 2 2 2 2 2 2 2 2 2 2 2 2 2 2 2 2 2 2 2
left_child=1 3 4 12 7 8 13 22 21 23 25 16 27 28 20 -14 -7 -15 -9 -11 -6 29 -2 -8 -12 -5 -16 -1 -3 -4
right_child=2 6 5 10 14 11 9 18 -10 19 24 -13 15 17 26 -17 -18 -19 -20 -21 -22 -23 -24 -25 -26 -27 -28 -29 -30 -31
leaf_value=3.4805572735083814 3.5319559789351964 3.5161272085754196 3.5832158057783565 3.5155517867461339 3.5733200189310588 3.6064822587778385 3.5559162356980134 3.5698549045664176 3.6099858878883833 3.578151526297265 3.5434393781452815 3.626098456857874 3.5019976348620632 3.543507048493324 3.5383566789008229 3.5258948847661453 3.6187644097246472 3.5719761590396626 3.5814771768410578 3.5951323223637646 3.5927897485584914 3.5978527902043966 3.5561752874525068 3.5690485631471032 3.5565610851273286 3.5337480436430897 3.605563914880852 3.5013990762145504 3.5505426087031666 3.5923770163946478
leaf_weight=6137 4323 7039 28075 9261 9066 46661 19391 39770 39086 35302 23433 41783 8694 18307 398 12916 32173 4304 40500 12735 32775 46360 20674 28299 21974 14204 26049 8465 1259 27622
leaf_count=6137 4323 7039 28075 9261 9066 46661 19391 39770 39086 35302 23433 41783 8694 18307 398 12916 32173 4304 40500 12735 32775 46360 20674 28299 21974 14204 26049 8465 1259 27622
internal_value=3.57952 3.54929 3.59563 3.52977 3.57979 3.60613 3.56548 3.57008 3.59723 3.57322 3.54188 3.61655 3.50675 3.54152 3.59476 3.51628 3.61149 3.54893 3.57572 3.58265 3.58857 3.59234 3.55199 3.56371 3.54979 3.52657 3.60455 3.49264 3.52135 3.58776
internal_weight=0 231720 435315 105084 173555 261760 126636 105267 141143 95727 68872 120617 36212 30909 68288 21610 78834 22611 80270 48037 41841 102057 24997 47690 45407 23465 26447 14602 8298 55697
internal_count=667035 231720 435315 105084 173555 261760 126636 105267 141143 95727 68872 120617 36212 30909 68288 21610 78834 22611 80270 48037 41841 102057 24997 47690 45407 23465 26447 14602 8298 55697
is_linear=0
shrinkage=1


Tree=1
num_leaves=31
num_cat=0
split_feature=23 2 2 23 23 23 23 2 2 2 2 23 23 2 2 2 23 23 2 23 23 2 23 2 2 23 2 2 2 2
split_gain=117321 27342.5 25479.6 12001.7 10073.7 8051.35 6854.67 4801.9 3582.57 2739.87 2674.31 1947.97 1766.25 1554.91 1436.4 1306.44 1300.39 1022.74 954.067 930.012 880.268 809.907 743.364 727.235 707.268 618.708 543.612 536.531 520.651 449.67
threshold=3.4519208931767191 3.5006297229219148 3.6461947866901352 2.8550299944747022 3.9657830907830913 2.8675224959883008 3.9978540443730171 3.0232041969330106 3.0382710644094186 4.0381812065485549 3.8892843020956902 2.2719568567026198 2.4069557362240297 3.0232041969330106 3.0498756218905476 4.0266303659617586 3.7073819408406856 4.1963801274718096 4.0112373737373748 3.2020858672706178 3.7351507297355675 2.6024451318309034 3.2111456023651148 2.6779253585397655 2.3923391155052993 4.2207158892491909 3.4570660522273431 4.110555555555556 4.0112373737373748 3.4129733520336614
decision_type=2 2 2 2 2 2 2 2 2 2 2 2 2 2 2 2 2 2 2 2 2 2 2 2 2 2 2 2 2 2
left_child=1 3 4 11 7 12 9 21 23 20 22 -1 28 24 -13 25 26 -15 -14 -10 -4 -2 -7 -5 -6 -8 -9 -12 -3 -18
right_child=2 5 6 8 13 10 15 16 19 -11 27 14 18 17 -16 -17 29 -19 -20 -21 -22 -23 -24 -25 -26 -27 -28 -29 -30 -31
leaf_value=-0.087206980968136893 -0.044198996155275463 -0.056199518838071574 0.01043109594344812 -0.06461057351839139 -0.041749599872639889 -0.016164853813135642 0.028837246699627207 -0.010969144026256801 -0.033440535793405071 0.031479606596084821 0.0027654252056632796 -0.075858822520004976 -0.030300496961097979 0.015461841214836148 -0.052846827634515786 0.045862262709276416 -3.7556387148531169e-06 0.028582556200893828 -0.0048241661381675082 -0.020305460293489619 0.020109372646766932 -0.020695937467255576 -0.0048636540142490293 -0.044804647265983967 0.0050947746805245289 0.039276879639759732 -0.00023568299919396728 0.016110729062861952 -0.027946723798910778 0.0089959494057921374
leaf_weight=9824 4425 7897 44158 6210 864 27452 32323 28884 26514 38012 19980 10825 17919 34532 18153 33292 27134 26061 4623 27405 50206 21354 30963 18271 11955 25302 19940 12088 2055 28414
leaf_count=9824 4425 7897 44158 6210 864 27452 32323 28884 26514 38012 19980 10825 17919 34532 18153 33292 27134 26061 4623 27405 50206 21354 30963 18271 11955 25302 19940 12088 2055 28414
internal_value=0 -0.0279418 0.0157423 -0.0452227 0.00294803 -0.0114724 0.027406 -0.0054056 -0.0339665 0.0201459 -0.0038057 -0.0679661 -0.0328213 0.0177581 -0.0614432 0.0379768 -0.000632576 0.0211051 -0.0250757 -0.0267645 0.0155804 -0.0247303 -0.0101746 -0.0498287 0.00193747 0.0334211 -0.00658554 0.00779592 -0.0503656 0.00459979
internal_weight=0 240179 426856 117202 203563 122977 223293 130151 78400 132376 90483 38802 32494 73412 28978 90917 104372 60593 22542 53919 94364 25779 58415 24481 12819 57625 48824 32068 9952 55548
internal_count=667035 240179 426856 117202 203563 122977 223293 130151 78400 132376 90483 38802 32494 73412 28978 90917 104372 60593 22542 53919 94364 25779 58415 24481 12819 57625 48824 32068 9952 55548
is_linear=0
shrinkage=0.05


Tree=2
num_leaves=31
num_cat=0
split_feature=23 2 2 23 23 23 23 2 2 2 2 2 23 2 23 23 23 2 23 2 2 23 23 2 2 23 23 2 23 23
split_gain=105996 25015.9 22597.9 8963.17 8890.99 8725.78 7064.21 3601.64 2949.9 2915.79 2700.66 2346.08 1516.03 1245.81 1135.65 1038.3 979.116 940.888 930.316 861.545 773.309 771.532 739.569 686.137 626.707 609.926 599.107 582.029 467.385 427.383
threshold=3.411192380043079 3.5552168021680219 3.4619523258058291 3.9059798505037375 3.8771995335172353 2.7468026550105233 2.6886509998870189 3.0136152149331754 3.7739388794567068 2.9439471947194726 3.9145419602818712 3.9177276390008062 4.1707928197457003 3.0498756218905476 2.2037815126050426 4.1963801274718096 3.6534568111983616 3.0232041969330106 3.047408953839017 4.0933866279069777 3.9886147597649502 3.0961288711288719 2.2037815126050426 2.6024451318309034 4.1717960858585874 3.6757520975293194 4.129253081928824 2.3923391155052993 3.0658267132512251 2.2719568567026198
decision_type=2 2 2 2 2 2 2 2 2 2 2 2 2 2 2 2 2 2 2 2 2 2 2 2 2 2 2 2 2 2
left_child=2 3 5 7 10 13 14 23 21 -7 25 15 17 29 -4 -6 -9 -5 -11 28 -16 -8 -15 -2 -12 -3 -13 -14 -10 -1
right_child=1 4 6 12 11 9 8 16 19 18 24 26 27 22 20 -17 -18 -19 -20 -21 -22 -23 -24 -25 -26 -27 -28 -29 -30 -31
leaf_value=-0.094505259745786385 -0.044314252452114601 0.0039643359429682124 -0.057161669525897733 -0.0063153398732394813 0.022067016820934565 -0.054260588995513705 -0.024545624072679548 -0.010905572503913094 -0.011013184622598156 -0.039868041854984861 0.019253651501259975 0.034762025452309511 -0.037031172702880692 -0.07820213710650771 -0.037027803958032145 0.034288931288960385 6.7337987831155398e-05 0.011200522656965466 -0.025793427247464109 0.012697038142141657 -0.011591451561508119 -0.01138368009546354 -0.05442365393022186 -0.022632062050098517 0.03114209114726979 0.012731812061099934 0.044507780348172904 0.023213190507456634 0.0013713124458746835 -0.074614798898078705
leaf_weight=4006 4446 40353 5830 9835 50124 17424 18149 36448 11443 17888 35485 33834 407 4351 14644 26599 45971 34777 34165 12220 3754 28806 13162 20348 16122 39016 29535 26812 22793 8288
leaf_count=4006 4446 40353 5830 9835 50124 17424 18149 36448 11443 17888 35485 33834 407 4351 14644 26599 45971 34777 34165 12220 3754 28806 13162 20348 16122 39016 29535 26812 22793 8288
internal_value=0 0.013849 -0.0286987 -0.000654585 0.0234289 -0.0462653 -0.013873 -0.00981158 -0.007633 -0.0365564 0.0140637 0.0321847 0.0130129 -0.0688958 -0.0379314 0.0263042 -0.00478519 0.00733904 -0.0306302 0.00129995 -0.0318377 -0.016471 -0.0603313 -0.0265201 0.0229676 0.00827423 0.0393043 0.0223124 -0.00276807 -0.0810961
internal_weight=0 450112 216923 179044 271068 99284 117639 107213 93411 69477 130976 140092 71831 29807 24228 76723 82419 44612 52053 46456 18398 46955 17513 24794 51607 79369 63369 27219 34236 12294
internal_count=667035 450112 216923 179044 271068 99284 117639 107213 93411 69477 130976 140092 71831 29807 24228 76723 82419 44612 52053 46456 18398 46955 17513 24794 51607 79369 63369 27219 34236 12294
is_linear=0
shrinkage=0.05


Tree=3
num_leaves=31
num_cat=0
split_feature=23 2 2 23 23 23 23 2 2 2 2 23 23 2 2 2 2 2 23 2 23 23 23 23 2 2 2 23 2 11
split_gain=95908.4 23270.6 19882.9 9618.26 7763.87 7706.64 5309.56 3784.51 2696.75 2623.15 2285.48 1693.16 1614.11 1195.17 1039.2 985.966 981.415 866.167 804.7 800.734 767.607 743.336 661.163 642.24 620.669 585.068 500.687 486.774 479.29 418.447
threshold=3.4857973714319246 3.4619523258058291 3.6461947866901352 2.8884099616858241 2.8675224959883008 3.9866598220396994 4.023496774193549 3.2091719894064501 3.7739388794567068 3.0382710644094186 4.0381812065485549 2.4600503919372909 2.4069557362240297 3.0232041969330106 2.8142140273077376 4.0020833333333341 2.6403940886699511 3.7311740890688263 4.2670598172944567 4.0933866279069777 3.7610935302391 3.7997134670487109 3.2111456023651148 3.2481683339082448 2.6779253585397655 2.3923391155052993 4.0112373737373748 3.7197626752966566 3.0563917744329028 0.24011173184357545
decision_type=2 2 2 2 2 2 2 2 2 2 2 2 2 2 2 2 2 2 2 2 2 2 2 2 2 2 2 2 2 2
left_child=1 3 5 11 12 7 10 16 23 24 21 28 26 25 -13 -8 -2 -14 -15 -10 -9 -4 -11 -6 -5 -7 -3 -18 -1 -19
right_child=2 4 6 9 8 13 15 20 19 22 -12 14 17 18 -16 -17 27 29 -20 -21 -22 -23 -24 -25 -26 -27 -28 -29 -30 -31
leaf_value=-0.085242331588370177 -0.036917690643109562 -0.052142682366523731 0.010875012118042494 -0.057461227739042976 -0.017539551486877872 -0.038122491568935164 0.03055667131450876 -0.0024889882062612972 0.00052228884883739554 -0.030209807531285573 0.029142149539805359 -0.07456083724731577 -0.03403915668135267 0.015798876231271446 -0.048261503489090016 0.041601237509340146 -0.019818129423921808 -0.0015519291885629923 0.028812643045754812 0.014541321744127986 0.0069711330138639395 0.019772203873665406 -0.018551372458320649 -0.0063242370618293011 -0.039296156731048346 0.0052921508190231529 -0.024735760912117877 -0.0081411845752668438 -0.066958580960266439 -0.020962627706423511
leaf_weight=6318 5191 8813 53489 6291 25432 833 50657 46782 38224 22651 39045 4649 11150 41139 19560 33617 16909 3977 16701 13886 39589 41838 26259 25628 18623 11345 2055 18902 8284 9198
leaf_count=6318 5191 8813 53489 6291 25432 833 50657 46782 38224 22651 39045 4649 11150 41139 19560 33617 16909 3977 16701 13886 39589 41838 26259 25628 18623 11345 2055 18902 8284 9198
internal_value=0 -0.0243976 0.014738 -0.0412713 -0.0106614 0.00323391 0.0251237 -0.00409105 -0.0037439 -0.0306773 0.0189532 -0.0614226 -0.0309405 0.0165591 -0.0533119 0.0349624 -0.0165999 -0.0237831 0.0195565 0.00425801 0.00184715 0.0147799 -0.0239506 -0.0119104 -0.043883 0.0023225 -0.0469604 -0.0136547 -0.0748696 -0.0151033
internal_weight=0 250998 416037 112635 138363 197391 218646 127373 103170 73824 134372 38811 35193 70018 24209 84274 41002 24325 57840 52110 86371 95327 48910 51060 24914 12178 10868 35811 14602 13175
internal_count=667035 250998 416037 112635 138363 197391 218646 127373 103170 73824 134372 38811 35193 70018 24209 84274 41002 24325 57840 52110 86371 95327 48910 51060 24914 12178 10868 35811 14602 13175
is_linear=0
shrinkage=0.05


Tree=4
num_leaves=31
num_cat=0
split_feature=23 23 23 23 23 23 23 23 13 23 13 11 13 23 23 23 10 5 13 3 3 11 3 13 23 5 11 3 5 23
split_gain=86818.4 19176 13424.8 3843.2 2415.39 2314.17 2225.06 686.134 585.086 499.577 427.68 411.799 398.777 340.503 292.625 273.222 222.018 220.668 218.586 179.712 176.203 167.465 165.121 165.061 155.927 142.27 138.487 125.917 120.924 115.555
threshold=3.3644024514811037 3.8449489745854191 2.7199221789883272 4.1407026973064722 3.5915435657066896 3.0658267132512251 2.2037815126050426 4.3448275862068977 0.0082844331583221825 4.023496774193549 0.014683090072415339 0.24011173184357545 0.014683090072415339 1.9595925297113754 3.7197626752966566 2.5711125158027817 0.0056101092122242168 0.14155117715812324 0.014683090072415339 273.50000000000006 900.50000000000011 0.24011173184357545 548.50000000000011 0.00795231771327389 3.2529027814221991 0.17023827746313588 0.21508502125531384 900.50000000000011 0.14107427726547608 2.946269066923183
decision_type=2 2 2 2 2 2 2 2 2 2 2 2 2 2 2 2 2 2 2 2 2 2 2 2 2 2 2 2 2 2
left_child=2 4 6 9 12 11 13 -5 17 -3 21 20 -2 -1 -6 -10 -12 26 29 -14 -4 -7 -18 -15 -23 -21 -8 -19 -28 -13
right_child=1 3 5 7 14 10 8 -9 15 -11 16 18 19 23 -16 -17 22 27 -20 25 -22 24 -24 -25 -26 -27 28 -29 -30 -31
leaf_value=-0.076589173413052852 -0.00170981513896827 0.014393902770518966 -0.021233017617310945 0.026954749139198226 0.0035364256997930128 -0.0074894911157488784 -0.031138812190346046 0.036426947848824109 -0.053731308034397463 0.020429548466156747 -0.015237446188802038 -0.03024146962331083 -0.0044443315556051168 -0.052299251001943284 0.0082603959148488584 -0.042729441486295566 -0.019914308594884092 -0.032062134892547507 -0.034773938165644405 -0.012644572613803227 0.036131411581127731 -0.016045280889813593 -0.031028123301206863 -0.066548327129246534 -0.0094428274898420966 -0.00049138015326520405 -0.045019425317543507 0.0081327357334108202 -0.093030999878894044 -0.023460765981046097
leaf_weight=5243 61064 89960 15921 63879 62699 15419 2072 27284 11927 55396 16735 14572 18316 3622 68704 10711 10067 9324 15949 19418 135 24666 5003 4631 14028 2749 6162 199 134 11046
leaf_count=5243 61064 89960 15921 63879 62699 15419 2072 27284 11927 55396 16735 14572 18316 3622 68704 10711 10067 9324 15949 19418 135 24666 5003 4631 14028 2749 6162 199 134 11046
internal_value=0 0.0117129 -0.0277956 0.0217416 0.00153062 -0.0197995 -0.0490407 0.0297897 -0.0431852 0.0166941 -0.0146003 -0.0275517 -0.00426102 -0.0666249 0.00600635 -0.0485259 -0.0192017 -0.0364275 -0.0301786 -0.00810922 -0.0207507 -0.0118958 -0.0236039 -0.0602948 -0.0136516 -0.0111374 -0.0423513 -0.0312222 -0.0460413 -0.0273178
internal_weight=0 469469 197566 236519 232950 143541 54025 91163 40529 145356 85918 57623 101547 13496 131403 22638 31805 17891 41567 40483 16056 54113 15070 8253 38694 22167 8368 9523 6296 25618
internal_count=667035 469469 197566 236519 232950 143541 54025 91163 40529 145356 85918 57623 101547 13496 131403 22638 31805 17891 41567 40483 16056 54113 15070 8253 38694 22167 8368 9523 6296 25618
is_linear=0
shrinkage=0.05


Tree=5
num_leaves=31
num_cat=0
split_feature=23 2 2 23 23 23 23 2 2 2 2 2 2 23 23 2 2 23 2 23 2 2 23 23 2 11 23 23 13 13
split_gain=78076.2 22127.6 17066.6 7190.81 7155.35 5867.15 4465.44 3242.15 2301.99 2200.01 2176.45 2159.61 1215.7 1142.64 1133.32 1004.15 908.855 780.151 750.047 722.124 620.589 591.49 556.712 526.124 463.136 443.129 391.911 362.217 359.592 358.113
threshold=3.3692900302114808 3.5552168021680219 3.4695902688860438 3.8408401914506265 3.9059798505037375 2.7468026550105233 2.6886509998870189 3.105910267471959 2.9439471947194726 4.0266303659617586 3.87554347826087 3.9145419602818712 2.6024451318309034 4.2015658571414471 4.2100223428024268 3.1201352101479576 4.0638026487190624 3.6308827703661657 2.6024451318309034 2.3238162975005081 3.695482336956522 4.0933866279069777 3.116472868217055 2.2037815126050426 3.2091719894064501 0.24543789543789546 3.6308827703661657 2.2719568567026198 0.011228075704807982 0.019507870610621005
decision_type=2 2 2 2 2 2 2 2 2 2 2 2 2 2 2 2 2 2 2 2 2 2 2 2 2 2 2 2 2 2
left_child=2 4 5 10 7 15 16 18 -7 14 29 20 -6 24 -5 27 19 -9 -2 -4 28 -12 -10 -17 -14 -13 -20 -1 -8 -3
right_child=1 3 6 9 12 8 11 17 22 -11 21 25 13 -15 -16 23 -18 -19 26 -21 -22 -23 -24 -25 -26 -27 -28 -29 -30 -31
leaf_value=-0.080509760069660249 -0.04065080629940885 0.0078187304414325167 -0.048583752672467465 0.020031064698290631 -0.022122125225988304 -0.049443544994387585 -0.011779908491374474 -0.0097862184655058068 -0.033140548670358962 0.036433323074176252 0.014419459939442115 0.016214724367262384 -3.2999747773896881e-05 0.020589690677611624 0.031336625649511028 -0.067131946608621915 -0.0083662126702781295 0.00014731616251808193 -0.025717552552570307 -0.028670749901253446 -0.0067635075738070264 0.024846904044591361 -0.022409220158305626 -0.045699413546592238 0.010640696876915538 0.0013584712966674642 -0.014305422961129969 -0.063648447738428662 -0.022798294967207217 4.0384265054150176e-05
leaf_weight=4689 4870 49163 6938 73497 2772 15921 15212 35354 23110 47194 33391 6987 15417 23521 31740 3768 3638 44828 13834 13243 28006 22945 25334 11927 29821 17824 16491 9931 14428 21169
leaf_count=4689 4870 49163 6938 73497 2772 15921 15212 35354 23110 47194 33391 6987 15417 23521 31740 3768 3638 44828 13834 13243 28006 22945 25334 11927 29821 17824 16491 9931 14428 21169
internal_value=0 0.0112313 -0.0260536 0.0201474 -0.00208263 -0.0414913 -0.0123004 -0.00978561 -0.0329493 0.0274635 0.0113434 -0.00679194 0.010342 0.0116508 0.0234409 -0.0596277 -0.0313698 -0.0042326 -0.0224366 -0.0355166 -0.0121006 0.0186664 -0.0275286 -0.0508449 0.00700313 0.00554213 -0.0195115 -0.0690563 -0.0171434 0.00547755
internal_weight=0 466007 200956 279099 186908 94680 106276 115377 64365 152431 126668 82457 71531 68759 105237 30315 23819 80182 35195 20181 57646 56336 48444 15695 45238 24811 30325 14620 29640 70332
internal_count=666963 466007 200956 279099 186908 94680 106276 115377 64365 152431 126668 82457 71531 68759 105237 30315 23819 80182 35195 20181 57646 56336 48444 15695 45238 24811 30325 14620 29640 70332
is_linear=0
shrinkage=0.05


Tree=6
num_leaves=31
num_cat=0
split_feature=2 24 2 2 24 24 2 2 24 2 2 24 2 24 24 24 24 22 2 22 24 24 24 2 22 2 22 22 2 22
split_gain=48396.2 12060.9 10576.4 5985.21 4684.58 2507.17 2338.89 1883.88 1616.78 1587.08 1150.55 1120.86 859.996 698.657 622.86 487.491 484.579 431.701 422.641 400.586 378.919 360.048 343.649 324.521 308.876 303.73 280.004 269.339 248.725 245.448
threshold=3.4894725177304973 556.00000000000011 3.8806935817805388 2.907486631016043 698.50000000000011 1262.0000000000002 4.2319420289855083 3.105910267471959 706.50000000000011 3.2523867809057534 3.6803126333109883 1262.0000000000002 2.5554319614386363 176.50000000000003 176.50000000000003 176.50000000000003 217.50000000000003 2.5000000000000004 2.6403940886699511 3.5000000000000004 176.50000000000003 171.50000000000003 1396.0000000000002 4.4449944994499466 1.5000000000000002 2.9439471947194726 2.5000000000000004 2.5000000000000004 4.0638026487190624 1.5000000000000002
decision_type=2 2 2 2 2 2 2 2 2 2 2 2 2 2 2 2 2 2 2 2 2 2 2 2 2 2 2 2 2 2
left_child=1 3 4 12 10 7 8 18 21 13 16 19 -1 -5 -11 -14 -2 -9 -3 -6 -12 -4 -10 -8 -16 -7 -18 -20 -23 -15
right_child=2 5 6 9 11 25 23 17 22 14 20 -13 15 29 24 -17 26 -19 27 -21 -22 28 -24 -25 -26 -27 -28 -29 -30 -31
leaf_value=-0.060946386453931779 -0.01263278414275963 -0.032571291347629337 0.0059291311996016562 -0.036091257319259787 0.010184339536381298 -0.0028425514199879281 0.029026890276224179 -0.00016145958154448496 0.021015680591215169 -0.023406322827257544 -0.0039083140832144063 0.020075049155084901 -0.050607194533974359 -0.017758954602280091 -0.0069360532266307595 -0.035822008023799458 -0.0012015236709913548 -0.0090552322919346586 -0.012200523573075855 -0.0018976220077717436 0.0044002196891171057 0.011807957003597115 0.02937686886888409 0.040200391091933158 -0.015665753828549862 0.011000025222934253 -0.01017334305070986 -0.022867669751526924 0.01850329182015982 -0.026652362477843819
leaf_weight=7224 21724 4869 16328 16612 54480 4816 27449 35475 38595 18941 17875 32858 8824 11796 15693 15142 33327 22172 14845 7849 59073 37040 18030 8514 28598 22366 11767 9840 22176 22665
leaf_count=7224 21724 4869 16328 16612 54480 4816 27449 35475 38595 18941 17875 32858 8824 11796 15693 15142 33327 22172 14845 7849 59073 37040 18030 8514 28598 22366 11767 9840 22176 22665
internal_value=0 -0.0168596 0.0107588 -0.0264102 0.00399853 -0.00471126 0.0203667 -0.00884422 0.0172905 -0.0211128 -0.001698 0.0126023 -0.045824 -0.0276684 -0.0158179 -0.0412657 -0.00649806 -0.00358215 -0.0191082 0.00866288 0.00247015 0.0125027 0.023678 0.0316721 -0.0125727 0.00854745 -0.00354266 -0.0164527 0.0143153 -0.0236081
internal_weight=0 259878 407085 145495 238953 114383 168132 87201 132169 114305 143766 95187 31190 51073 63232 23966 66818 57647 29554 62329 76948 75544 56625 35963 44291 27182 45094 24685 59216 34461
internal_count=666963 259878 407085 145495 238953 114383 168132 87201 132169 114305 143766 95187 31190 51073 63232 23966 66818 57647 29554 62329 76948 75544 56625 35963 44291 27182 45094 24685 59216 34461
is_linear=0
shrinkage=0.05


Tree=7
num_leaves=31
num_cat=0
split_feature=23 2 2 23 23 23 23 2 2 2 2 2 2 23 23 2 23 2 2 2 23 23 2 11 23 23 23 23 11 23
split_gain=67599 18910.2 12841.2 8611.84 4833.65 4256 3927.9 3707.54 2126.18 1502.69 1429.52 1228.68 1164.69 1060.31 1024.48 733.324 728.626 708.205 684.389 661.416 557.703 557.259 515.246 509.404 420.779 417.271 358.567 326.109 313.707 312.838
threshold=3.3300708486141226 3.6927146927146932 3.3969729915312432 3.8951830443159925 3.8319952957415198 2.6068121693121697 2.7199221789883272 3.1553235341975379 3.7311740890688263 2.8382721047777877 3.0232041969330106 4.0776515151515165 4.0933866279069777 4.1963801274718096 3.6168270683181567 3.7187064763231201 4.1461019518665916 2.6779253585397655 2.7902592301649647 4.0112373737373748 2.1527336059366955 3.012298387096775 2.3923391155052993 0.24011173184357545 3.585180724705316 3.0961288711288719 3.6397573656845759 2.2037815126050426 0.32403213249345325 4.2611230482738867
decision_type=2 2 2 2 2 2 2 2 2 2 2 2 2 2 2 2 2 2 2 2 2 2 2 2 2 2 2 2 2 2
left_child=2 3 6 7 12 15 18 17 21 -8 22 16 24 -12 -9 27 -6 -2 -1 -10 -20 -7 -5 -17 -3 -11 -19 -4 -21 -24
right_child=1 4 5 10 11 8 9 14 19 25 13 -13 -14 -15 -16 23 -18 26 20 28 -22 -23 29 -25 -26 -27 -28 -29 -30 -31
leaf_value=-0.073926268990026203 -0.034161693388110259 0.0052060621017737821 -0.057044951630849987 -0.034236844055724483 0.020131683735677169 -0.024440137092826338 -0.049838236634289108 -0.0075228457983977596 -0.0065236033684151042 -0.033852085082605975 0.010445765816898635 0.034241064734657531 0.022036839660823281 0.022247297831595025 0.0020911605857684575 -0.0098962228565511734 0.029793839785277266 -0.021890643407525612 -0.06881071912879265 0.013170832477621207 -0.048838927619330591 -0.012933497642067427 -0.0030711924974170337 -0.033279013282346941 0.012598891967266405 -0.023782358095767404 -0.01154643850805947 -0.038098588357074976 -0.0009014890601274216 0.014167641939261472
leaf_weight=4865 7149 33745 3319 1128 54206 17483 10688 50498 29019 20489 54568 40018 23858 29226 61405 3524 30485 17116 4443 7971 16391 26427 11742 6870 44801 20663 16409 7194 7871 3392
leaf_count=4865 7149 33745 3319 1128 54206 17483 10688 50498 29019 20489 54568 40018 23858 29226 61405 3524 30485 17116 4443 7971 16391 26427 11742 6870 44801 20663 16409 7194 7871 3392
internal_value=0 0.00994149 -0.0254838 0.000529349 0.0204112 -0.0144734 -0.0410578 -0.00694632 -0.00969348 -0.0331343 0.0119291 0.0270212 0.0123616 0.014562 -0.00224731 -0.034769 0.0236096 -0.0198743 -0.057041 -0.00203784 -0.0530981 -0.0175149 -0.00163722 -0.0253513 0.00942278 -0.0287959 -0.0168276 -0.04408 0.00617909 0.000792566
internal_weight=0 479746 187217 252633 227113 109678 77539 152577 88771 51840 100056 124709 102404 83794 111903 20907 84691 40674 25699 44861 20834 43910 16262 10394 78546 41152 33525 10513 15842 15134
internal_count=666963 479746 187217 252633 227113 109678 77539 152577 88771 51840 100056 124709 102404 83794 111903 20907 84691 40674 25699 44861 20834 43910 16262 10394 78546 41152 33525 10513 15842 15134
is_linear=0
shrinkage=0.05


Tree=8
num_leaves=31
num_cat=0
split_feature=23 2 2 23 23 23 2 23 2 2 23 23 2 2 2 2 2 2 2 11 11 23 23 13 2 2 23 23 2 2
split_gain=61163.8 16192.8 12453.6 6846.76 5519.11 4890.52 2853.61 2574.57 1822.61 1793.61 1420.83 1218.89 1040.15 814.929 778.195 736.428 635.274 608.721 522.269 516.55 501.612 492.04 489.704 434.603 417.963 396.337 393.74 384.98 378.038 327.771
threshold=3.5205031219980794 3.4619523258058291 3.7071617212987422 2.9079973325125685 2.974531700288185 4.0135152333418187 3.2091719894064501 3.9978540443730171 3.0854314002828862 3.7739388794567068 2.4069557362240297 2.5026881720430114 4.101348636093296 3.2091719894064501 3.7187064763231201 3.0382710644094186 2.6024451318309034 4.2319420289855083 2.7902592301649647 0.30996975072780208 0.30996975072780208 3.7784135668576737 4.2670598172944567 0.019436364323221642 2.3923391155052993 4.0638026487190624 3.2481683339082448 4.2845943204868169 3.0498756218905476 4.0638026487190624
decision_type=2 2 2 2 2 2 2 2 2 2 2 2 2 2 2 2 2 2 2 2 2 2 2 2 2 2 2 2 2 2
left_child=1 3 5 11 10 6 16 12 18 23 25 28 -4 24 -12 -13 -2 27 -5 29 -16 -8 -15 -6 -7 -3 -10 -9 -1 -11
right_child=2 4 7 8 9 13 21 17 26 19 14 15 -14 22 20 -17 -18 -19 -20 -21 -22 -23 -24 -25 -26 -27 -28 -29 -30 -31
leaf_value=-0.068232091362262298 -0.031202982312074603 -0.041700747987498968 0.013795854841757403 -0.042180021714635946 -0.0051628649794633052 -0.030207655881829276 -0.00014224910068484899 0.024150818833827511 -0.022312924490820171 0.0071249491683248777 -0.025450159002479624 -0.052495666131221801 0.025223317989788607 0.01443259509283506 -0.0023567154396865178 -0.034975263605885952 -0.010561170016561993 0.038081126821399296 -0.02831756662432354 0.0012855398503513729 -0.018446902931820264 0.006924099793870004 0.024599157971511243 -0.016005115989086265 0.0071321299774547934 -0.014886994673706558 -0.013163407609736916 0.032461930988643327 -0.052752587012674983 0.02032904190307408
leaf_weight=6803 4166 9263 78399 10189 38726 782 52855 47560 21402 14650 15244 9731 26693 37464 9751 15633 35404 13895 20394 31008 9625 46140 17321 12140 17997 1619 26096 19707 9386 6920
leaf_count=6803 4166 9263 78399 10189 38726 782 52855 47560 21402 14650 15244 9731 26693 37464 9751 15633 35404 13895 20394 31008 9625 46140 17321 12140 17997 1619 26096 19707 9386 6920
internal_value=0 -0.0184431 0.0124301 -0.0321418 -0.00744021 0.00414644 -0.0013852 0.0218645 -0.0234159 -0.0010568 -0.0219522 -0.0485385 0.0166984 0.0145658 -0.0169987 -0.041697 -0.0127344 0.0285537 -0.032936 0.00541899 -0.0103495 0.00315126 0.0176469 -0.00775054 0.00557722 -0.0377115 -0.0172861 0.0265857 -0.0592574 0.011361
internal_weight=0 268580 398383 119634 148946 212129 138565 186254 78081 103444 45502 41553 105092 73564 34620 25364 39570 81162 30583 52578 19376 98995 54785 50866 18779 10882 47498 67267 16189 21570
internal_count=666963 268580 398383 119634 148946 212129 138565 186254 78081 103444 45502 41553 105092 73564 34620 25364 39570 81162 30583 52578 19376 98995 54785 50866 18779 10882 47498 67267 16189 21570
is_linear=0
shrinkage=0.05


Tree=9
num_leaves=31
num_cat=0
split_feature=23 23 23 23 23 23 23 23 13 11 13 13 23 23 11 13 23 13 10 11 4 23 3 11 24 11 13 23 13 13
split_gain=55450.2 13741.1 7439.24 2742.27 1708.14 1442.47 1221.62 554.522 538.314 481.409 411.165 391.682 356.805 251.294 216.878 208.013 161.407 160.879 159.413 151.042 147.659 146.998 136.353 118.111 110.352 105.854 107.419 98.7343 95.0613 93.3379
threshold=3.2993506493506497 3.8228355246499297 2.6497126436781611 4.129253081928824 3.573053767364279 3.047408953839017 2.051677286356822 4.3747609039263304 0.0082844331583221825 0.2466642946095001 0.014683090072415339 0.014161798992203366 3.9779086413326397 2.4069557362240297 0.24011173184357545 0.014683090072415339 2.8327250608272512 0.00795231771327389 0.00940018093454798 0.24011173184357545 0.28086495937467865 3.7401319202549472 900.50000000000011 0.24011173184357545 319.50000000000006 0.15402588066139469 0.033745824476161562 3.7197626752966566 0.015768752590136763 0.016769150013122871
decision_type=2 2 2 2 2 2 2 2 2 2 2 2 2 2 2 2 2 2 2 2 2 2 2 2 2 2 2 2 2 2
left_child=2 4 6 12 10 8 17 -5 14 22 23 19 -3 29 -4 27 -10 -1 -13 -7 24 -17 25 -2 -12 -8 -27 -6 -15 -11
right_child=1 3 5 7 15 11 9 -9 16 13 20 18 -14 28 -16 21 -18 -19 -20 -21 -22 -23 -24 -25 -26 26 -28 -29 -30 -31
leaf_value=-0.051410961254645865 0.0016091258671298066 0.010618906898635079 -0.012606625830446416 0.021603986885211937 0.0043060498215086737 -0.0053361226722901025 -0.023793514941531708 0.030633938747283918 -0.032030232828102238 -0.044609697895513098 -0.0062634495958929478 -0.015025796139690094 0.015448904072506457 -0.034568926236204056 -0.021731164822211289 -1.8001615111470601e-05 -0.024938577465177709 -0.065825022430329505 -0.023385799821190888 -0.011839100926394598 -0.0038387579634624153 0.0052163259771860022 0.022763053144587847 -0.0030820434042674004 -0.012421753676534059 -0.032248135860651415 -0.059342495886321268 0.0080494757858761857 -0.043410253310698685 -0.055180500126096182
leaf_weight=3570 18449 81020 11195 71177 39603 12592 4210 22337 11899 7596 12112 17928 72409 9808 15569 36078 24635 4229 8362 30697 14578 21351 122 49196 18213 8635 382 31725 4406 2880
leaf_count=3570 18449 81020 11195 71177 39603 12592 4210 22337 11899 7596 12112 17928 72409 9808 15569 36078 24635 4229 8362 30697 14578 21351 122 49196 18213 8635 382 31725 4406 2880
internal_value=0 0.00872013 -0.0238314 0.0170119 0.000234671 -0.0178398 -0.0412001 0.0237609 -0.0233017 -0.0375041 -0.00426484 -0.012871 0.0128984 -0.04164 -0.0179145 0.00416775 -0.0272483 -0.059227 -0.0176848 -0.0099475 -0.00797412 0.00192802 -0.0298543 -0.00180261 -0.00996209 -0.0303396 -0.033396 0.00597104 -0.0373095 -0.0475158
internal_weight=0 488248 178715 246943 241305 132877 45838 93514 63298 38039 112548 69579 153429 24690 26764 128757 36534 7799 26290 43289 44903 57429 13349 67645 30325 13227 9017 71328 14214 10476
internal_count=666963 488248 178715 246943 241305 132877 45838 93514 63298 38039 112548 69579 153429 24690 26764 128757 36534 7799 26290 43289 44903 57429 13349 67645 30325 13227 9017 71328 14214 10476
is_linear=0
shrinkage=0.05


Tree=10
num_leaves=31
num_cat=0
split_feature=23 2 2 23 23 23 23 2 2 2 2 2 2 2 23 2 23 11 23 11 2 23 23 2 13 2 2 2 2 13
split_gain=50035 13146.3 12983.4 4231.28 3951.71 3718.38 3704.07 2066.14 1829.56 1684.49 1214.31 1093.61 1057.29 928.209 757.26 657.614 581.035 566.458 562.74 522.067 496.465 454.972 419.379 415.594 399.885 358.737 333.901 329.287 321.689 307.684
threshold=3.4419172932330833 3.541306467338317 3.3969729915312432 2.8675224959883008 2.9182000669120112 4.0025323737408485 3.9371454619124804 3.0136152149331754 3.7670567894666847 4.0020833333333341 3.9104591836734697 2.8142140273077376 3.7187064763231201 2.7902592301649647 2.3238162975005081 2.6024451318309034 2.3743686868686873 0.30996975072780208 3.7197626752966566 0.30996975072780208 2.3923391155052993 4.2611230482738867 4.2958290488431885 3.7889398572884816 0.023575729504400188 4.2319420289855083 4.2319420289855083 3.1299752475247531 4.2404534984467794 0.0084447613953764784
decision_type=2 2 2 2 2 2 2 2 2 2 2 2 2 2 2 2 2 2 2 2 2 2 2 2 2 2 2 2 2 2
left_child=2 5 4 12 13 7 9 20 24 23 22 -6 16 -1 -15 -7 -4 25 -9 28 -2 -17 -8 -3 -5 -14 -12 -13 -10 -16
right_child=1 6 3 8 11 15 10 18 19 -11 26 27 17 14 29 21 -18 -19 -20 -21 -22 -23 -24 -25 -26 -27 -28 -29 -30 -31
leaf_value=-0.061673814750092565 -0.043004700567228889 0.0054286921623659433 -0.045212552386474085 -0.0080938705176381454 -0.039299563987157296 -0.017233442366404488 0.016510946988660201 -0.0064870383461665326 0.0072746746074529274 0.020240822905590469 0.02624698694330237 -0.026578528089547554 -0.010148172285307695 -0.05546613791459868 -0.031283018182002152 0.0078724160789112093 -0.025944377137946634 -0.023875847705603553 0.0015837688715695842 -0.001046759427806523 -0.016369403435172264 0.018036163906181773 0.025990762111610489 0.011839525653450816 -0.019654200823611714 0.019316577938237416 0.034777529530009711 -0.017772923196766748 0.027370313908730088 -0.042688751191387653
leaf_weight=7114 1882 60230 5451 45305 10153 2119 51207 42027 18013 39596 41439 17166 9119 7539 11257 33578 13863 9224 44432 27941 24849 16383 15109 43566 8960 1165 15862 27828 2239 12455
leaf_count=7114 1882 60230 5451 45305 10153 2119 51207 42027 18013 39596 41439 17166 9119 7539 11257 33578 13863 9224 44432 27941 24849 16383 15109 43566 8960 1165 15862 27828 2239 12455
internal_value=0 0.0100746 -0.0185982 -0.00903249 -0.0330502 -0.00100835 0.0169346 -0.00609558 -0.00370611 0.0114667 0.0232772 -0.0244771 -0.0230897 -0.0453733 -0.0416627 0.0100482 -0.0313824 -0.0148794 -0.00233938 0.00338376 -0.0182447 0.0112053 0.0186708 0.00811949 -0.0100027 -0.00681032 0.0286084 -0.0211324 0.00949639 -0.037274
internal_weight=0 432279 234792 141280 93512 165270 267009 113190 102458 143392 123617 55147 38822 38365 31251 52080 19314 19508 86459 48193 26731 49961 66316 103796 54265 10284 57301 44994 20252 23712
internal_count=667071 432279 234792 141280 93512 165270 267009 113190 102458 143392 123617 55147 38822 38365 31251 52080 19314 19508 86459 48193 26731 49961 66316 103796 54265 10284 57301 44994 20252 23712
is_linear=0
shrinkage=0.05


Tree=11
num_leaves=31
num_cat=0
split_feature=23 2 2 23 23 23 23 2 2 2 2 2 2 2 23 23 11 11 2 13 2 23 2 13 2 23 23 2 23 23
split_gain=45311.6 13988.7 9652.37 4948.25 3939.49 3051.12 2489.85 1802.5 1638.61 1561.06 1556.53 1100.82 795.057 749.983 658.645 652.674 502.93 465.252 460.918 458.427 444.419 434.621 426.558 385.317 370.048 357.259 346.144 296.466 289.359 279.001
threshold=3.334549878345499 3.4849984998499854 3.3624473153747485 3.8171279011292119 3.8951830443159925 2.6886509998870189 2.6497126436781611 3.8703448275862073 3.0136152149331754 3.8944272445820438 3.7670567894666847 2.907486631016043 3.7187064763231201 2.6024451318309034 4.1038817536055108 4.1407026973064722 0.24011173184357545 0.30996975072780208 4.3297424610988848 0.026076653616319802 2.3923391155052993 3.6892071517931613 2.7902592301649647 0.00795231771327389 4.2319420289855083 2.2037815126050426 4.2100223428024268 4.2537318712415999 2.1527336059366955 3.0366335403726712
decision_type=2 2 2 2 2 2 2 2 2 2 2 2 2 2 2 2 2 2 2 2 2 2 2 2 2 2 2 2 2 2
left_child=2 4 6 9 8 12 22 15 20 19 23 -8 25 -6 -15 -5 -14 27 26 -3 -2 -10 -1 -7 -11 -4 -9 -12 -24 -13
right_child=1 3 5 7 13 10 11 18 21 24 17 29 16 14 -16 -17 -18 -19 -20 -21 -22 -23 28 -25 -26 -27 -28 -29 -30 -31
leaf_value=-0.063653302843105206 -0.043072738242668912 0.0050971615913845856 -0.047700090493119865 0.012039188461266321 -0.018532695453837643 -0.0073202239129286657 -0.040485912799458727 0.021570243319755857 -0.008876372816469684 0.012122201657778026 0.00427184601434782 -0.029284947415446946 -0.0038598656532801779 0.0023652115979890063 0.01286917309179802 0.020866404408374596 -0.024237405955657095 -0.004513053191467672 0.034750649336095542 -0.0040783053000077139 -0.01834845925245791 -0.00099744398170330045 -0.057193131249648949 -0.016458927278828247 0.022566585937795383 -0.029622158794315779 0.029127328620240197 0.025904753031288259 -0.042036361269967452 -0.020629026968148875
leaf_weight=4198 1956 70826 3638 58345 2915 18449 15003 48738 45161 41605 15422 16746 4597 30890 28874 32664 8871 21754 11407 16852 25677 28580 4201 30774 10652 10985 21989 1765 12574 20963
leaf_count=4198 1956 70826 3638 58345 2915 18449 15003 48738 45161 41605 15422 16746 4597 30890 28874 32664 8871 21754 11407 16852 25677 28580 4201 30774 10652 10985 21989 1765 12574 20963
internal_value=0 0.0082054 -0.0206704 0.0144028 -0.00362159 -0.0116969 -0.0348282 0.0200538 -0.00971409 0.00741064 -0.00712459 -0.0290306 -0.026047 0.00623212 0.00744003 0.0152074 -0.017282 0.000344761 0.025424 0.00333361 -0.0200986 -0.00582271 -0.0493992 -0.0130337 0.0142512 -0.0341197 0.0239197 0.00649341 -0.0458321 -0.024473
internal_weight=0 477131 189940 313078 164053 116255 73685 173143 101374 139935 88164 52712 28091 62679 59764 91009 13468 38941 82134 87678 27633 73741 20973 49223 52257 14623 70727 17187 16775 37709
internal_count=667071 477131 189940 313078 164053 116255 73685 173143 101374 139935 88164 52712 28091 62679 59764 91009 13468 38941 82134 87678 27633 73741 20973 49223 52257 14623 70727 17187 16775 37709
is_linear=0
shrinkage=0.05


Tree=12
num_leaves=31
num_cat=0
split_feature=23 2 2 23 23 23 23 2 2 2 2 2 23 23 13 2 2 11 13 2 2 2 2 11 23 2 11 13 23 2
split_gain=41001.5 13504.6 7905.54 4865.53 3962.85 2745.12 1772.83 1648.4 1541.3 1410.52 1382.35 1050.78 934.873 663.901 628.134 526.737 512.111 430.882 420.486 407.577 374.735 370.392 364.752 309.439 302.439 301.093 296.712 291.794 265.494 259.573
threshold=3.2766070903206832 3.4849984998499854 3.5006297229219148 3.8106091127098325 3.8025558249032687 2.6497126436781611 2.5334276354973202 3.9177276390008062 3.8944272445820438 3.0498756218905476 3.0232041969330106 4.0112373737373748 4.087891701260058 4.0935216901813307 0.017079431755199676 3.0136152149331754 3.0498756218905476 0.24384174914210252 0.024316334072431636 2.3923391155052993 2.3923391155052993 4.1536276223776234 4.3297424610988848 0.34798711755233497 3.5915435657066896 2.7902592301649647 0.36248393316195376 0.017079431755199676 2.051677286356822 4.0694857970548011
decision_type=2 2 2 2 2 2 2 2 2 2 2 2 2 2 2 2 2 2 2 2 2 2 2 2 2 2 2 2 2 2
left_child=2 4 5 8 10 16 17 13 18 25 20 14 15 -5 23 -6 -1 29 24 -14 -2 -10 -9 -8 -3 -7 -12 -11 -18 -4
right_child=1 3 6 7 12 9 11 22 21 27 26 -13 19 -15 -16 -17 28 -19 -20 -21 -22 -23 -24 -25 -26 -27 -28 -29 -30 -31
leaf_value=-0.053816084166804584 -0.042629767836990635 0.0014396439488201316 -0.020298806381592233 0.011444682668525151 -0.0092745349808032382 -0.043692549588839391 -0.0031501125354428321 0.023249698091842803 0.010497021522601912 -0.0179716719060087 -0.0045475453838321354 0.0049959571079397228 -0.029843686550560567 0.019544276731775514 -0.018224648059544629 0.002775537341746237 -0.053325839157708534 -0.033047672517903769 -0.0038573401276286281 0.011557327011758281 -0.019151515327828061 0.019311754591421801 0.032971911723527619 -0.012213707862844553 0.0078647564402074752 -0.031449848111493081 -0.011477931892048701 -0.027834792333130305 -0.03645454929463033 0.0089911094669139751
leaf_weight=10120 1826 39064 3609 58656 12160 8218 24720 60321 37505 31414 40171 14771 606 44489 16402 35676 2834 8915 19199 31236 24541 17468 11484 15212 34483 12914 25090 9850 13160 957
leaf_count=10120 1826 39064 3609 58656 12160 8218 24720 60321 37505 31414 40171 14771 606 44489 16402 35676 2834 8915 19199 31236 24541 17468 11484 15212 34483 12914 25090 9850 13160 957
internal_value=0 0.00732217 -0.0209565 0.0133459 -0.00402402 -0.0314024 -0.0100261 0.0189877 0.00666407 -0.0257059 -0.0111156 -0.00687422 0.00413114 0.0149382 -0.00998662 -0.000287613 -0.0450136 -0.0266504 0.00273199 0.0107694 -0.0207775 0.013298 0.0248046 -0.00660287 0.0044521 -0.0362109 -0.00721198 -0.0203261 -0.039444 -0.0141599
internal_weight=0 493975 173096 322669 171306 88510 84586 174950 147719 62396 91628 71105 79678 103145 56334 47836 26114 13481 92746 31842 26367 54973 71805 39932 73547 21132 65261 41264 15994 4566
internal_count=667071 493975 173096 322669 171306 88510 84586 174950 147719 62396 91628 71105 79678 103145 56334 47836 26114 13481 92746 31842 26367 54973 71805 39932 73547 21132 65261 41264 15994 4566
is_linear=0
shrinkage=0.05


Tree=13
num_leaves=31
num_cat=0
split_feature=23 2 2 23 23 23 2 23 2 23 2 2 2 2 2 23 3 2 2 11 11 13 2 23 11 23 2 23 23 13
split_gain=37234.2 10023 9330.4 3503.42 3307.33 3178.73 2098.33 1931.15 1223.17 1069.62 981.001 853.902 797.097 752.67 725.915 494.174 470.758 431.203 406.336 391.332 383.269 381.505 360.775 315.86 310.735 297.83 283.807 273.101 270.915 255.579
threshold=3.4683111448151895 3.3969729915312432 3.4129733520336614 3.012298387096775 4.0437056576314365 2.946269066923183 3.8703448275862073 4.021674491392802 3.7670567894666847 2.4069557362240297 3.0136152149331754 2.7902592301649647 3.859512061403509 2.907486631016043 3.7187064763231201 2.3238162975005081 430.50000000000006 4.1717960858585874 2.3923391155052993 0.30996975072780208 0.30996975072780208 0.0084447613953764784 2.3923391155052993 3.7073819408406856 0.36248393316195376 3.7197626752966566 3.1299752475247531 4.2845943204868169 4.3839869587054059 0.0085653497670665074
decision_type=2 2 2 2 2 2 2 2 2 2 2 2 2 2 2 2 2 2 2 2 2 2 2 2 2 2 2 2 2 2
left_child=1 5 7 9 6 13 16 10 24 21 22 -7 28 -1 -11 -15 23 -8 -9 -10 -16 -3 -2 -4 -5 -12 -13 -20 -6 -17
right_child=2 3 4 8 12 11 17 18 19 14 25 26 -14 15 20 29 -18 -19 27 -21 -22 -23 -24 -25 -26 -27 -28 -29 -30 -31
leaf_value=-0.049389594494680673 -0.036659013876714885 -0.020462837874628971 -0.00011481102113876304 -0.0035487206211131488 0.015275771315867685 -0.03478091263508442 0.01389153828473387 -0.028543262181794229 0.010213261875229919 -0.020220429629083877 -0.0074858301346575938 -0.022497717821965385 0.025380081408406103 -0.046549833084677091 -0.00059643582217675005 -0.0249931106303155 0.010683222655502925 0.022162595342618205 0.0047723965377810627 0.00068476580805706879 -0.013819270887727879 -0.038324724319895663 -0.013626693719269731 0.0061040928659369951 -0.011635431990281598 -0.00012823203882514437 -0.014731062844907217 0.014616173445481077 0.025212172346744662 -0.035921700841613793
leaf_weight=11838 1829 5362 32946 29026 48242 8799 55577 796 18224 21118 25226 19703 49686 6383 10922 10242 33980 21994 24613 26364 10999 6756 24144 53693 20109 30245 29186 9872 7997 11200
leaf_count=11838 1829 5362 32946 29026 48242 8799 55577 796 18224 21118 25226 19703 49686 6383 10922 10242 33980 21994 24613 26364 10999 6756 24144 53693 20109 30245 29186 9872 7997 11200
internal_value=0 -0.0154584 0.00902084 -0.007301 0.0136332 -0.0279335 0.00982126 -0.00299623 -0.00141697 -0.0172992 -0.00722912 -0.0204419 0.0207655 -0.0388297 -0.0136046 -0.0343371 0.00569546 0.0162367 0.00677513 0.00457925 -0.00723108 -0.0304212 -0.0152486 0.00373925 -0.00685829 -0.00347417 -0.0178611 0.00759037 0.0166887 -0.0307015
internal_weight=0 246231 420840 148880 304115 97351 198190 116725 93723 55157 81444 57688 105925 39663 43039 27825 120619 77571 35281 44588 21921 12118 25973 86639 49135 55471 48889 34485 56239 21442
internal_count=667071 246231 420840 148880 304115 97351 198190 116725 93723 55157 81444 57688 105925 39663 43039 27825 120619 77571 35281 44588 21921 12118 25973 86639 49135 55471 48889 34485 56239 21442
is_linear=0
shrinkage=0.05


Tree=14
num_leaves=31
num_cat=0
split_feature=23 2 2 23 23 23 2 23 2 2 2 2 23 2 23 2 2 13 13 23 11 2 13 2 23 2 13 11 23 20
split_gain=33641.6 9833.49 7752.75 4135.99 2789.77 2687.25 1894.59 1448.6 1071.23 1012.25 898.45 808.565 789.781 605.912 539.899 508.069 440.301 423.23 403.572 394.125 350.097 331.019 311.434 301.706 289.522 279.083 278.097 271.357 252.261 238.361
threshold=3.5205031219980794 3.5006297229219148 3.7040694559446696 2.99046519001676 3.0366335403726712 4.0371669201735125 3.2008875343699059 4.0775670766133993 3.0854314002828862 3.1201352101479576 3.9145419602818712 4.115841384863125 2.3238162975005081 4.0112373737373748 2.4600503919372909 3.2091719894064501 2.6024451318309034 0.009866225386583603 0.017453011765887299 2.5026881720430114 0.36756661991584855 2.6024451318309034 0.023310149967398396 4.2319420289855083 3.7351507297355675 2.3923391155052993 0.00795231771327389 0.31960594315245483 4.3839869587054059 0.063120034457412807
decision_type=2 2 2 2 2 2 2 2 2 2 2 2 2 2 2 2 2 2 2 2 2 2 2 2 2 2 2 2 2 2
left_child=1 3 5 9 12 6 16 11 21 19 18 24 26 17 -11 25 -2 -14 -6 -1 -8 -5 -12 -9 -4 -7 -3 -10 -17 -22
right_child=2 4 7 8 10 15 20 23 27 14 22 -13 13 -15 -16 28 -18 -19 -20 -21 29 -23 -24 -25 -26 -27 -28 -29 -30 -31
leaf_value=-0.05132074150596011 -0.025622753272033685 -0.017782281558122656 0.0074552205283756074 -0.037350693547999268 9.0269771791790388e-05 -0.026471731278436113 0.0050555020862725585 0.021214149343479091 -0.0081042533282076924 -0.039074236127691619 0.010748607286275743 0.020589458274504261 -0.0083375970164259652 0.00065433063208065101 -0.023963009326673002 0.011915679220370456 -0.0086987025723636226 -0.019680425890286044 -0.0086942832383792492 -0.037586849657530105 0.0023262298360628509 -0.021938149511954302 -0.0014787684152980909 0.030408638957319579 0.013239532903041182 0.0047846220799250827 -0.037121441112485075 -0.015473143665232248 0.022103056016418311 -0.0047362851680329918
leaf_weight=8053 4308 3245 33285 4084 41012 746 54507 51700 23864 8312 22711 30339 15450 8414 20462 43439 35612 17583 19193 14869 27118 23702 6757 10783 61797 16734 4352 26220 7065 21355
leaf_count=8053 4308 3245 33285 4084 41012 746 54507 51700 23864 8312 22711 30339 15450 8414 20462 43439 35612 17583 19193 14869 27118 23702 6757 10783 61797 16734 4352 26220 7065 21355
internal_value=0 -0.013704 0.00919552 -0.0236089 -0.00445263 0.0026148 -0.00127825 0.016581 -0.0163301 -0.0345729 0.000791234 0.0134824 -0.0140406 -0.0113241 -0.0283282 0.0107979 -0.0105251 -0.0143752 -0.00271019 -0.0424119 0.00230627 -0.0242035 0.00794488 0.0228009 0.0112146 0.00345068 -0.0288609 -0.011962 0.0133408 -0.000785193
internal_weight=0 268283 398788 129566 138717 210884 142900 187904 77870 51696 89673 125421 49044 41447 28774 67984 39920 33033 60205 22922 102980 27786 29468 62483 95082 17480 7597 50084 50504 48473
internal_count=667071 268283 398788 129566 138717 210884 142900 187904 77870 51696 89673 125421 49044 41447 28774 67984 39920 33033 60205 22922 102980 27786 29468 62483 95082 17480 7597 50084 50504 48473
is_linear=0
shrinkage=0.05


Tree=15
num_leaves=31
num_cat=0
split_feature=23 2 2 23 23 23 2 2 23 2 2 2 2 2 2 23 23 2 13 23 13 2 13 13 23 13 11 11 3 13
split_gain=30725 9540.31 6436.78 3788.98 2426.57 2389.41 1745.19 1526.36 1265.35 837.663 751.996 629.658 585.95 496.243 477.347 463.073 419.002 406.289 394.508 364.112 352.847 352.404 310.833 295.283 285.926 256.519 254.915 252.004 245.425 227.501
threshold=3.3221598202824136 3.6461947866901352 3.2675882669630609 3.8553472827666382 3.7900472689075637 2.6374332692718347 3.2091719894064501 3.7166329284750343 2.6374332692718347 4.0266303659617586 3.2091719894064501 4.0112373737373748 3.7187064763231201 2.7902592301649647 2.6779253585397655 4.1461019518665916 4.1101691275167793 4.0381812065485549 0.00795231771327389 3.6490266220805148 0.0082844331583221825 2.3923391155052993 0.017734427827837278 0.012685046127440465 4.2611230482738867 0.011042103257763385 0.31798975749724573 0.32898981324278448 294.50000000000006 0.021923816390290798
decision_type=2 2 2 2 2 2 2 2 2 2 2 2 2 2 2 2 2 2 2 2 2 2 2 2 2 2 2 2 2 2
left_child=2 3 8 6 11 12 14 18 -1 15 21 22 25 -10 -2 28 -12 26 -7 -8 -14 29 -3 -16 -23 -4 -9 -15 -6 -5
right_child=1 4 5 10 9 7 19 17 13 -11 16 -13 20 27 23 -17 -18 -19 -20 -21 -22 24 -24 -25 -26 -27 -28 -29 -30 -31
leaf_value=-0.043389273799452406 -0.026277252922816258 0.0073983041767371948 -0.024915407275277315 -0.0090253523701619084 0.010040541899964617 -0.0077920355602757166 -0.004977485677829456 0.001048186753174016 -0.037163400994073587 0.022763213123580144 0.0062421948817651023 0.013381151570130546 -0.005155659701808795 -0.020434748398061336 -0.0082828870130464832 0.019797111799671245 0.014031566801992138 0.0066459028504443603 -0.016482204072358134 0.001415208785686695 -0.02307985571296186 -0.0013385866672661999 0.00046740378703407362 -0.017258781974817283 0.010860661124360974 -0.037671688884793719 -0.0079320312128031995 -0.029848596097127089 0.016512008292642263 -0.053203249252156207
leaf_weight=16059 6863 44913 9079 754 40710 21049 48803 14554 8921 51043 40464 31819 4720 19992 22444 31317 30112 13055 34409 40977 6564 22731 25283 15484 6090 6964 17291 11032 22887 475
leaf_count=16059 6863 44913 9079 754 40710 21049 48803 14554 8921 51043 40464 31819 4720 19992 22444 31317 30112 13055 34409 40977 6564 22731 25283 15484 6090 6964 17291 11032 22887 475
internal_value=0 0.00662037 -0.0174034 -0.000593809 0.0134629 -0.0112047 -0.00608156 -0.00763552 -0.031536 0.017598 0.00674518 0.00754666 -0.0243123 -0.0267707 -0.014143 0.0148202 0.00956561 -0.000782521 -0.0131839 -0.00205976 -0.0155823 0.000121043 0.00490195 -0.0119473 0.00123917 -0.0304527 -0.00382784 -0.0237823 0.0123695 -0.0260998
internal_weight=0 483169 183689 235197 247972 127685 134571 100358 56004 145957 100626 102015 27327 39945 44791 94914 70576 44900 55458 89780 11284 30050 70196 37928 28821 16043 31845 31024 63597 1229
internal_count=666858 483169 183689 235197 247972 127685 134571 100358 56004 145957 100626 102015 27327 39945 44791 94914 70576 44900 55458 89780 11284 30050 70196 37928 28821 16043 31845 31024 63597 1229
is_linear=0
shrinkage=0.05


Tree=16
num_leaves=31
num_cat=0
split_feature=23 2 2 23 23 2 23 2 23 2 23 2 2 2 23 3 11 11 11 2 2 13 23 3 23 2 23 11 11 2
split_gain=27850.8 8247.14 6241.58 3187.05 2488.56 2200.91 1295.26 1265.67 1241.76 818.18 693.696 613.003 608.991 573.576 445.947 445.274 444.875 436.541 370.919 362.27 308.584 293.676 280.778 280.617 269.801 266.392 256.982 235.199 224.078 221.047
threshold=3.5293086860912593 3.3624473153747485 3.4129733520336614 2.9182000669120112 2.974531700288185 3.8703448275862073 3.9632766349459616 3.7311740890688263 4.0538707867474999 3.7187064763231201 4.0495571690288079 2.8543415777929058 3.1201352101479576 2.8382721047777877 2.3743686868686873 430.50000000000006 0.32084447415329775 0.31798975749724573 0.36248393316195376 2.6403940886699511 4.349021779254338 0.011637580776225672 2.5026881720430114 294.50000000000006 4.2993035926426622 4.5257841573631055 2.4069557362240297 0.34019911473137904 0.42574421235019494 4.2404534984467794
decision_type=2 2 2 2 2 2 2 2 2 2 2 2 2 2 2 2 2 2 2 2 2 2 2 2 2 2 2 2 2 2
left_child=1 4 6 9 12 8 11 18 15 14 20 -2 22 -6 -3 28 25 29 -5 -8 23 -14 -1 -7 -21 -11 -18 -15 -4 -9
right_child=2 3 5 7 13 10 19 17 -10 16 -12 -13 21 27 -16 -17 26 -19 -20 24 -22 -23 -24 -25 -26 -27 -28 -29 -30 -31
leaf_value=-0.046465328896167252 -0.016485191571784238 -0.035179299266798997 0.005471247409735828 -0.0034985581062293536 -0.02691166607900974 0.011299061651380256 -0.012358448090984896 0.0068060631773334372 0.014709189802388126 -0.0046088465661234482 0.022136662079532465 -0.0038981207816259954 -0.021798985404399625 -0.011954664296634646 -0.019362134935073841 0.010622860455509479 -0.031692686762499915 -0.0001279149169307317 -0.011407779339104775 0.0041309345242035713 0.024292844486639712 -0.035420734078886219 -0.034791432344040293 0.018634454514307206 0.014143047844126398 0.053704778037628333 -0.013240419808674762 -0.019216606013381529 -0.00010915182080946423 0.022059700195430264
leaf_weight=8090 11754 5863 53543 37676 12427 47608 2773 23994 55483 12369 47765 54630 11341 28224 18572 31299 2490 35998 24439 30442 7084 6077 14177 17955 8638 199 7790 18431 27091 2636
leaf_count=8090 11754 5863 53543 37676 12427 47608 2773 23994 55483 12369 47765 54630 11341 28224 18572 31299 2490 35998 24439 30442 7084 6077 14177 17955 8638 199 7790 18431 27091 2636
internal_value=0 -0.0123549 0.00845182 -0.00574323 -0.0238707 0.0123009 -0.00178377 -0.00155325 0.00859288 -0.0167973 0.0174564 -0.0061268 -0.0335547 -0.0173661 -0.0231573 0.00556114 -0.0099955 0.0034625 -0.00661042 0.00510481 0.0143791 -0.0265515 -0.0390328 0.0133079 0.00634395 -0.00368552 -0.0177099 -0.0148235 0.00359637 0.00831596
internal_weight=0 270793 396065 172026 98767 287828 108237 124743 167416 47283 120412 66384 39685 59082 24435 111933 22848 62628 62115 41853 72647 17418 22267 65563 39080 12568 10280 46655 80634 26630
internal_count=666858 270793 396065 172026 98767 287828 108237 124743 167416 47283 120412 66384 39685 59082 24435 111933 22848 62628 62115 41853 72647 17418 22267 65563 39080 12568 10280 46655 80634 26630
is_linear=0
shrinkage=0.05


Tree=17
num_leaves=31
num_cat=0
split_feature=23 2 2 23 23 23 2 2 23 2 23 2 11 2 23 2 11 13 2 23 3 13 2 11 2 2 13 2 11 2
split_gain=25335.6 8273.54 4896.65 3145.66 2373.66 1762.22 1237.21 1133.6 921.927 775.28 740.8 663.903 491.375 483.92 410.56 388.481 379.009 374.166 361.281 347.749 328.048 306.942 271.18 264.119 254.582 238.705 237.746 228.361 228.329 227.118
threshold=3.2676084048162433 3.6042253851935366 3.2675882669630609 3.7784135668576737 3.7900472689075637 2.6068121693121697 3.2091719894064501 3.7166329284750343 2.6374332692718347 4.0020833333333341 4.1077117327117341 4.0020833333333341 0.24011173184357545 3.2091719894064501 4.2799255008557342 2.7902592301649647 0.31798975749724573 0.011501602140106419 2.7902592301649647 1.9595925297113754 244.50000000000003 0.017734427827837278 4.0694857970548011 0.31270207663155142 3.0136152149331754 3.7739388794567068 0.017079431755199676 4.2537318712415999 0.35597147950089131 2.6024451318309034
decision_type=2 2 2 2 2 2 2 2 2 2 2 2 2 2 2 2 2 2 2 2 2 2 2 2 2 2 2 2 2 2
left_child=2 3 8 6 11 12 18 17 -1 14 13 21 22 29 20 -10 27 -7 -2 -14 -6 -3 -4 -8 -12 -21 -17 -9 -20 -5
right_child=1 4 5 10 9 7 23 16 15 -11 24 -13 19 -15 -16 26 -18 -19 28 25 -22 -23 -24 -25 -26 -27 -28 -29 -30 -31
leaf_value=-0.039309377264138884 -0.022298400756153053 0.0060088165777024902 -0.016423405030544746 -0.018652954168714372 0.0086107343474249778 -0.0088120376930662849 0.00049185168995994071 0.001867996418395421 -0.034533988168268547 0.020350313132135613 0.0015243441384636151 0.011993730012617998 -0.047599374689015345 0.0044539005603275094 0.019803130269156435 -0.019727346720781833 -0.00610000082848252 -0.0173998010129565 -0.0083727964761429931 -0.029476306199140864 0.014975996944965203 -0.00038522845083566919 0.0090206046401239953 -0.0056926408412961253 0.011922806961114137 -0.01625963529781024 -0.03074489040583794 0.021254545801221679 -0.01740324362259088 -0.0026236045141395316
leaf_weight=16059 10181 52282 7146 2467 44932 27893 28263 17656 8185 55661 7175 34424 1908 47601 18086 22089 21632 23261 20545 9978 36836 29281 1227 44359 32767 5195 6291 1662 10617 21199
leaf_count=16059 10181 52282 7146 2467 44932 27893 28263 17656 8185 55661 7175 34424 1908 47601 18086 22089 21632 23261 20545 9978 36836 29281 1227 44359 32767 5195 6291 1662 10617 21199
internal_value=0 0.00570741 -0.0166468 -0.00137867 0.0115844 -0.0109723 -0.0072165 -0.00775406 -0.0293232 0.0156218 0.00460383 0.00617091 -0.0226171 0.00154876 0.0129861 -0.0249373 -0.00155431 -0.0127171 -0.0141211 -0.027481 0.0114782 0.00371336 -0.0126948 -0.00328576 0.0100549 -0.0249511 -0.0221696 0.00353589 -0.0114495 -0.00429454
internal_weight=0 496676 170182 225174 271502 117558 113965 92104 52624 155515 111209 115987 25454 71267 99854 36565 40950 51154 41343 17081 81768 81563 8373 72622 39942 15173 28380 19318 31162 23666
internal_count=666858 496676 170182 225174 271502 117558 113965 92104 52624 155515 111209 115987 25454 71267 99854 36565 40950 51154 41343 17081 81768 81563 8373 72622 39942 15173 28380 19318 31162 23666
is_linear=0
shrinkage=0.05


Tree=18
num_leaves=31
num_cat=0
split_feature=23 2 2 23 23 23 2 23 2 2 2 2 2 13 23 2 2 20 23 13 11 23 2 13 3 13 23 11 2 19
split_gain=22895.1 6593.58 5353.6 2615.55 2136.3 1591.25 1271.9 1226.34 894.484 650.175 636.136 569.694 471.994 465.121 391.477 385.485 384.757 380.942 351.701 341.097 309.982 288.767 274.804 269.706 254.514 246.952 231.347 230.536 221.236 191.714
threshold=3.3813045928430547 3.4129733520336614 3.5552168021680219 3.9657830907830913 2.782971014492754 3.8553472827666382 3.7889398572884816 2.782971014492754 3.1299752475247531 3.8102169241788606 2.8543415777929058 4.0112373737373748 2.7902592301649647 0.009866225386583603 2.2037815126050426 4.1717960858585874 2.6024451318309034 0.063120034457412807 4.1801083928672957 0.017382910861171736 0.30606408435633553 2.1527336059366955 4.0638026487190624 0.0084447613953764784 185.50000000000003 0.025691799949225696 4.357923084667271 0.38763247022834052 2.6779253585397655 0.19614476372416359
decision_type=2 2 2 2 2 2 2 2 2 2 2 2 2 2 2 2 2 2 2 2 2 2 2 2 2 2 2 2 2 2
left_child=2 5 4 6 12 10 17 13 28 24 -2 19 -1 22 -14 25 29 -3 -18 -9 -10 -15 -4 -16 -5 -8 -11 -12 -6 -7
right_child=1 3 7 9 8 16 15 11 20 26 27 -13 14 21 23 -17 18 -19 -20 -21 -22 -23 -24 -25 -26 -27 -28 -29 -30 -31
leaf_value=-0.044471825158343553 -0.017980506171505411 0.0051830571693642045 -0.010938475391858125 0.0078307866358935177 -0.032442803767732994 -0.025388548583520666 0.010403460531859733 -0.0014412596642075356 -0.0077013893248256962 0.017598987482380462 -0.0039062495184820469 0.0065364601814537479 -0.038872798972120343 -0.038965988538782213 -0.020167393840348241 0.016475932280637613 0.0012271254140717237 -0.00096077711542703545 0.0099279964186448234 -0.010075137080300228 -0.015841098059094415 -0.017982485224799782 0.0090616540449467934 -0.030635029503822298 0.014391308380062945 0.0037408791349993128 0.025637937689127935 -0.010621831346930883 -0.021261301576603886 -0.00090033135506392312
leaf_weight=5524 13476 57445 9330 24684 5542 1698 58500 36401 21303 57777 41748 16283 7230 1919 11765 20921 36951 44990 16938 16682 25938 11260 2105 12902 36858 18246 10590 18417 21925 1510
leaf_count=5524 13476 57445 9330 24684 5542 1698 58500 36401 21303 57777 41748 16283 7230 1919 11765 20921 36951 44990 16938 16682 25938 11260 2105 12902 36858 18246 10590 18417 21925 1510
internal_value=0 0.00619892 -0.0138494 0.00996367 -0.0212268 -0.0033041 0.00637708 -0.00504728 -0.0163423 0.0154882 -0.00816129 -0.00164495 -0.0309782 -0.0146356 -0.0286413 0.0104595 0.00296048 0.00248465 0.00396192 -0.00415456 -0.0121706 -0.0210379 -0.00725677 -0.0256425 0.0117599 0.00881946 0.0188442 -0.00596194 -0.0235174 -0.013862
internal_weight=0 460749 206109 330011 112129 130738 200102 93980 74708 129909 73641 69366 37421 24614 31897 97667 57097 102435 53889 53083 47241 13179 11435 24667 61542 76746 68367 60165 27467 3208
internal_count=666858 460749 206109 330011 112129 130738 200102 93980 74708 129909 73641 69366 37421 24614 31897 97667 57097 102435 53889 53083 47241 13179 11435 24667 61542 76746 68367 60165 27467 3208
is_linear=0
shrinkage=0.05


Tree=19
num_leaves=31
num_cat=0
split_feature=23 23 23 23 23 23 23 13 13 23 11 13 11 23 13 13 13 23 14 13 19 3 10 3 19 23 11 13 14 11
split_gain=20831 5266.6 2935.96 1238.65 723.311 609.403 497.574 480.749 435.315 303.454 277.054 223.724 196.16 175.41 168.814 166.927 143.405 138.644 127.185 113.311 106.426 104.915 113.863 103.078 101.72 95.053 90.7537 90.5338 90.2043 89.2986
threshold=3.5293086860912593 2.974531700288185 3.9657830907830913 2.3238162975005081 4.3249435377624827 3.1775906457841669 3.6892071517931613 0.017079431755199676 0.017453011765887299 1.9595925297113754 0.24011173184357545 0.0087912512558930376 0.24011173184357545 4.1461019518665916 0.0082844331583221825 0.024048192771084342 0.017453011765887299 2.5819892473118284 0.12094911457968784 0.026519369395768624 0.17451247309104725 900.50000000000011 0.0042826748835332537 900.50000000000011 0.12952069716775602 4.4210037844656709 0.24011173184357545 0.006791191052692264 0.12626469085334699 0.43414027175754466
decision_type=2 2 2 2 2 2 2 2 2 2 2 2 2 2 2 2 2 2 2 2 2 2 2 2 2 2 2 2 2 2
left_child=1 3 6 9 13 11 15 10 12 27 21 26 -7 19 -11 29 23 -12 -9 24 -14 22 -5 -8 -4 -6 -3 -1 -10 -2
right_child=2 5 4 7 25 8 16 18 28 14 17 -13 20 -15 -16 -17 -18 -19 -20 -21 -22 -23 -24 -25 -26 -27 -28 -29 -30 -31
leaf_value=-0.034382682283617766 0.0025009490995075525 -0.0022305775663854265 0.0070687845217249808 -0.0091022404506670151 0.016621751384098295 0.002027769077988227 0.0061118102713806277 -0.026718506117764024 -0.0091402264404887561 -0.021795872271329272 -0.022909178794987065 -0.01326475771294152 -0.0054088678202658348 0.01291488451529204 -0.032971342498596998 -0.0043430160255201666 0.0032877935297833992 -0.015893016560725861 -0.015944945315743874 0.0062395044980089569 -0.0014017404210823503 0.02673628618058406 -0.020773807264038619 0.014056552939382252 0.011604514227741192 0.022165737409656393 -0.0089965782588108129 -0.047722912115104668 -0.0017620782465253776 -0.0020306780797018551
leaf_weight=2204 47496 7881 16934 16202 17119 23178 86468 14239 34441 6192 9454 28508 31706 54812 7439 15489 57051 27588 3392 22441 34710 190 2399 4285 45773 14099 13354 3007 4709 14098
leaf_count=2204 47496 7881 16934 16202 17119 23178 86468 14239 34441 6192 9454 28508 31706 54812 7439 15489 57051 27588 3392 22441 34710 190 2399 4285 45773 14099 13354 3007 4709 14098
internal_value=0 -0.010685 0.00730945 -0.0203813 0.0122437 -0.00567053 0.00355364 -0.017448 -0.00385451 -0.0318181 -0.0151751 -0.0103707 -0.00193259 0.0107087 -0.0278948 0.000296922 0.00525209 -0.0176837 -0.0246458 0.0092885 -0.00331468 -0.0102299 -0.0106075 0.00648693 0.0103796 0.0191256 -0.0064855 -0.0420806 -0.00825278 0.00146372
internal_weight=0 270793 396065 92306 171178 178487 224887 73464 128744 18842 55833 49743 89594 139960 13631 77083 147804 37042 17631 85148 66416 18791 18601 90753 62707 31218 21235 5211 39150 61594
internal_count=666858 270793 396065 92306 171178 178487 224887 73464 128744 18842 55833 49743 89594 139960 13631 77083 147804 37042 17631 85148 66416 18791 18601 90753 62707 31218 21235 5211 39150 61594
is_linear=0
shrinkage=0.05


Tree=20
num_leaves=31
num_cat=0
split_feature=23 2 2 23 23 2 2 23 2 23 2 23 13 2 2 23 11 2 13 3 11 13 11 2 23 3 13 20 13 11
split_gain=18754.8 6997.27 3588.18 2964.9 1418.32 1337.84 1283.71 797.628 748.825 583.605 550.61 495.943 473.493 388.246 350.171 333.828 332.205 332.131 315.671 311.569 311.012 273.706 252.732 236.631 227.182 223.335 192.814 191.954 185.948 185.713
threshold=3.2249209542972124 3.7071617212987422 3.2444132334581774 3.7784135668576737 3.7759955939671248 3.2154194288628255 3.7187064763231201 2.4600503919372909 3.0232041969330106 2.5026881720430114 4.1368384744259394 4.143721579439867 0.009866225386583603 4.115841384863125 2.7902592301649647 2.6068121693121697 0.28981095314925881 2.3923391155052993 0.012685046127440465 298.50000000000006 0.36921454073352816 0.024048192771084342 0.36248393316195376 4.0638026487190624 4.2845943204868169 190.50000000000003 0.00795231771327389 0.064855784988528356 0.021923816390290798 0.41493346220895116
decision_type=2 2 2 2 2 2 2 2 2 2 2 2 2 2 2 2 2 2 2 2 2 2 2 2 2 2 2 2 2 2
left_child=2 3 9 5 13 18 7 -4 17 -1 19 22 23 21 -11 -14 -9 28 -2 24 -7 29 -10 -8 -6 -13 -16 -24 -5 -3
right_child=1 4 6 8 10 20 12 16 11 14 -12 25 15 -15 26 -17 -18 -19 -20 -21 -22 -23 27 -25 -26 -27 -28 -29 -30 -31
leaf_value=-0.036994546325851335 -0.0092278399413812315 0.0083290766983422811 -0.027585589738015483 -0.013048501599312543 0.0093865975660061152 -2.3569146566650802e-05 -0.0014090106766050606 -0.0074596793497099627 0.0068382663823333707 -0.032459387134135084 0.020064575758412726 0.0060508378353407305 -0.019463669906245415 0.012564031109108798 -0.016186496420136427 -0.0054717025713036764 -0.015536920943161021 -0.002192392759117034 -0.017696693010298525 0.016838643149718037 -0.0057194675917227383 -0.0009392521835052324 0.0043720306061183975 0.010809606024939668 0.016698627963629208 0.014202553161881286 -0.024680027668583321 -0.0026136339854149681 -0.049526462760664317 0.0022322328730936393
leaf_weight=10758 26663 39785 10267 940 55846 58474 15336 20947 40355 8665 33340 13480 5403 20638 12013 20202 32450 20260 18735 30614 40610 16182 21793 5343 13118 22306 15057 17920 556 18206
leaf_count=10758 26663 39785 10267 940 55846 58474 15336 20947 40355 8665 33340 13480 5403 20638 12013 20202 32450 20260 18735 30614 40610 16182 21793 5343 13118 22306 15057 17920 556 18206
internal_value=0 0.00465091 -0.01514 -0.000612163 0.0111704 -0.00561478 -0.0102158 -0.0148224 0.00464028 -0.0267848 0.014503 0.00623862 -0.00387941 0.00649829 -0.0237111 -0.0084242 -0.0123683 -0.00387112 -0.0127228 0.0126409 -0.00235806 0.00481056 0.00405158 0.00174801 0.0107775 0.0111319 -0.0209108 0.00121984 -0.0266058 0.006415
internal_weight=0 509821 156441 282092 227729 144482 109948 63664 137610 46493 132918 115854 46284 94811 35735 25605 53397 21756 45398 99578 99084 74173 80068 20679 68964 35786 27070 39713 1496 57991
internal_count=666262 509821 156441 282092 227729 144482 109948 63664 137610 46493 132918 115854 46284 94811 35735 25605 53397 21756 45398 99578 99084 74173 80068 20679 68964 35786 27070 39713 1496 57991
is_linear=0
shrinkage=0.05


Tree=21
num_leaves=31
num_cat=0
split_feature=23 2 2 23 2 23 2 2 23 23 23 2 2 11 3 2 23 2 11 23 13 13 3 23 11 2 2 13 4 20
split_gain=17033.5 5462.94 4070.15 2407.4 1458.4 1310.16 962.271 776.479 716.222 672.914 456.892 440.623 437.598 391.917 375.839 364.307 345.125 342.335 295.619 290.901 283.801 263.927 261.892 235.492 230.288 227.606 222.038 220.591 215.152 204.332
threshold=3.5514906956579746 3.2675882669630609 3.4129733520336614 3.047408953839017 3.8703448275862073 2.9623043423377937 3.7739388794567068 3.7187064763231201 4.0693591798805668 4.0770329670329675 2.4600503919372909 2.9596511627906978 4.3297424610988848 0.19407374890254611 543.50000000000011 2.7902592301649647 4.0775670766133993 2.2368995878395834 0.36248393316195376 2.1527336059366955 0.023310149967398396 0.012685046127440465 294.50000000000006 2.2719568567026198 0.34555462953005706 2.3923391155052993 4.0933866279069777 0.017079431755199676 0.16248425692695218 0.056932071809174013
decision_type=2 2 2 2 2 2 2 2 2 2 2 2 2 2 2 2 2 2 2 2 2 2 2 2 2 2 2 2 2 2
left_child=1 5 8 7 9 15 18 10 11 14 -3 25 16 -9 -4 -1 22 -7 -5 -15 26 -19 -6 -17 -12 -2 -8 -21 -11 -13
right_child=2 3 4 6 12 17 20 13 -10 28 24 29 -14 19 -16 23 -18 21 -20 27 -22 -23 -24 -25 -26 -27 -28 -29 -30 -31
leaf_value=-0.038319693066803398 -0.028380562842001002 -0.026205691183668507 0.0033476766400616603 -0.0018609428780536601 0.0089619676294515876 -0.045206759392909669 0.0040861835583091222 0.0055660039585794518 0.0048901274177388229 0.0065033216564612129 -0.010458401338838921 0.00077266747544816369 0.02210018033841573 -0.027680143066403012 0.01084864199105736 -0.035456949661712388 0.016942384522462682 -0.011811249659039392 -0.008156892413460173 -0.004200891646466207 -0.0026410300663729106 -0.019551480619451184 0.015972399760528881 -0.023039928211007303 -0.019129073523580731 -0.0091302222750256814 0.012498833854028755 -0.014783020802484165 0.013685976827844799 -0.0052702817979340677
leaf_weight=7419 1688 9792 92106 44786 48833 945 29576 5680 30327 14607 19478 30398 15120 1920 20398 4810 35994 28446 31942 16141 11330 17971 18320 18522 12619 16995 10674 7087 36424 25914
leaf_count=7419 1688 9792 92106 44786 48833 945 29576 5680 30327 14607 19478 30398 15120 1920 20398 4810 35994 28446 31942 16141 11330 17971 18320 18522 12619 16995 10674 7087 36424 25914
internal_value=0 -0.00941115 0.00679239 -0.00505091 0.00992667 -0.0206323 -0.000931735 -0.0123191 -0.00159376 0.00686779 -0.0167515 -0.00421576 0.0141564 -0.00629638 0.00470767 -0.0286686 0.0129919 -0.0154145 -0.00448196 -0.00897565 0.00434941 -0.014808 0.0108745 -0.0255998 -0.0138673 -0.0108695 0.00631716 -0.00742956 0.01163 -0.00200821
internal_weight=0 279138 387124 201025 281802 78113 128308 72717 105322 163535 41889 74995 118267 30828 112504 30751 103147 47362 76728 25148 51580 46417 67153 23332 32097 18683 40250 23228 51031 56312
internal_count=666262 279138 387124 201025 281802 78113 128308 72717 105322 163535 41889 74995 118267 30828 112504 30751 103147 47362 76728 25148 51580 46417 67153 23332 32097 18683 40250 23228 51031 56312
is_linear=0
shrinkage=0.05


Tree=22
num_leaves=31
num_cat=0
split_feature=23 2 2 23 23 2 23 2 2 23 2 2 23 13 13 23 13 2 11 2 13 11 2 11 13 13 2 2 11 23
split_gain=15399.4 5559.41 3145.49 1908.17 1542.4 1076.6 941.931 704.48 678.843 552.641 527.421 457.738 394.173 361.151 348.271 341.902 301.333 290.948 288.765 276.81 243.043 217.934 216.05 212.236 207.398 199.435 196.955 194.41 189.839 183.131
threshold=3.2573593073593079 3.4756961844083332 3.2675882669630609 3.8408401914506265 3.7664024944783687 3.9345727715292935 2.7468026550105233 4.0020833333333341 3.9251542849673693 2.5819892473118284 2.9683160374993736 2.6024451318309034 4.1801083928672957 0.024048192771084342 0.018832054560954822 2.051677286356822 0.0080808410604675477 2.6024451318309034 0.41640127388535036 4.5257841573631055 0.0216858228967803 0.48110783287332259 3.6803126333109883 0.3668350168350169 0.0073367926965808294 0.014349787327142979 4.349021779254338 2.3923391155052993 0.24543789543789546 4.2845943204868169
decision_type=2 2 2 2 2 2 2 2 2 2 2 2 2 2 2 2 2 2 2 2 2 2 2 2 2 2 2 2 2 2
left_child=2 4 9 7 10 6 15 13 18 -1 27 -6 23 21 22 -4 -17 -11 29 20 -7 -3 -8 -13 -19 -12 -10 -2 -9 -5
right_child=1 3 5 8 11 19 14 28 26 17 25 12 -14 -15 -16 16 -18 24 -20 -21 -22 -23 -24 -25 -26 -27 -28 -29 -30 -31
leaf_value=-0.031741007574131834 -0.03065391187900994 0.0048748045397172196 -0.032216053048105368 0.010169762053686162 -0.014600395836677427 0.0032709010307067966 -0.0080167410576796137 0.016798753803414519 0.014727551645121937 -0.033304173028575974 -0.0033647144726200993 0.0030886659705605182 0.0086748637180420942 -0.0027221206573374004 -0.014461841193238324 -0.00982712518312325 -0.020768325231651254 -0.01408939192585006 0.0059798690280079203 0.037859325089519572 -0.0092096116045456752 -0.0018370059957787893 -0.0011658483178177573 -0.0028936559984092079 -0.022015389380804221 -0.0091205312454600528 0.022403054436922355 -0.013267732321384085 0.0083376583989311533 0.017138922617258058
leaf_weight=14203 1762 81763 3819 50360 4052 17085 31242 8472 56862 3792 40254 35902 20195 26396 13857 10823 15035 14186 38946 505 5055 14194 18219 25255 19736 24036 9798 18381 30480 11597
leaf_count=14203 1762 81763 3819 50360 4052 17085 31242 8472 56862 3792 40254 35902 20195 26396 13857 10823 15035 14186 38946 505 5055 14194 18219 25255 19736 24036 9798 18381 30480 11597
internal_value=0 0.00440969 -0.0131106 0.00820343 -0.00293642 -0.00852035 -0.010901 0.00432164 0.0119403 -0.0233348 -0.00772862 0.0018013 0.00261824 0.00245724 -0.00745597 -0.0182513 -0.0161888 -0.0201691 0.00935355 0.00125625 0.000421353 0.00388199 -0.00549321 0.000618245 -0.0187008 -0.00551663 0.0158557 -0.0147886 0.0101779 0.0114742
internal_weight=0 498705 167557 328868 169837 115640 92995 161305 167563 51917 84433 85404 81352 122353 63318 29677 25858 37714 100903 22645 22140 95957 49461 61157 33922 64290 66660 20143 38952 61957
internal_count=666262 498705 167557 328868 169837 115640 92995 161305 167563 51917 84433 85404 81352 122353 63318 29677 25858 37714 100903 22645 22140 95957 49461 61157 33922 64290 66660 20143 38952 61957
is_linear=0
shrinkage=0.05


Tree=23
num_leaves=31
num_cat=0
split_feature=2 2 2 24 24 24 2 2 24 2 13 11 3 2 4 3 3 24 24 2 3 24 24 13 20 2 11 3 20 24
split_gain=10598.5 2642.75 2071.88 1106.34 1030.81 756.875 711.675 544.606 374.595 350.737 292.531 239.542 201.564 199.651 191.096 180.038 169.149 163.175 145.128 143.744 143.194 134.691 131.221 120.644 115.987 115.214 109.007 103.692 101.591 101.421
threshold=3.5552168021680219 3.0748497415119229 4.0020833333333341 573.50000000000011 573.50000000000011 1036.0000000000002 2.5554319614386363 4.3905674281503329 1473.5000000000002 3.7739388794567068 0.012685046127440465 0.42333961868845599 269.50000000000006 3.274083075563412 0.16503252266974275 620.50000000000011 441.50000000000006 176.50000000000003 465.50000000000006 2.2368995878395834 242.50000000000003 327.50000000000006 1473.5000000000002 0.016410273672871716 0.067221935944189001 3.3534980547402911 0.44015915119363397 310.50000000000006 0.064561435302645895 258.50000000000006
decision_type=2 2 2 2 2 2 2 2 2 2 2 2 2 2 2 2 2 2 2 2 2 2 2 2 2 2 2 2 2 2
left_child=1 4 5 13 6 9 19 18 12 16 15 20 25 -3 -10 22 -2 -8 -4 -1 -7 -18 -6 -14 -11 -5 -20 -16 29 -15
right_child=2 3 7 8 10 11 17 -9 14 24 -12 -13 23 28 27 -17 21 -19 26 -21 -22 -23 -24 -25 -26 -27 -28 -29 -30 -31
leaf_value=-0.044954035358507172 -0.0014430086938933408 -0.010580061490144527 0.0077436980698170456 -0.0077186711440975957 -0.0081589638155017772 0.0080595676348652386 -0.020184574678380727 0.021121647395680409 -0.0036712842470057912 0.0055543008914776572 -0.012786615995757819 0.0034955712202714507 0.0027272946266218563 -0.0069522870782378204 0.0062476308591620519 0.0050426795088736251 -0.00037290264856763887 -0.014082363041152219 0.013270266775400634 -0.028854483744664372 0.014203230732030558 0.0060105667351614041 0.0045058539666771591 -0.0029326511808727904 0.0020618937769048317 -0.0018466994375893296 0.0086366101877090404 0.015557303996206948 -0.0084853308602684096 -0.0025875262615198766
leaf_weight=1861 75182 32572 37337 13853 12696 24232 16808 12898 3276 53908 14537 17865 29589 25568 7648 4746 16375 31461 38607 5437 15584 16682 2438 13809 42530 21043 18909 4912 26141 27758
leaf_count=1861 75182 32572 37337 13853 12696 24232 16808 12898 3276 53908 14537 17865 29589 25568 7648 4746 16375 31461 38607 5437 15584 16682 2438 13809 42530 21043 18909 4912 26141 27758
internal_value=0 -0.00704642 0.00564446 -0.00392602 -0.0141958 0.00324701 -0.0184075 0.0114819 6.99705e-05 0.00182134 -0.00739598 0.00830587 -0.00134858 -0.00728326 0.00708337 -0.00345414 -0.000132358 -0.0162072 0.0101711 -0.0329599 0.0104642 0.00284847 -0.00611873 0.000926332 0.00401412 -0.00417775 0.0117469 0.00988848 -0.00593197 -0.00468028
internal_weight=0 296153 370109 206169 89984 262358 55567 107751 94130 204677 34417 57681 78294 112039 15836 19880 108239 48269 94853 7298 39816 33057 15134 43398 96438 34896 57516 12560 79467 53326
internal_count=666262 296153 370109 206169 89984 262358 55567 107751 94130 204677 34417 57681 78294 112039 15836 19880 108239 48269 94853 7298 39816 33057 15134 43398 96438 34896 57516 12560 79467 53326
is_linear=0
shrinkage=0.05


Tree=24
num_leaves=31
num_cat=0
split_feature=23 2 2 23 23 2 2 23 2 2 11 2 11 23 23 23 23 3 11 2 11 13 3 13 2 2 3 11 13 2
split_gain=13551.8 4173.71 2912.49 2130.18 1087.42 916.723 615.702 570.47 568.462 518.669 417.246 390.753 384.473 383.122 349.944 337.386 321.313 298.743 284.679 244.104 243.816 238.967 236.243 214.587 210.816 207.037 199.376 199.097 198.958 164.713
threshold=3.573053767364279 3.5676057581912923 3.7071617212987422 3.026812038852388 3.0366335403726712 3.2091719894064501 3.0498756218905476 3.9246840324426535 3.1299752475247531 4.1717960858585874 0.24011173184357545 2.3923391155052993 0.3656315198202536 4.0775670766133993 2.2037815126050426 2.2037815126050426 4.1255354553984454 185.50000000000003 0.25793270084923431 3.9289915966386557 0.31960594315245483 0.023845060412224593 244.50000000000003 0.025371514750239098 2.2368995878395834 4.2537318712415999 120.50000000000001 0.30880047943942474 0.014683090072415339 2.7902592301649647
decision_type=2 2 2 2 2 2 2 2 2 2 2 2 2 2 2 2 2 2 2 2 2 2 2 2 2 2 2 2 2 2
left_child=1 3 5 6 10 11 29 23 24 13 25 26 19 22 -12 -8 28 -9 -17 -6 -10 -16 -4 -7 -5 -3 -2 -26 -13 -1
right_child=2 4 9 8 12 7 15 17 20 -11 14 16 -14 -15 21 18 -18 -19 -20 -21 -22 -23 -24 -25 27 -27 -28 -29 -30 -31
leaf_value=-0.033418853913767775 -0.052732137688881443 -0.0024365867574262091 0.0054405292040324467 -0.038085056688472792 0.0018436511181645068 0.002423156736701845 -0.028834021781976599 0.0030388125922205006 -0.0027679300925660157 0.01631153783228954 -0.027391261533156908 -0.0016151685380914734 -0.0022575748033486298 0.013224557832200482 -0.0074560232998000884 -0.0097383735771434578 0.005017517491014617 0.0098405557038600822 -0.019003211769888825 0.0091016624761229101 -0.0090168005569688011 -0.019974110861615157 0.010490346801000902 -0.0044831547232597139 -0.010308103632210644 0.019825546506946991 -0.016166746011462872 -0.01840406983393178 -0.0086876424539852441 -0.02427721942719888
leaf_weight=8283 471 10815 51393 910 34237 60363 5546 25066 28469 35821 3041 23594 39360 47644 23100 13161 11046 45352 22408 17509 34559 4566 42160 13823 18279 1156 1788 12991 17188 12163
leaf_count=8283 471 10815 51393 910 34237 60363 5546 25066 28469 35821 3041 23594 39360 47644 23100 13161 11046 45352 22408 17509 34559 4566 42160 13823 18279 1156 1788 12991 17188 12163
internal_value=0 -0.00810564 0.00627414 -0.0136416 -0.0016186 0.0021189 -0.0208898 0.004196 -0.0089549 0.0109381 -0.00820484 -0.0034343 0.00146669 0.00957491 -0.0112917 -0.0173636 -0.00254704 0.00741941 -0.0155751 0.0042995 -0.00619426 -0.00952201 0.00771625 0.00113631 -0.0143619 -0.000286806 -0.0237906 -0.0136715 -0.00459594 -0.0279806
internal_weight=0 290553 375709 156769 133784 198691 61561 144604 95208 177018 42678 54087 91106 141197 30707 41115 51828 70418 35569 51746 63028 27666 93553 74186 32180 11971 2259 31270 40782 20446
internal_count=666262 290553 375709 156769 133784 198691 61561 144604 95208 177018 42678 54087 91106 141197 30707 41115 51828 70418 35569 51746 63028 27666 93553 74186 32180 11971 2259 31270 40782 20446
is_linear=0
shrinkage=0.05


Tree=25
num_leaves=31
num_cat=0
split_feature=23 23 23 23 13 11 23 23 23 23 23 11 11 13 13 13 13 20 23 13 13 11 17 10 11 11 18 10 14 3
split_gain=12400.5 3567.29 1426.2 836.237 566.978 476.099 399.328 289.531 271.552 271.396 218.786 189.535 178.279 152.629 151.159 138.84 136.521 131.69 124.093 115.316 97.2173 92.4603 86.996 81.9913 79.2025 77.5043 71.212 71.1126 70.9439 70.6398
threshold=3.5915435657066896 2.974531700288185 4.1461019518665916 2.051677286356822 0.017453011765887299 0.24384174914210252 3.7784135668576737 3.1711484593837538 4.3959966077174437 2.5819892473118284 3.2020858672706178 0.46106437011954954 0.38763247022834052 0.025371514750239098 0.017079431755199676 0.035661297159813483 0.026519369395768624 0.037208019319648587 1.8139114724480581 0.016161682120935095 0.00795231771327389 0.24011173184357545 0.1464191393506292 0.0013177083333333335 0.437336387434555 0.44893998996752654 0.24632880942122651 0.00940018093454798 0.12626469085334699 185.50000000000003
decision_type=2 2 2 2 2 2 2 2 2 2 2 2 2 2 2 2 2 2 2 2 2 2 2 2 2 2 2 2 2 2
left_child=1 3 6 18 7 15 13 25 29 19 27 21 -8 -2 24 17 -14 22 -1 -7 -19 -9 26 -22 -11 -3 -5 -6 -12 -4
right_child=2 4 8 5 10 9 12 11 -10 14 28 -13 16 -15 -16 -17 -18 20 -20 -21 23 -23 -24 -25 -26 -27 -28 -29 -30 -31
leaf_value=-0.040227699832183002 0.0028312192095960118 -0.0052838177735689924 0.008593960313751153 0.0025320995700816068 -0.010719931362266271 -0.01916666647014377 0.0072253552184072716 0.0022663818285138791 0.017151429196810421 -0.011186003148849804 -0.0069280777355721114 -0.0060508687464858523 0.0054200150474207785 -0.0021456113709216176 -0.019408141556713152 -0.026209672956174074 0.00098927600997894961 -0.0075179704982664053 -0.026897681373804307 -0.027596649698355805 -0.010777820923203533 -0.0011421506567992764 -0.011836432807431884 -0.021911232583237246 -0.018565129148399057 -0.012323914725380913 -0.0095334969656794 -0.017936597053895841 -0.00079551216369795879 0.011834789345665928
leaf_weight=2607 79019 30507 31601 5137 10398 13898 100702 28282 18529 22564 40413 15757 58129 19136 10671 1099 24804 10062 5286 5729 4139 67097 2177 2754 4335 4484 1605 5082 5339 35934
leaf_count=2607 79019 30507 31601 5137 10398 13898 100702 28282 18529 22564 40413 15757 58129 19136 10671 1099 24804 10062 5286 5729 4139 67097 2177 2754 4335 4484 1605 5082 5339 35934
internal_value=0 -0.00754844 0.00615602 -0.0157391 -0.00391199 -0.0142798 0.00443546 -0.00221954 0.0117895 -0.0168622 -0.00795093 -0.000970708 0.00581156 0.00186095 -0.0143728 -0.0088038 0.00409485 -0.00806449 -0.0313005 -0.0216273 -0.0106517 -0.000131445 -0.00314629 -0.015226 -0.0123752 -0.00618599 -0.000340235 -0.0130891 -0.00621244 0.0103183
internal_weight=0 299422 367854 92063 207359 84170 281790 146127 86064 57197 61232 111136 183635 98155 37570 26973 82933 25874 7893 19627 16955 95379 8919 6893 26899 34991 6742 15480 45752 67535
internal_count=667276 299422 367854 92063 207359 84170 281790 146127 86064 57197 61232 111136 183635 98155 37570 26973 82933 25874 7893 19627 16955 95379 8919 6893 26899 34991 6742 15480 45752 67535
is_linear=0
shrinkage=0.05


Tree=26
num_leaves=31
num_cat=0
split_feature=2 2 2 24 24 2 24 2 2 11 2 3 20 24 24 24 11 2 20 11 3 13 24 24 18 3 24 13 2 24
split_gain=8660.92 2426.85 1417.58 843.141 739.579 627.112 514.184 390.937 362.462 314.389 237.538 209.528 200.918 190.734 179.835 168.07 167.338 151.45 145.296 141.406 138.793 121.901 113.935 110.246 103.249 99.3295 95.7975 95.6536 91.3686 88.8749
threshold=3.4129733520336614 3.9145419602818712 2.8078801832999978 1036.0000000000002 814.50000000000011 4.2816217694516618 523.50000000000011 3.6803126333109883 3.2219806763285028 0.40912560721721031 2.5554319614386363 537.00000000000011 0.063510737628384703 1473.5000000000002 360.00000000000006 460.50000000000006 0.39340377593038617 4.5257841573631055 0.076123407109322624 0.44749373433583967 343.50000000000006 0.017382910861171736 1473.5000000000002 514.50000000000011 0.09241413956887104 426.50000000000006 1440.5000000000002 0.037685128829377162 2.2368995878395834 327.50000000000006
decision_type=2 2 2 2 2 2 2 2 2 2 2 2 2 2 2 2 2 2 2 2 2 2 2 2 2 2 2 2 2 2
left_child=2 4 6 8 7 15 10 12 14 11 28 13 29 -6 -4 -3 22 -7 24 27 -9 -16 -5 -10 -8 -25 -26 -17 -1 -2
right_child=1 5 3 16 9 17 18 20 23 -11 -12 -13 -14 -15 21 19 -18 -19 -20 -21 -22 -23 -24 25 26 -27 -28 -29 -30 -31
leaf_value=-0.039849133196361707 -0.0026628665288196997 0.0053809272644990891 -0.012711737434136042 0.00042425721210655361 0.0039102261877144804 0.014470142000687171 -0.017832335609458919 0.00029456841895968741 -0.0069486013605816899 0.00073497902293839779 -0.01870831135506781 0.013819236283134443 -0.005268518517147238 0.010251031991986676 -0.0063291018652522138 0.01146506541947406 -0.0049710573777670825 0.024741858783451122 -0.020776015170983979 0.0057769011983470958 0.0041186895588764044 -0.012522421310897817 0.0077021054375082543 -0.0051388705506819309 -0.007539165871756303 0.0011139267630228156 0.0068202298893357523 0.0056237440682197614 -0.02674000227843687 0.0010723850402692516
leaf_weight=1788 31231 49162 39140 13195 41615 22160 2046 56439 44658 30854 13305 9248 40311 16587 30018 44543 8182 4282 2604 22017 40937 10805 9077 18066 7857 9795 1363 8317 5180 32494
leaf_count=1788 31231 49162 39140 13195 41615 22160 2046 56439 44658 30854 13305 9248 40311 16587 30018 44543 8182 4282 2604 22017 40937 10805 9077 18066 7857 9795 1363 8317 5180 32494
internal_value=0 0.00396174 -0.00819717 -0.00645161 0.00136052 0.00914262 -0.0175498 -0.000374681 -0.0079686 0.00491572 -0.022625 0.00682814 -0.00250584 0.00571729 -0.0102901 0.00765234 0.00114392 0.0161335 -0.0101316 0.00914368 0.00190223 -0.00796834 0.00339036 -0.00540877 -0.00767124 -0.0029406 -0.0054164 0.010546 -0.0301038 -0.000758225
internal_weight=0 450197 217079 182936 299716 150481 34143 201412 152482 98304 20273 67450 104036 58202 79963 124039 30454 26442 13870 74877 97376 40823 22272 72519 11266 27861 9220 52860 6968 63725
internal_count=667276 450197 217079 182936 299716 150481 34143 201412 152482 98304 20273 67450 104036 58202 79963 124039 30454 26442 13870 74877 97376 40823 22272 72519 11266 27861 9220 52860 6968 63725
is_linear=0
shrinkage=0.05


Tree=27
num_leaves=31
num_cat=0
split_feature=23 2 2 23 23 2 2 23 2 13 13 23 13 3 2 23 23 13 11 14 2 3 23 2 15 13 11 13 3 2
split_gain=10804 3533.78 2313.01 1304.95 1285.5 853.472 558.828 488.565 400.847 396.553 352.482 339.773 302.702 296.711 295.217 266.507 255.141 254.086 231.023 216.804 211.956 257.885 210.814 200.458 183.9 175.839 173.788 172.874 172.233 165.548
threshold=3.5915435657066896 3.4180752840909094 3.7889398572884816 2.8059963217997521 3.047408953839017 3.2091719894064501 3.9504098360655742 4.0852895691126294 2.7902592301649647 0.017079431755199676 0.009866225386583603 4.2100223428024268 0.012956641765292896 407.50000000000006 2.3923391155052993 2.1527336059366955 4.143721579439867 0.023575729504400188 0.40483904796786913 0.08819478204504945 4.349021779254338 294.50000000000006 2.1527336059366955 3.6803126333109883 0.12959549411162316 0.016829124380457874 0.42503822629969423 0.0083472686733556314 185.50000000000003 2.5554319614386363
decision_type=2 2 2 2 2 2 2 2 2 2 2 2 2 2 2 2 2 2 2 2 2 2 2 2 2 2 2 2 2 2
left_child=1 4 5 10 8 14 9 13 -1 18 23 20 29 -7 24 -10 25 26 -5 27 21 -4 -12 -3 -2 -16 -8 -17 -9 -6
right_child=2 3 11 6 12 7 17 28 15 -11 22 -13 -14 -15 16 19 -18 -19 -20 -21 -22 -23 -24 -25 -26 -27 -28 -29 -30 -31
leaf_value=-0.029594343516399859 -0.015408423477436511 -0.012842827177970679 0.0071505220384378166 0.0012787972985868808 -0.019892174054293704 0.00085581887873534897 0.0096263571549999403 0.0047526244997781394 -0.029091670949763233 -0.0067124154308738013 -0.029854423712957653 0.0153044728176863 -0.013524609863146055 0.0060918750990796074 -0.0016829481639092179 -0.015051158869923996 0.0049242610691008354 -0.0027169240737183816 -0.0051618461825955995 -0.01203429431398835 0.016700892291679655 0.012713938175386838 -0.014184475814026185 -0.0012903633120497698 -0.058820085442192582 -0.0087271735907045664 0.00073513928189568116 -0.024222761723970872 0.010720856882484099 -0.0059930695826954658
leaf_weight=8662 1895 6403 71426 56850 2261 81833 19844 19706 4617 35445 2500 31789 26362 40420 27444 10008 10103 8528 18439 16264 9200 29405 15174 9080 280 13082 7601 10558 31271 40826
leaf_count=8662 1895 6403 71426 56850 2261 81833 19844 19706 4617 35445 2500 31789 26362 40420 27444 10008 10103 8528 18439 16264 9200 29405 15174 9080 280 13082 7601 10558 31271 40826
internal_value=0 -0.007046 0.00574589 -0.00261741 -0.0137084 0.00260536 -0.000592732 0.00430165 -0.0198121 -0.00235159 -0.0115758 0.0107513 -0.00930445 0.00258699 -0.00295952 -0.0177677 -0.00218464 0.00482149 -0.000298578 -0.0163481 0.00943584 0.00877296 -0.016401 -0.00606789 -0.0209971 -0.00395686 0.0071639 -0.0197596 0.00841374 -0.00672243
internal_weight=0 299422 367854 179864 119558 226034 146707 173230 50109 110734 33157 141820 69449 122253 52804 41447 50629 35973 75289 36830 110031 100831 17674 15483 2175 40526 27445 20566 50977 43087
internal_count=667276 299422 367854 179864 119558 226034 146707 173230 50109 110734 33157 141820 69449 122253 52804 41447 50629 35973 75289 36830 110031 100831 17674 15483 2175 40526 27445 20566 50977 43087
is_linear=0
shrinkage=0.05


Tree=28
num_leaves=31
num_cat=0
split_feature=23 2 2 23 23 23 2 2 11 23 2 2 23 13 13 20 2 11 2 20 13 23 23 4 20 2 11 14 2 13
split_gain=9795.69 3556.76 1747.91 1611.15 860.269 756.654 692.6 476.117 465.277 365.287 339.065 319.563 284.378 272.377 266.496 263.319 233.714 222.28 213.334 210.722 207.808 206.027 168.772 165.813 164.04 157.902 162.489 157.229 150.868 149.916
threshold=3.2020858672706178 3.695482336956522 3.6697822035872356 3.8025558249032687 3.7473068458241636 2.5819892473118284 3.1201352101479576 3.0498756218905476 0.30996975072780208 4.2993035926426622 3.0136152149331754 4.115841384863125 2.4069557362240297 0.011571852612315041 0.033955955263461325 0.059399102893714792 4.0776515151515165 0.46526437151437156 4.2404534984467794 0.066617357001972397 0.017382910861171736 1.9595925297113754 2.051677286356822 0.19457356188873701 0.068141088302378638 2.7902592301649647 0.24875871346459585 0.078622809063735852 2.3923391155052993 0.017079431755199676
decision_type=2 2 2 2 2 2 2 2 2 2 2 2 2 2 2 2 2 2 2 2 2 2 2 2 2 2 2 2 2 2
left_child=2 3 5 6 14 21 20 -7 18 10 28 17 -10 -9 16 27 24 -6 22 -12 -2 -1 -4 -21 -3 -23 -27 -8 -5 -14
right_child=1 4 8 9 11 7 15 13 12 -11 19 -13 29 -15 -16 -17 -18 -19 -20 23 -22 25 -24 -25 -26 26 -28 -29 -30 -31
leaf_value=-0.032938910318190365 -0.0076158893933411772 0.005609189094820324 -0.019548844734935997 -0.02090847749605048 0.010157294172565043 -0.019130527855233774 -0.0019253932594855746 -0.0069092628098517371 -0.0224511134289028 0.010030532539651259 0.0056342515990139633 0.014042813157655404 -0.0033679355526173883 -0.014143319669937869 -0.0029667116088514405 -0.0048115863892762203 0.009860568674146343 0.0050863892332791531 0.016154910388213501 -0.0042625643261984059 -0.015876667368729912 -0.031205349065206885 0.00081682068448814163 0.0029990976831475321 0.00032870259193650019 -0.012775124796765678 -0.02220237693150106 0.0032180336214149919 -0.0026763492484000702 -0.011636198103919188
leaf_weight=3864 27234 37190 1069 1221 77393 19422 38674 30605 3113 18675 54879 38659 15067 22636 12004 50025 19036 29983 2201 11414 10567 2975 21028 25255 24329 7084 12884 24128 16044 8618
leaf_count=3864 27234 37190 1069 1221 77393 19422 38674 30605 3113 18675 54879 38659 15067 22636 12004 50025 19036 29983 2201 11414 10567 2975 21028 25255 24329 7084 12884 24128 16044 8618
internal_value=0 0.00327579 -0.011217 -0.000566506 0.00775454 -0.0150782 -0.00406762 -0.0124294 -0.00370049 0.00357008 0.00246131 0.0101448 -0.00824374 -0.0099849 0.00398336 -0.00210515 0.00501904 0.00874133 0.0013102 0.00367339 -0.00992513 -0.0222579 -0.000168421 0.000738752 0.00352091 -0.020459 -0.0188579 5.06681e-05 -0.00396575 -0.00637642
internal_weight=0 516710 150566 278116 238594 99470 150628 72663 51096 127488 108813 146035 26798 53241 92559 112827 80555 107376 24298 91548 37801 26807 22097 36669 61519 22943 19968 62802 17265 23685
internal_count=667276 516710 150566 278116 238594 99470 150628 72663 51096 127488 108813 146035 26798 53241 92559 112827 80555 107376 24298 91548 37801 26807 22097 36669 61519 22943 19968 62802 17265 23685
is_linear=0
shrinkage=0.05


Tree=29
num_leaves=31
num_cat=0
split_feature=2 2 2 24 24 2 24 2 2 11 2 3 3 3 11 11 2 24 13 24 24 3 11 11 24 3 14 11 3 11
split_gain=6525.96 1835.5 1094.38 615.158 562.605 467.582 394.86 324.416 271.135 248.673 199.29 172.383 166.76 161.715 152.286 133.614 132.874 125.902 122.689 121.06 115.932 109.97 103.204 101.258 96.4894 89.0586 89.0491 88.853 86.4608 77.5121
threshold=3.4129733520336614 3.9345727715292935 2.8078801832999978 1036.0000000000002 1036.0000000000002 4.2816217694516618 487.50000000000006 3.6803126333109883 3.2219806763285028 0.40648944259226771 2.2368995878395834 450.50000000000006 693.50000000000011 273.50000000000006 0.36396103896103899 0.44893998996752654 4.5257841573631055 360.00000000000006 0.017256268238937531 465.50000000000006 809.50000000000011 407.50000000000006 0.35690162750652671 0.19407374890254611 339.50000000000006 600.50000000000011 0.082754657343996937 0.27768487551096249 1079.5000000000002 0.28981095314925881
decision_type=2 2 2 2 2 2 2 2 2 2 2 2 2 2 2 2 2 2 2 2 2 2 2 2 2 2 2 2 2 2
left_child=2 4 6 8 7 15 10 12 17 13 -1 23 19 29 21 20 -7 -4 28 -2 -3 -5 25 -9 -14 -19 -10 -21 -8 -6
right_child=1 5 3 14 9 16 18 11 26 -11 -12 -13 24 -15 -16 -17 -18 22 -20 27 -22 -23 -24 -25 -26 -27 -28 -29 -30 -31
leaf_value=-0.036232167441145179 -0.0039643949551887471 0.0064702313831905668 -0.010911670437453291 0.0006528524362833997 0.0077112288476049191 0.012654052132673394 -0.0069804596795248006 0.0058043083453402809 -0.0060260392920542458 0.0010117413654683169 -0.01843654675257032 0.004936861259803171 -0.00041856754733173392 0.011574672753391061 -0.003962459835117684 0.0042213457584110471 0.02227523271548091 -0.0071097789443563056 -0.016349108901743133 0.0025513720733870734 0.010461940019554458 0.0083618423641346942 -0.010654751615940788 0.00024988785274274432 0.0071408301251674787 -0.00098498597602565295 -0.0024103841751253983 -0.0020071795977413265 0.022664474290315182 0.0024550743372145373
leaf_weight=1727 55531 48469 39140 12642 15203 22160 10256 9155 45193 21523 17672 35868 9429 16030 10516 34316 4282 19443 4236 15656 29117 7296 12837 79096 7643 8543 27326 33697 252 13022
leaf_count=1727 55531 48469 39140 12642 15203 22160 10256 9155 45193 21523 17672 35868 9429 16030 10516 34316 4282 19443 4236 15656 29117 7296 12837 79096 7643 8543 27326 33697 252 13022
internal_value=0 0.00343888 -0.00711554 -0.00558183 0.00131245 0.00823225 -0.0153331 0.000214451 -0.00687759 0.00542007 -0.0200208 0.00201403 -0.00161704 0.00756402 0.000906027 0.00681923 0.0142121 -0.00888546 -0.00916542 -0.00236298 0.00796827 0.00347384 -0.00694278 0.000826093 0.00296572 -0.00524013 -0.00466362 -0.000561094 -0.00626952 0.00528623
internal_weight=0 450197 217079 182936 311853 138344 34143 246075 152482 65778 19399 124119 121956 44255 30454 111902 26442 79963 14744 104884 77586 19938 40823 88251 17072 27986 72519 49353 10508 28225
internal_count=667276 450197 217079 182936 311853 138344 34143 246075 152482 65778 19399 124119 121956 44255 30454 111902 26442 79963 14744 104884 77586 19938 40823 88251 17072 27986 72519 49353 10508 28225
is_linear=0
shrinkage=0.05


Tree=30
num_leaves=31
num_cat=0
split_feature=23 2 2 23 23 2 23 23 13 2 23 23 2 3 2 13 14 13 13 13 11 11 2 13 23 2 2 3 14 2
split_gain=8512.32 2240.01 2180.37 1291.67 806.157 517.118 489.281 443.967 357.037 339.126 302.513 272.116 259.941 245.3 280.092 233.18 210.846 209.735 207.657 199.276 187.757 169.285 164.334 160.33 159.045 157.845 153.739 149.949 140.281 132.252
threshold=3.4609858495299908 3.6803126333109883 3.4129733520336614 2.782971014492754 3.9079922471782012 3.1201352101479576 4.0852895691126294 3.026812038852388 0.009866225386583603 3.7695717204144175 4.3448275862068977 1.9595925297113754 2.8543415777929058 298.50000000000006 4.1368384744259394 0.021528550241008533 0.13868220758387662 0.006791191052692264 0.023310149967398396 0.011228075704807982 0.30996975072780208 0.38763247022834052 4.3905674281503329 0.026076653616319802 2.051677286356822 4.1228683254123579 3.1201352101479576 682.50000000000011 0.091886116886116906 3.8703448275862073
decision_type=2 2 2 2 2 2 2 2 2 2 2 2 2 2 2 2 2 2 2 2 2 2 2 2 2 2 2 2 2 2
left_child=1 3 6 11 9 20 12 8 16 15 13 -1 -2 14 -6 27 -3 -7 25 26 -5 -14 24 -11 -10 -9 -13 -4 -19 -15
right_child=2 7 4 5 10 17 -8 18 22 23 -12 19 21 29 -16 -17 -18 28 -20 -21 -22 -23 -24 -25 -26 -27 -28 -29 -30 -31
