tree
version=v4
num_class=1
num_tree_per_iteration=1
label_index=0
max_feature_idx=24
objective=regression
feature_names=user_id item_id user_avg_rating user_num_ratings user_avg_rating_genre_0 user_avg_rating_genre_1 user_avg_rating_genre_2 user_avg_rating_genre_3 user_avg_rating_genre_4 user_avg_rating_genre_5 user_avg_rating_genre_6 user_avg_rating_genre_7 user_avg_rating_genre_8 user_avg_rating_genre_9 user_avg_rating_genre_10 user_avg_rating_genre_11 user_avg_rating_genre_12 user_avg_rating_genre_13 user_avg_rating_genre_14 user_avg_rating_genre_15 user_avg_rating_genre_16 user_avg_rating_genre_17 num_genres movie_avg_rating movie_num_ratings
feature_infos=[0:6039] [0:3705] [1:5] [3:2045] [0:0.98076923076923073] [0:0.97979797979797978] [0:0.91489361702127658] [0:0.95412844036697253] [0:1] [0:0.92079207920792083] [0:0.62962962962962965] [0:1] [0:0.92000000000000004] [0:0.70833333333333337] [0:1] [0:0.77777777777777779] [0:0.73684210526315785] [0:0.95774647887323938] [0:0.97837837837837838] [0:0.97938144329896903] [0:0.92307692307692313] [0:0.6333333333333333] [1:6] [1:5] [1:2831]
tree_sizes=2891 3056 3059 3062 3086 3058 3078 3058 3073 3103 3079 3074 3082 3068 3068 3079 3069 3083 3084 3102 3088 3081 3107 3081 3088 3140 3103 3110 3095 3089 3112 3108 3112 3098 3119 3119 3127 3103 3108 3124 3104 3112 3091 3122 3153 3122 3125 3119 3134 3113 3126 3122 3118 3120 3118 3107 3123 3120 3138 3119 3133 3136 3116 3123 3134 3118 3127 3151 3132 3134 3134 3131 3108 3109 3155 3133 3098 3121 3137 3120 3121 3153 3116 3097 3109 3090 3142 3125 3118 3116 3134 3113 3110 3125 3110 3123 3127 3133 3137 3139 3089 3097 3114 3105 3117 3098 3111 3137 3098 3106 3066 3106 3107 3086 3130 3068 3137 3132 3103 3108 3122 3094 3102 3138 3121 3117 3066 3132 3118 3096 3124 3068 3129 3132 3095 3051 3061 3135 3041 3053 3095 3082 3066 3097 3096 3105 3116 3103 3080 3027 3087 3134 3080 3010 3009 3030 3130 3109 3044 3058 3052 3061 3012 3075 3099 2965 3031 3059 3058 2951 3050 3069 3055 2986 3068 3090 2951 2957 3126 3029 3069 3041 3070 2979 3034 2991 3060 3045 3035 2988 3084 3085 3051 3089 2990 3017 3051 3040 3079 3047 3034 2949 3004 3127 3066 3048 3052 2978 3008 2943 3031 2953 2920 3014 2960 2975 3109 2992 3056 2966 2867 3050 3042 2908 2985 3065 3020 2988 3001 2954 2958 2954 2932 3071 2919 2930 2960 2955 3041 3062 2990 3032 3031 2872 2995 3039 3008 3029 2964 2989 2988 2945 3039 3043 2955 2928 2986 2936 2903 2992 2945 2991 2987 2977 3000 2907 2923 2920 2922 3003 3074 3036 2997 2990 3048 3004 2988 2919 2983 2941 2999 2971 3077 2991 3061 3023 2883 2959 2937 2945 2961 2985 2918 2939 2912 3065 2954 2962 2952 2935 2965 2883 2992 2884 3013 2955 2976 2946 2890 3041 2963 2907 2918 3034 2959 3057 3038 3061 3008 3007 2940 2976 2979 2938 3063 2924 2986 2899 3028 2886 2982 2910 2998 2877 2891 2950 2910 2988 2962 2956 3059 3051 2945 2965 3053 2910 2830 2814 3051 2817 2840 2935 2930 2908 2911 2931 3005 2962 2897 2939 2862 3031 2906 2947 2953 2926 2955 2949 3011 2954 3005 2873 2953 2974 2880 3025 2999 2992 3010 3021 2985 3002 3055 2881 3040 2941 2970 3019 2946 2982 2885 2943 2890 2924 2958 2955 2880 2865 2928 2952 2883 2943 2877 2932 2865 2894 2880 2965 2995 2919 3008 2978 2968 2960 2896 2954 3000 2969 3004 2935 2958 2949 2915 3003 2891 2839 2913 2965 2937 2908 2933 2955 2994 2979 2949 2853 2808 2984 2914 2926 3002 2947 2937 2914 2941 2885 2905 2916 2884 2905 2878 2865 2864 2874 3022 2971 2913 2971 2950 2996 2911 2834 2927 3022 2875 2887 2906 2983 2924 2951 2927 2931 2859 2944 2895 2936 2974 2956 2950 2930 3013 2947 2978 2820 2940 3032 2880 2909 2985 2853 2886 2890 2844 2854 2876 2835 2849 2870 3034 2992 2986 3021 2938 2892 2948 3010 2918 3022 2992 3045 2971 2867 2895 2888 2895 2910 2821 2878 2896 2907 2970 2953 2911 2903 3010 3012 2851 3003 3006 2945 2870 2993 2973 2958 2987 2973 2959 2955 3000 2960 2982 2987 2968 2975 2993 2896 2856 2980 3000 2915 2885 2883 2915 2923 2908 2931 2901 2921 2952 2905 2907 2907 2869 2843 2909 2952 2975 2958 2955 2928 2989 2936 2827 2935 2901 2995 2954 3037 2952 3035 2896 2875 2913 2905 2895 2948 2931 3027 2951 2939 2873 2836 2876 2962 2849 2822 2815 2820 2896 2836 2934 2915 2857 2956 2964 2860 2894 2864 2862 3026 2889 2826 2864 2832 2874 2955 2837 2996 2969 2904 3014 2962 2999 2967 2960 2909 2988 2968 2871 2946 2934 2960 2921 2908 2931 3029 3006 2811 2851 2815 2816 2926 2866 2936 2937 2950 2989 2972 2973 2941 2862 2926 2871 2902 2970 2926 2937 2930 3011 2974 2879 2869 2900 2851 2955 2899 2832 2887 2921 2999 2905 2871 2845 3020 2955 2892 2936 2943 2916 3054 2954 2949 2932 2926 2925 2834 2822 2909 2893 2848 3022 2969 3014 3038 3037 2935 2930 2956 2937 2925 3044 3001 2867 2986 2941 2943 2909 2898 2980 2875 2808 2905 2965 2891 2923 2846 2837 2831 2838 2946 2877 3069 3005 2983 3018 2843 2876 2829 2959 2841 2916 3001 2920 3004 2915 2831 2888 2991 2816 2882 2939 2965 2889 2897 2859 2886 2904 2933 2854 2832 2847 2821 2819 2937 3004 2966 2910 2970 2912 2896 2871 3020 2863 2852 2986 2866 2868 2832 2900 2902 2899 2845 2845 2943 2888 2912 3012 2940 2913 2964 3030 2975 2871 2870 2841 2873 2839 3011 2831 2953 2939 2930 2983 2840 2867 2856 2918 2950 2979 2843 2856 2971 2879 2930 2830 2954 2960 2811 2985 2863 2857 2864 2847 2950 2846 2863 2954 2883 2843 2959 2850 2887 2974 2859 2872 2873 2871 2876 2867 2885 3005 2997 2959 2990 2933 2874 2851 2913 2847 2938 2990 2994 2923 2943 2965 2884 2913 2875 2921 2917 2935 2859 2845 2842 2841 2973 2952 3012 2889 2958 3005 2905 2914 2878 2998 2882 2856 2860 2863 2859 2941 2968 2854 3007 2935 3026 3009 2982 3017 2896 2997 3011 2990 3058 2986 2883 2963 2896 2882 2953 3003 2822 2865 2978 2952 2924 2848 2886 2908 2946 2953 2876 3059 2923 2971 2862 2941 2876 2840 2934 2967 2961 2956 2893 2981 2892 2889 2979 2913 2868 2921 2882 2907 2852 2839 2923 2909 2886 2784 2873 3092 3016 2875 2967 3073 2931 2932 3032 2790 2910 2885 3014 2874 2867 2911 2896 2891 2914 2945 2873 2849 2886 2889 2913 2852 2895 2950 2976 2880 2917 2875 2950 2894 2986 2966 2940 2987 2925 2885 2920 2889 2900 2952 2859 2852 2821 2815 2814 2885 2810 2967 2995 2934 2968 2969 2936 3006 2980 2997 2969 2972 2988 2864 2954 2992 2849 3016 2863 2869 3036

Tree=0
num_leaves=31
num_cat=0
split_feature=23 2 2 23 23 23 23 2 2 2 2 2 23 2 23 2 2 23 23 2 23 23 2 2 23 2 2 23 23 23
split_gain=128898 30227.5 27828.5 11269.5 10496.7 10231.3 8616.5 4498.57 3453.63 3229.94 3225.69 2866.81 1811.09 1657.31 1457.96 1319.75 1265.66 1199.22 1178.21 1128.34 1101.65 860.746 840.655 805.305 725.113 708.422 701.142 672.587 525.684 454.774
threshold=3.419923664122138 3.5569937023533318 3.4684436274509811 2.8207142857142862 3.919027012850774 3.8796929824561408 2.7028619528619533 3.0242761629554087 3.7730113091815225 3.049778821974634 3.9182745825602971 4.0017182130584201 2.3254701235117397 3.0242761629554087 4.1450913006439469 4.0119971264367829 3.049778821974634 4.1981740627104704 3.6873623348017626 4.0453939393939402 2.2722662732804726 3.1069047619047621 2.6105861164228226 2.3928571428571432 3.1310068649885587 4.1001432664756452 2.809315319823201 3.6761152057355648 3.0431731744421913 4.2595091403447887
decision_type=2 2 2 2 2 2 2 2 2 2 2 2 2 2 2 2 2 2 2 2 2 2 2 2 2 2 2 2 2 2
left_child=2 4 3 12 7 10 15 22 21 26 27 14 -1 23 -7 20 -14 -15 -9 28 -4 -8 -2 -6 -11 -12 -5 -3 -10 -25
right_child=1 5 6 9 13 11 8 18 19 24 25 -13 16 17 -16 -17 -18 -19 -20 -21 -22 -23 -24 29 -26 -27 -28 -29 -30 -31
leaf_value=3.4884727045664876 3.5312599531899624 3.5840821554638929 3.5138538572361986 3.5154183463606676 3.5362101796796828 3.6043435602778353 3.5530581264510253 3.568860224638212 3.5652215368990823 3.5408747723435123 3.5995433553569582 3.6247534560303318 3.4989931590213499 3.5922579703811555 3.617251570782511 3.561633167667146 3.5224971641388292 3.6077180235518949 3.5808203510317451 3.5915108529847468 3.5398173891785056 3.5670259339057311 3.5549114305712379 3.5769493143892834 3.5539800552599465 3.611493334698503 3.5329546404672669 3.5933527177188456 3.5794221590133981 3.5981597315721983
leaf_weight=10755 4561 38568 5793 9782 1022 54222 18198 42619 9271 17812 26909 47073 9493 33467 36671 4710 14440 20063 39841 16070 13862 28000 21313 10123 25906 23005 13659 39708 21939 3368
leaf_count=10755 4561 38568 5793 9782 1022 54222 18198 42619 9271 17812 26909 47073 9493 33467 36671 4710 14440 20063 39841 16070 13862 28000 21313 10123 25906 23005 13659 39708 21939 3368
internal_value=3.57906 3.59465 3.5478 3.52866 3.5786 3.60529 3.56434 3.56893 3.57125 3.54061 3.59512 3.61474 3.50552 3.59399 3.60955 3.53786 3.51317 3.59805 3.57464 3.58075 3.53217 3.56152 3.55074 3.579 3.54864 3.60505 3.52564 3.58878 3.5752 3.58224
internal_weight=0 442533 219690 101847 176377 266156 117843 108334 93478 67159 128190 137966 34688 68043 90893 24365 23933 53530 82460 47280 19655 46198 25874 14513 43718 49914 23441 78276 31210 13491
internal_count=662223 442533 219690 101847 176377 266156 117843 108334 93478 67159 128190 137966 34688 68043 90893 24365 23933 53530 82460 47280 19655 46198 25874 14513 43718 49914 23441 78276 31210 13491
is_linear=0
shrinkage=1


Tree=1
num_leaves=31
num_cat=0
split_feature=23 2 2 23 23 23 23 2 2 2 2 23 2 23 2 23 2 23 23 23 2 2 23 2 2 2 23 2 2 23
split_gain=116511 27782.8 24772.4 11789.1 9421.5 8994.48 6572.73 4561.78 3291.48 3273.59 2672.27 1761.77 1549.63 1548.09 1338.98 1121.41 1107.04 951.432 943.692 922.259 914.942 914.73 749.499 722.132 710.091 672.479 579.044 577.984 536.484 513.162
threshold=3.4699879951980797 3.4684436274509811 3.640537219101124 2.8451821773485517 3.9661998955477222 2.7973901098901099 3.9976233223451856 3.0242761629554087 3.049778821974634 3.8097619047619049 4.0319518170681921 2.4201456990753716 3.0242761629554087 2.3801935483870973 4.0017182130584201 3.7168743418743424 3.049778821974634 3.2126100849505108 4.2651181361970343 3.1901739917529923 4.0954913880445805 3.9917660612632155 3.7340699815837941 2.6741322231139653 2.6105861164228226 2.3928571428571432 4.276300810285945 3.0554275473630317 4.0636609253630533 3.1651586206896556
decision_type=2 2 2 2 2 2 2 2 2 2 2 2 2 2 2 2 2 2 2 2 2 2 2 2 2 2 2 2 2 2
left_child=1 3 4 11 7 13 10 24 23 17 22 27 25 28 26 -9 -13 -7 -14 -10 -11 -15 -4 -5 -2 -6 -8 -1 -3 -25
right_child=2 5 6 8 12 9 14 15 19 20 -12 16 18 21 -16 -17 -18 -19 -20 -21 -22 -23 -24 29 -26 -27 -28 -29 -30 -31
leaf_value=-0.095210032420607327 -0.042694692785759776 -0.057623768550493996 0.010776333155649123 -0.063458961581922255 -0.039808298297951711 -0.019444130246439515 0.029702875265346519 -0.0058840111979475184 -0.034215639282351246 0.00033171919593716836 0.031510150430711183 -0.074369313775438359 0.017038384146871838 -0.033689110380379562 0.045452332518793388 0.004704117117055831 -0.051574417926574856 -0.0066050211124129418 0.030960079095734474 -0.020568111898085332 0.015623356725638832 -0.0073481507869730539 0.019898258498836825 -0.053359532825617499 -0.020376607789486221 0.0049511972634917233 0.040910291343638994 -0.074441725124710617 -0.02503614193065419 -0.037146483782866536
leaf_weight=5895 4318 8167 41403 6380 904 28063 38599 47399 23237 31688 38137 8816 42318 15852 35991 52936 13456 29701 17088 26492 14150 4161 49370 8572 20411 11701 16431 7760 1494 11333
leaf_count=5895 4318 8167 41403 6380 904 28063 38599 47399 23237 31688 38137 8816 42318 15852 35991 52936 13456 29701 17088 26492 14150 4161 49370 8572 20411 11701 16431 7760 1494 11333
internal_value=0 -0.0273009 0.016131 -0.0456648 0.00325704 -0.0118768 0.027667 -0.00503855 -0.0345095 -0.00492514 0.0204038 -0.069267 0.0176643 -0.0361472 0.0379536 -0.000297793 -0.0605974 -0.0128425 0.0210429 -0.0269452 0.00505218 -0.0282124 0.0157376 -0.0488205 -0.0242736 0.00174115 0.0330492 -0.0834076 -0.0525843 -0.0441286
internal_weight=0 245217 417006 111941 197075 133276 219931 125064 76014 103602 128910 35927 72011 29674 91021 100335 22272 57764 59406 49729 45838 20013 90773 26285 24729 12605 55030 13655 9661 19905
internal_count=662223 245217 417006 111941 197075 133276 219931 125064 76014 103602 128910 35927 72011 29674 91021 100335 22272 57764 59406 49729 45838 20013 90773 26285 24729 12605 55030 13655 9661 19905
is_linear=0
shrinkage=0.05


Tree=2
num_leaves=31
num_cat=0
split_feature=23 2 2 23 23 23 23 2 2 2 2 2 23 2 23 23 23 2 23 23 2 2 23 2 23 23 2 2 2 23
split_gain=105418 25795.6 21810.8 9146.56 9053.58 8966.17 6145.13 3717.69 2961.25 2691.95 2451.73 2409.14 1529.85 1405.82 1084.99 1029.67 1014.06 993.901 930.468 837.532 782.172 703.424 698.386 629.224 627.165 601.34 583.556 557.381 547.178 434.357
threshold=3.3927248677248678 3.5569937023533318 3.49903138123695 3.9039133738601826 2.7545963422284423 3.867705333064265 2.7028619528619533 3.0242761629554087 3.049778821974634 3.9343311031486832 3.9182745825602971 4.0166945373467122 4.1981740627104704 3.049778821974634 4.1450913006439469 2.1529655591484196 3.6600082094764317 3.0242761629554087 3.0431731744421913 2.2169908940397356 3.9917660612632155 2.6105861164228226 3.0761848805327072 2.809315319823201 3.6269921578547941 4.1398507678933649 2.5507507507507512 3.6933819951338207 4.1642101343593891 2.2722662732804726
decision_type=2 2 2 2 2 2 2 2 2 2 2 2 2 2 2 2 2 2 2 2 2 2 2 2 2 2 2 2 2 2
left_child=2 3 4 7 13 9 15 21 23 24 14 18 17 29 -7 -4 -9 -5 -8 -15 -17 -2 -10 -6 -3 -12 -14 -20 -11 -1
right_child=1 5 6 12 8 10 11 16 22 28 25 -13 26 19 -16 20 -18 -19 27 -21 -22 -23 -24 -25 -26 -27 -28 -29 -30 -31
leaf_value=-0.094334754877374083 -0.044146076011188272 0.0033765747655197819 -0.057553871779323945 -0.0063221640991438233 -0.059876548863107774 0.021342607822804852 -0.01988013227707295 -0.010739139142084634 -0.036385038967143082 0.019464558472084861 0.035021150139565208 0.009700432060298754 -0.019398713950535759 -0.077307302576380105 0.033483288566666963 -0.036434937684924278 0.00031236591945915264 0.011324791329582487 -0.014046891913705695 -0.053458472164062576 -0.011538196437642478 -0.022706057143888785 -0.023828648827469098 -0.043295287012722471 0.012163491565770184 0.044801890836470612 0.024101788577181107 -0.0025955754856199749 0.030722032320579764 -0.074396096487710769
leaf_weight=4035 4647 34627 4550 10208 9841 47007 21665 39477 17689 30301 35550 17041 796 4901 30242 14460 43772 36539 17843 14793 4035 21645 29613 13668 49105 28166 24512 26273 16767 8455
leaf_count=4035 4647 34627 4550 10208 9841 47007 21665 39477 17689 30301 35550 17041 796 4901 30242 14460 43772 36539 17843 14793 4035 21645 29613 13668 49105 28166 24512 26273 16767 8455
internal_value=0 0.0135865 -0.0293453 -0.00100384 -0.0457266 0.0233358 -0.0134084 -0.0101049 -0.0357326 0.0139077 0.0320842 -0.00705405 0.0128319 -0.0677154 0.0260955 -0.0362454 -0.0049283 0.00747128 -0.0113944 -0.0593934 -0.0310033 -0.0264955 -0.0285242 -0.0502363 0.0085297 0.0393448 0.0227336 -0.00722713 0.0234748 -0.0808374
internal_weight=0 453361 208862 181596 102995 271765 105867 109541 70811 130800 140965 82822 72055 32184 77249 23045 83249 46747 65781 19694 18495 26292 47302 23509 83732 63716 25308 44116 47068 12490
internal_count=662223 453361 208862 181596 102995 271765 105867 109541 70811 130800 140965 82822 72055 32184 77249 23045 83249 46747 65781 19694 18495 26292 47302 23509 83732 63716 25308 44116 47068 12490
is_linear=0
shrinkage=0.05


Tree=3
num_leaves=31
num_cat=0
split_feature=23 2 2 23 23 23 23 2 2 2 2 23 23 2 2 2 2 2 23 2 23 23 23 23 2 2 2 23 23 13
split_gain=95161.3 22703 20359.5 9371.99 8291.64 7617.38 4900.68 4098.57 2682.49 2537.75 1915.38 1564.18 1502.15 1379.64 971.515 902.371 893.606 884.007 880.729 866.041 838.08 788.792 610.398 609.3 583.058 530.615 484.066 475.122 447.028 416.132
threshold=3.4699879951980797 3.4597297297297303 3.682733255903988 2.8629608354322245 3.9661998955477222 2.8629608354322245 3.9976233223451856 3.2079755351681962 3.7656758405639921 2.9445815773630346 4.076138716356108 2.3801935483870973 2.4755952380952384 3.0242761629554087 4.0319518170681921 2.8129431450613831 2.6401148625130531 4.0119971264367829 4.2126821633825955 4.1160663641520143 3.1871565934065935 3.7627772944758595 3.2532958729938168 3.7234936148938358 2.3928571428571432 3.0554275473630317 4.0119971264367829 3.7257170428581321 4.276300810285945 0.0097640422658298257
decision_type=2 2 2 2 2 2 2 2 2 2 2 2 2 2 2 2 2 2 2 2 2 2 2 2 2 2 2 2 2 2
left_child=1 3 4 12 7 11 10 16 22 -5 23 26 25 24 28 -14 -2 29 -15 -10 -11 -9 -7 -4 -6 -1 -3 -18 -8 -13
right_child=2 5 6 9 13 8 14 21 19 20 -12 17 15 18 -16 -17 27 -19 -20 -21 -22 -23 -24 -25 -26 -27 -28 -29 -30 -31
leaf_value=-0.085149458906000244 -0.036703689881928105 -0.053503676620279952 0.010708392150176724 -0.047533553245674716 -0.037213915339217779 -0.017706384301091792 0.027763827220151277 -0.0021753130563052386 0.00029501172639333911 -0.032786697940725258 0.029726068665966606 -0.021507906635699656 -0.074880565083055753 0.014739392734101157 0.041738824115740029 -0.048904469597799434 -0.019982657460252566 -0.0049381031820703884 0.026548797781451573 0.015581743637715799 -0.020393804630246103 0.0071159438779387039 -0.0065122204746763807 0.019097441794520834 0.0044635900279954201 -0.066122055153087764 -0.025180207231352409 -0.0083834671974703182 0.037826890024910215 -0.036005328566886395
leaf_weight=6537 5119 7983 38152 18033 904 26049 37128 52214 40111 24653 32138 9389 4130 38844 32526 17552 18185 4653 26599 12048 30544 40609 22869 50024 11701 8337 1860 17159 15704 10469
leaf_count=6537 5119 7983 38152 18033 904 26049 37128 52214 40111 24653 32138 9389 4130 38844 32526 17552 18185 4653 26599 12048 30544 40609 22869 50024 11701 8337 1860 17159 15704 10469
internal_value=0 -0.0246732 0.0145783 -0.0415707 0.00367931 -0.0109754 0.0257773 -0.00389938 -0.00406224 -0.0312491 0.0192763 -0.0313154 -0.0622472 0.0166218 0.0349404 -0.0538524 -0.0171792 -0.0245545 0.0195393 0.00382603 -0.0259289 0.00188951 -0.0124732 0.0154677 0.00147458 -0.0744844 -0.0481515 -0.0143514 0.030755 -0.0291508
internal_weight=0 245217 417006 109786 211334 135431 205672 133286 101077 73230 120314 34354 36556 78048 85358 21682 40463 24511 65443 52159 55197 92823 48918 88176 12605 14874 9843 35344 52832 19858
internal_count=662223 245217 417006 109786 211334 135431 205672 133286 101077 73230 120314 34354 36556 78048 85358 21682 40463 24511 65443 52159 55197 92823 48918 88176 12605 14874 9843 35344 52832 19858
is_linear=0
shrinkage=0.05


Tree=4
num_leaves=31
num_cat=0
split_feature=23 23 23 23 23 23 23 13 23 23 13 13 23 13 23 23 11 23 23 3 3 13 23 5 11 13 23 23 5 11
split_gain=86167 18767.5 13554.6 3492.75 2465.4 2365.92 2032.45 627.048 595.78 499.788 392.304 384.349 355.248 352.172 331.422 286.81 231.221 213.736 200.864 195.033 185.608 152.671 151.055 150.866 142.759 141.758 139.357 137.903 137.045 125.734
threshold=3.3653606368693656 3.854676747848222 2.7545963422284423 4.1450913006439469 3.6198320413436695 2.2169908940397356 3.088354838709678 0.0081411276069282452 4.3382516881131368 4.0217494089834522 0.014394244604316549 0.0081411276069282452 1.9698620188816272 0.014394244604316549 2.5695862705053041 3.7531366938146604 0.25051440329218116 3.2034201168233616 2.9504098360655742 899.50000000000011 280.50000000000006 0.0081411276069282452 3.2473404527629603 0.16963155515370706 0.42443951815291958 0.014394244604316549 3.5082043636943823 3.4881251451371154 0.17091312344476903 0.24027559741845458
decision_type=2 2 2 2 2 2 2 2 2 2 2 2 2 2 2 2 2 2 2 2 2 2 2 2 2 2 2 2 2 2
left_child=2 4 5 9 13 12 11 16 -5 -3 22 24 -1 27 -9 25 19 28 -13 -7 -15 -14 29 26 -4 -6 -22 -2 -12 -8
right_child=1 3 6 8 15 7 10 14 -10 -11 17 18 21 20 -16 -17 -18 -19 -20 -21 23 -23 -24 -25 -26 -27 -28 -29 -30 -31
leaf_value=-0.075755828728804153 -0.0035800111910021964 0.014576965392156558 -0.01995883752573592 0.027019095643929677 0.0064942333682374911 -0.030791922571892956 -0.008760217132896559 -0.053576074318520787 0.03580367321497914 0.020591711203393821 -0.026320628834590982 -0.033704556686824032 -0.052004909339540863 -0.0035335204096646738 -0.041988979452006976 0.0092034406846069235 -0.040925592138008643 -0.015215790127652194 -0.026008274087109942 0.02908714830443479 -0.014961254081690332 -0.065542500173947638 -0.0082624573001864494 0.00053547935089150189 -0.031618741666173671 0.0020344136957443806 -0.0066881622567029871 0.0010907869639610111 -0.013748332412986012 -0.015883396340816796
leaf_weight=5537 31895 79448 20034 58007 39442 9323 8790 11832 28926 61098 9941 16945 3788 19954 12899 58066 9625 19140 16966 138 12340 4626 21256 2945 3021 32499 8664 31321 2772 20985
leaf_count=5537 31895 79448 20034 58007 39442 9323 8790 11832 28926 61098 9941 16945 3788 19954 12899 58066 9625 19140 16966 138 12340 4626 21256 2945 3021 32499 8664 31321 2772 20985
internal_value=0 0.0118043 -0.0276131 0.0220644 0.00196162 -0.0479876 -0.0191969 -0.042278 0.0299421 0.0171917 -0.0141998 -0.0264676 -0.0659203 -0.00365499 -0.0475326 0.00658941 -0.0354693 -0.0185538 -0.029854 -0.0299185 -0.00709516 -0.0594478 -0.0114821 -0.0100627 -0.0214867 0.00447953 -0.0115487 -0.00126582 -0.0235793 -0.0137805
internal_weight=0 464605 197618 227479 237126 57768 139850 43817 86933 140546 82884 56966 13951 107119 24731 130007 19086 31853 33911 9461 43903 8414 51031 23949 23055 71941 21004 63216 12713 29775
internal_count=662223 464605 197618 227479 237126 57768 139850 43817 86933 140546 82884 56966 13951 107119 24731 130007 19086 31853 33911 9461 43903 8414 51031 23949 23055 71941 21004 63216 12713 29775
is_linear=0
shrinkage=0.05


Tree=5
num_leaves=31
num_cat=0
split_feature=23 2 2 23 23 23 23 2 2 2 2 2 23 23 2 23 23 23 2 2 2 2 13 23 13 2 2 23 11 23
split_gain=78087.3 22099.3 16480.3 8011.72 6740.7 6017.43 4039.86 2714.31 2616.05 2515.56 2513.72 1813.84 1164.43 1068 899.447 823.187 771.247 745.237 643.938 617.466 574.09 550.577 504.94 496.902 496.174 467.863 441.528 420.995 406.895 392.778
threshold=3.3569590786571921 3.49458357600466 3.49903138123695 3.8279345175896906 3.9039133738601826 2.6626751442364305 2.7329457364341088 3.0242761629554087 3.9182745825602971 3.8983712923728819 2.9445815773630346 3.9100102249488757 4.1866703539823016 4.1275268273800574 3.049778821974634 2.3254701235117397 2.9957447424411288 3.6493208182173 3.0242761629554087 2.3928571428571432 4.2356245869134179 4.1642101343593891 0.01747018359393342 2.2169908940397356 0.024237528760953645 3.9513835860514166 2.5507507507507512 4.1275268273800574 0.31144704747858648 3.5599816849816852
decision_type=2 2 2 2 2 2 2 2 2 2 2 2 2 2 2 2 2 2 2 2 2 2 2 2 2 2 2 2 2 2
left_child=2 4 5 9 7 14 15 19 13 24 -7 22 18 -5 -1 -4 -12 -9 -6 -2 27 -11 -8 -16 29 -17 -14 -10 -13 -3
right_child=1 3 6 8 12 10 11 17 20 21 16 28 26 -15 23 25 -18 -19 -20 -21 -22 -23 -24 -25 -26 -27 -28 -29 -30 -31
leaf_value=-0.073048085455255693 -0.052173557153747809 0.0022666568472425419 -0.04313632800805197 0.016990219709996431 -0.0067016310758745666 -0.050458297786014752 -0.0084166753184870269 -0.01176537189870806 0.027256761108706853 0.015492425265283299 -0.036541128991592314 0.01263310428681453 -0.017722394510075967 0.027786438736799875 -0.067361209617376377 -0.028244320470593044 -0.023957358240541932 -0.0017103575152166437 0.0078802265787981992 -0.022846575926472754 0.041435317220549064 0.026680891346144143 -0.019473887366437161 -0.048333757518805524 -0.0023569004219103347 -0.0085100360861689924 0.019842382775493671 0.036548008820525869 -0.0006467925471049117 0.0100017802253372
leaf_weight=10320 1927 27174 7855 58894 10155 16796 35497 35837 28987 35809 18600 10356 812 37488 4943 12307 35256 37933 29755 26164 18688 15868 14560 11219 18156 3973 21339 21042 13020 41438
leaf_count=10320 1927 27174 7855 58894 10155 16796 35497 35837 28987 35809 18600 10356 812 37488 4943 12307 35256 37933 29755 26164 18688 15868 14560 11219 18156 3973 21339 21042 13020 41438
internal_value=0 0.0110763 -0.0266101 0.0190653 -0.0037174 -0.0411893 -0.0120957 -0.0116316 0.0265038 0.0101946 -0.0335702 -0.00626284 0.00927228 0.0211894 -0.0615165 -0.0298425 -0.0283034 -0.00659502 0.00416991 -0.0248584 0.0339578 0.018928 -0.0116329 -0.0541531 0.00499327 -0.0234283 0.0184654 0.0311646 0.00523645 0.00693826
internal_weight=0 467466 194702 303544 163922 97134 97568 101861 165099 138445 70652 73433 62061 96382 26482 24135 53856 73770 39910 28091 68717 51677 50057 16162 86768 16280 22151 50029 23376 68612
internal_count=662168 467466 194702 303544 163922 97134 97568 101861 165099 138445 70652 73433 62061 96382 26482 24135 53856 73770 39910 28091 68717 51677 50057 16162 86768 16280 22151 50029 23376 68612
is_linear=0
shrinkage=0.05


Tree=6
num_leaves=31
num_cat=0
split_feature=2 24 2 2 24 24 2 2 2 24 24 2 24 24 24 2 2 22 22 22 24 2 24 24 22 2 22 24 22 24
split_gain=47957.5 12658.8 9416.85 6384.43 4375.42 2646.28 2122.6 2002.9 1966.07 1494.84 1030.42 1010.46 807.75 671.428 454.748 447.874 423.326 416.521 398.753 392.231 330.75 330.035 321.811 321.055 317.775 307.79 307.182 293.977 241.919 238.463
threshold=3.5196331671372225 551.50000000000011 3.8983712923728819 3.1536865624002557 696.50000000000011 1233.0000000000002 4.2356245869134179 3.120606060606061 2.7591057412470241 696.50000000000011 1381.5000000000002 3.7122282608695656 172.50000000000003 172.50000000000003 172.50000000000003 2.6401148625130531 2.5507507507507512 2.5000000000000004 2.5000000000000004 2.5000000000000004 1392.0000000000002 4.4540169133192391 304.50000000000006 172.50000000000003 2.5000000000000004 2.9588004564256174 2.5000000000000004 172.50000000000003 1.5000000000000002 1835.0000000000002
decision_type=2 2 2 2 2 2 2 2 2 2 2 2 2 2 2 2 2 2 2 2 2 2 2 2 2 2 2 2 2 2
left_child=1 3 4 8 11 7 9 15 16 23 18 14 -5 -10 -2 -3 -1 -9 -6 -14 -11 -8 -13 -4 -16 -7 -17 -18 -15 -27
right_child=2 5 6 12 10 25 21 17 13 20 -12 22 19 28 24 26 27 -19 -20 -21 -22 -23 -24 -25 -26 29 -28 -29 -30 -31
leaf_value=-0.061616281475195635 -0.012048670656811488 -0.032861863490721337 0.0064248374185192029 -0.024330187556442461 0.013106812859861212 -0.0020928418322583723 0.029073141216164462 0.00023040359709187422 -0.040879061742853988 0.021353345963326976 0.021544332280561952 -0.00012448106695279516 -0.011739887114426216 -0.021851746740265916 -0.00044549799879222757 -0.011598289602053233 -0.056690039686172415 -0.0082198864925604204 0.0051359451741013334 -0.021056023791141902 0.029910029971354408 0.040776116017433216 0.0067444827092562956 0.01464638572144987 -0.0094109277661664492 0.0070835805476944999 -0.022784721812302438 -0.039125047464747646 -0.03127486298180026 0.017032735942442642
leaf_weight=7052 16982 4748 15235 26580 39475 5291 26946 37678 15427 36339 27010 31413 48024 10326 40152 15134 3800 23790 26041 14774 16386 7759 37296 53832 13111 14597 10323 6384 20010 10253
leaf_count=7052 16982 4748 15235 26580 39475 5291 26946 37678 15427 36339 27010 31413 48024 10326 40152 15134 3800 23790 26041 14774 16386 7759 37296 53832 13111 14597 10323 6384 20010 10253
internal_value=0 -0.0160109 0.0113073 -0.0256166 0.00490235 -0.0039952 0.0207811 -0.00822089 -0.0378071 0.0176727 0.0133265 -0.00070709 -0.017024 -0.0323863 -0.00492398 -0.0187639 -0.0521997 -0.00304012 0.00993859 -0.0139316 0.0240126 0.0316896 0.00360407 0.0128329 -0.00265239 0.00885712 -0.0161345 -0.0456791 -0.0280674 0.0111886
internal_weight=0 274191 387977 152377 231480 121814 156497 91673 62999 121792 92526 138954 89378 45763 70245 30205 17236 61468 65516 62798 52725 34705 68709 69067 53263 30141 25457 10184 30336 24850
internal_count=662168 274191 387977 152377 231480 121814 156497 91673 62999 121792 92526 138954 89378 45763 70245 30205 17236 61468 65516 62798 52725 34705 68709 69067 53263 30141 25457 10184 30336 24850
is_linear=0
shrinkage=0.05


Tree=7
num_leaves=31
num_cat=0
split_feature=23 2 2 23 23 23 23 2 2 2 2 2 2 23 2 2 11 23 2 23 23 2 2 23 23 23 23 23 23 23
split_gain=67709.6 15694.3 15629 6478.73 5724 5410.67 3657.77 3284.5 2359.57 1441.88 1377.84 1152.69 1115.86 1045.92 766.218 700.99 630.423 630.392 626.362 615.613 599.989 580.061 562.271 539.575 499.176 486.981 437.904 410.039 398.271 373.483
threshold=3.4395652173913045 3.6898689085209466 3.3975683050671832 3.9511379914053801 2.7973901098901099 2.8785972936916338 3.97145087921787 3.2148351648351654 3.7656758405639921 2.8129431450613831 4.0831513828238721 3.7193750000000008 3.2221013178575753 2.4755952380952384 4.037915543575922 2.6105861164228226 0.24027559741845458 4.203280485748019 2.8129431450613831 2.3801935483870973 3.7056140350877196 4.0954913880445805 2.3928571428571432 3.1556466302367947 3.6761152057355648 3.1871565934065935 2.4201456990753716 4.1698738556688415 3.6981644408780885 4.2126821633825955
decision_type=2 2 2 2 2 2 2 2 2 2 2 2 2 2 2 2 2 2 2 2 2 2 2 2 2 2 2 2 2 2
left_child=2 3 5 7 11 13 10 15 23 -7 24 19 22 -1 29 -2 -13 -14 -15 -4 -9 -10 -5 -6 -3 -11 -18 -24 -17 -8
right_child=1 6 4 12 8 9 14 20 21 25 -12 16 17 18 -16 28 26 -19 -20 -21 -22 -23 27 -25 -26 -27 -28 -29 -30 -31
leaf_value=-0.064286217387510156 -0.034219325940796262 0.0077961048355658707 -0.052274856977442101 -0.033875827933335122 -0.018362164016369226 -0.045031448079219993 0.022125616312725426 -0.002999341122134493 -0.00076994398446993302 -0.030000780822728369 0.024965723433354608 -0.0059403111816314497 0.01292840246540199 -0.063228511869387091 0.035260804551676066 -0.01843216147741418 -0.040290221896617615 0.023370931771421459 -0.041947446681014078 -0.031843287923592214 0.0049176216189573373 0.011589286825883373 7.4927945700079549e-05 -0.0084181641543470704 0.015589922376723853 -0.019850047959463001 -0.019559973342999266 0.013541225424381473 -0.0082505452678816888 0.030442387894577844
leaf_weight=13567 4532 32734 5507 927 23318 10695 31618 47150 36744 22647 30875 5394 36676 4382 33522 19541 3894 23851 16391 11154 48597 12801 13207 32874 55170 24705 7367 9883 18889 23556
leaf_count=13567 4532 32734 5507 927 23318 10695 31618 47150 36744 22647 30875 5394 36676 4382 33522 19541 3894 23851 16391 11154 48597 12801 13207 32874 55170 24705 7367 9883 18889 23556
internal_value=0 0.0117156 -0.0218163 0.00251486 -0.0112254 -0.0377568 0.0216161 -0.00413489 -0.00553112 -0.02845 0.0158792 -0.0292979 0.0134249 -0.0534886 0.0292987 -0.015621 -0.0199958 0.0170433 -0.0464366 -0.0385966 0.00101896 0.00242333 0.00430589 -0.0125446 0.0126876 -0.0247048 -0.0267284 0.00583878 -0.0134277 0.0256764
internal_weight=0 430728 231440 223253 139053 92387 207475 138709 105737 58047 118779 33316 84544 34340 88696 42962 16655 60527 20773 16661 95747 49545 24017 56192 87904 47352 11261 23090 38430 55174
internal_count=662168 430728 231440 223253 139053 92387 207475 138709 105737 58047 118779 33316 84544 34340 88696 42962 16655 60527 20773 16661 95747 49545 24017 56192 87904 47352 11261 23090 38430 55174
is_linear=0
shrinkage=0.05


Tree=8
num_leaves=31
num_cat=0
split_feature=23 2 2 23 23 23 23 2 2 2 2 2 23 23 2 11 23 2 23 2 2 2 11 23 23 23 2 2 23 13
split_gain=61293.5 16784.1 11586.5 6387.41 5478.96 4087.95 3351.66 2616.27 2138.71 1511.86 1460.31 1350.97 1303.59 839.197 741.804 718.622 709.135 672.869 564.575 489.991 488.635 450.169 444.284 429.919 404.27 388.728 380.417 329.354 324.888 315.652
threshold=3.33017765310893 3.588930659983292 3.3634588068181821 3.854676747848222 3.8279345175896906 2.6165158371040729 2.6397852760736202 3.0242761629554087 3.7193750000000008 4.0319518170681921 4.0166945373467122 2.8398614154051121 4.1016152229228906 4.2126821633825955 3.7193750000000008 0.31144704747858648 3.5733421866615216 3.0665192436755966 2.9957447424411288 2.3928571428571432 2.809315319823201 2.3928571428571432 0.31043117840078299 2.9643551908952563 3.5672858268602954 2.1529655591484196 4.0636609253630533 3.419046278321948 4.3936532686532699 0.0079470338091027753
decision_type=2 2 2 2 2 2 2 2 2 2 2 2 2 2 2 2 2 2 2 2 2 2 2 2 2 2 2 2 2 2
left_child=2 3 6 7 10 14 20 21 18 13 24 -8 17 -6 -4 26 -9 -5 -7 -14 -1 -2 -16 -13 -3 -22 -10 -18 -21 -20
right_child=1 4 5 12 9 8 11 16 15 -11 -12 23 19 -15 22 -17 27 -19 29 28 25 -23 -24 -25 -26 -27 -28 -29 -30 -31
leaf_value=-0.072087292066588191 -0.046206668638370987 0.0025163040473982776 -0.042362057143399481 -0.0068451617276592616 0.017881159980243651 -0.024659699167393394 -0.048132895707184903 -0.0097894250000581488 0.00063798271884979245 0.031810092923704368 0.018855596105855854 -0.035911061479396454 -0.03084762514227157 0.027935805236797496 -0.014637767571125549 -0.0077094190663697867 -0.0042913802974603168 0.006843277051291727 -0.0062624706549966758 0.014400382280538873 -0.065940078946806341 -0.020688887500631765 -0.035304643202953255 -0.025119668400455958 0.0094087518724011755 -0.048362273701973373 0.015797447526172383 0.0037075535345221151 0.026707932835792259 -0.017056003208863298
leaf_weight=4325 1857 35839 11612 11775 69689 16714 11774 39334 14845 46385 33613 14196 556 29553 5729 25372 30535 37790 10623 32616 4317 24946 4762 26380 52352 11588 5738 22243 6417 18693
leaf_count=4325 1857 35839 11612 11775 69689 16714 11774 39334 14845 46385 33613 14196 556 29553 5729 25372 30535 37790 10623 32616 4317 24946 4762 26380 52352 11588 5738 22243 6417 18693
internal_value=0 0.00952712 -0.0242833 -0.00112278 0.017813 -0.0143476 -0.0399012 -0.00870822 -0.00970814 0.0243582 0.0099877 -0.0332219 0.0089948 0.0208753 -0.0336556 -0.00207783 -0.00470761 0.00359136 -0.017326 0.0157598 -0.0571855 -0.0224568 -0.0240187 -0.0288952 0.0066078 -0.0531333 0.00486404 -0.000920273 0.0164237 -0.0131448
internal_weight=0 475500 186668 208069 267431 114088 72580 118915 91985 145627 121804 52350 89154 99242 22103 45955 92112 49565 46030 39589 20230 26803 10491 40576 88191 15905 20583 52778 39033 29316
internal_count=662168 475500 186668 208069 267431 114088 72580 118915 91985 145627 121804 52350 89154 99242 22103 45955 92112 49565 46030 39589 20230 26803 10491 40576 88191 15905 20583 52778 39033 29316
is_linear=0
shrinkage=0.05


Tree=9
num_leaves=31
num_cat=0
split_feature=23 23 23 23 23 23 23 23 13 13 13 13 23 23 13 23 10 11 11 11 23 13 10 11 23 3 23 23 23 3
split_gain=55361.6 13270.1 7699.22 2863.02 1618.61 1497.86 1237.81 520.724 492.331 432.017 425.054 397.054 363.394 263.915 186.625 172.305 169.138 166.972 166.239 150.589 149.434 145.378 138.181 128.205 121.074 109.715 107.388 103.312 100.409 96.7406
threshold=3.3166011014948862 3.8156055332017957 2.6626751442364305 4.1275268273800574 3.5885142085637143 3.0431731744421913 2.2169908940397356 4.3226619153489727 0.014394244604316549 0.0081411276069282452 0.0082713042526407991 0.014394244604316549 3.9661998955477222 1.8139231056364318 0.0080710302777633035 2.4755952380952384 0.0056417601655128517 0.25051440329218116 0.24869095594484197 0.21560175794455716 2.8451821773485517 0.014394244604316549 0.0056417601655128517 0.47559017586111746 3.7379962743043431 893.50000000000011 3.4809331761494078 3.2034201168233616 4.4500959024100517 899.50000000000011
decision_type=2 2 2 2 2 2 2 2 2 2 2 2 2 2 2 2 2 2 2 2 2 2 2 2 2 2 2 2 2 2
left_child=2 4 6 12 8 10 13 -5 23 17 18 19 -3 -1 -15 -11 -13 -8 29 -7 -12 -6 -10 26 -23 -24 -2 -18 -9 -4
right_child=1 3 5 7 21 11 9 28 22 15 20 16 -14 14 -16 -17 27 -19 -20 -21 -22 24 25 -25 -26 -27 -28 -29 -30 -31
leaf_value=-0.067277069797685329 -0.0022002002960051794 0.010339353587913075 -0.014350575930209121 0.0211452791747185 0.0060149538448863206 -0.0044642180987280412 -0.023870114496687678 0.026926108946331129 -0.0052197183156150427 -0.046700680424929877 -0.031376401628551071 -0.013811874716364837 0.015191893733594456 -0.042979061419593179 -0.055961537610689033 -0.036861916212301664 -0.025719515314085818 -0.034658869150966769 -0.022054584981634987 -0.011404294325655925 -0.024522532047588683 0.00060847736946949803 -0.0096232017603857627 -0.0070895935771211407 0.0055011116213743005 -0.0224111184768301 0.0021007612519971281 -0.016714016653788397 0.032858607102666443 0.02953842220109279
leaf_weight=2785 34968 79618 11043 63358 63773 9926 7233 19906 24114 7381 12259 14523 74855 5066 6103 11206 7105 7113 13815 36777 22640 33040 21252 8179 20484 1821 24811 5772 11115 127
leaf_count=2785 34968 79618 11043 63358 63773 9926 7233 19906 24114 7381 12259 14523 74855 5066 6103 11206 7105 7113 13815 36777 22640 33040 21252 8179 20484 1821 24811 5772 11115 127
internal_value=0 0.00885886 -0.0235874 0.0168828 0.000268406 -0.017485 -0.041026 0.023744 -0.00394278 -0.0357378 -0.0233658 -0.0127327 0.0126908 -0.0535067 -0.050073 -0.0407689 -0.017511 -0.0292194 -0.0183873 -0.00992929 -0.0269301 0.00440233 -0.00786639 -0.00121841 0.00248092 -0.0106325 -0.000415106 -0.0216829 0.0290518 -0.0138516
internal_weight=0 481294 180874 248852 232442 133987 46887 94379 115145 32933 59884 74103 154473 13954 11169 18587 27400 14346 24985 46703 34899 117297 47187 67958 53524 23073 59779 12877 31021 11170
internal_count=662168 481294 180874 248852 232442 133987 46887 94379 115145 32933 59884 74103 154473 13954 11169 18587 27400 14346 24985 46703 34899 117297 47187 67958 53524 23073 59779 12877 31021 11170
is_linear=0
shrinkage=0.05


Tree=10
num_leaves=31
num_cat=0
split_feature=23 2 2 23 23 23 2 23 2 2 23 2 2 2 2 2 11 2 23 13 2 23 23 11 2 13 23 23 23 23
split_gain=49618.6 14574.5 11134.2 5499.56 4517.94 4069.43 2592.93 2113.37 1627.72 1559.23 1247.86 1106.63 1051.79 750.22 638.523 610.147 521.879 514.546 512.27 467.22 453.044 447.958 421.533 421.038 396.213 352.47 339.918 327.872 304.275 292.12
threshold=3.5208078647106769 3.4597297297297303 3.7075876504447938 2.9160094779871941 2.980483625285606 4.0372940242207669 3.2079755351681962 4.0241352974680273 3.049778821974634 3.8097619047619049 2.3801935483870973 3.120606060606061 4.1001432664756452 3.7193750000000008 3.2221013178575753 2.6105861164228226 0.31043117840078299 4.222761596548005 2.4755952380952384 0.018887743776755988 2.6741322231139653 2.5141096979332276 3.7691153846153851 0.24027559741845458 2.3928571428571432 0.0079470338091027753 3.2689341506822234 4.3031987121344732 3.7809938040485669 3.7791958601040796
decision_type=2 2 2 2 2 2 2 2 2 2 2 2 2 2 2 2 2 2 2 2 2 2 2 2 2 2 2 2 2 2
left_child=1 3 5 11 10 6 15 12 20 19 25 21 28 -12 24 -2 -15 -9 -13 -6 -5 -1 -8 -11 -7 -3 -10 -16 -4 -17
right_child=2 4 7 8 9 14 22 17 26 23 13 18 -14 16 27 29 -18 -19 -20 -21 -22 -23 -24 -25 -26 -27 -28 -29 -30 -31
leaf_value=-0.061941879747107888 -0.029948802934548976 -0.024036573721281203 0.0099500351868002674 -0.043382838090836137 -0.0032135454289286382 -0.030913187439586976 -0.00060458537351351204 0.024707863870099836 -0.020711313182624376 0.015570965250803146 -0.023102206742017996 -0.047252102506936011 0.024092154835551015 -0.00053779055595989565 0.013965417319752996 -0.014235335343315239 -0.01664882031980653 0.035581873009349882 -0.030998544267260054 -0.013518659738306321 -0.028164485974603717 -0.046740983060906481 0.0058275304856185255 0.0039562209418675205 0.0068812924048877221 -0.043173240171679894 -0.012440915750422367 0.023315530191514972 0.016000829496012406 -0.0052416011594023232
leaf_weight=8160 4310 4172 42259 6458 42309 722 48485 61068 24600 10061 15930 7390 28251 10075 37255 19403 10031 13237 14092 14863 20147 11936 53666 34761 17533 5685 25101 12529 40872 16886
leaf_count=8160 4310 4172 42259 6458 42309 722 48485 61068 24600 10061 15930 7390 28251 10075 37255 19403 10031 13237 14092 14863 20147 11936 53666 34761 17533 5685 25101 12529 40872 16886
internal_value=0 -0.0167348 0.0111868 -0.0298492 -0.00628094 0.00332257 -0.0014737 0.0201142 -0.0218774 -0.000418731 -0.0193093 -0.0444795 0.0157574 -0.0149972 0.0133854 -0.0121628 -0.00857568 0.026645 -0.0365899 -0.00589257 -0.0318585 -0.0529133 0.00277459 0.00656333 0.00538649 -0.0350736 -0.0165344 0.0163185 0.012925 -0.0100504
internal_weight=0 265771 396476 117884 147887 210789 142750 185687 76306 101994 45893 41578 111382 36036 68039 40599 20106 74305 21482 57172 26605 20096 102151 44822 18255 9857 49701 49784 83131 36289
internal_count=662247 265771 396476 117884 147887 210789 142750 185687 76306 101994 45893 41578 111382 36036 68039 40599 20106 74305 21482 57172 26605 20096 102151 44822 18255 9857 49701 49784 83131 36289
is_linear=0
shrinkage=0.05


Tree=11
num_leaves=31
num_cat=0
split_feature=23 2 2 23 23 23 2 23 2 2 2 2 2 2 23 11 23 13 23 2 13 13 2 23 2 23 2 2 23 23
split_gain=44864.7 13871.3 9638.06 4963.81 3970.22 3466.71 2112.02 1968.27 1953.73 1506.7 1452.55 852.869 759.571 757.253 662.521 567.958 511.724 464.957 459.393 454.361 436.781 413.424 405.378 382.832 373.548 333.02 325.581 318.017 309.086 277.469
threshold=3.33017765310893 3.4776477305167002 3.2763575738329633 3.8891812865497077 3.8891812865497077 2.6397852760736202 3.7122282608695656 2.7028619528619533 3.8643076332949753 2.9231771435976714 3.8606682083739048 3.7193750000000008 2.809315319823201 2.6105861164228226 4.1398507678933649 0.31144704747858648 3.6549768065724031 0.0079470338091027753 4.2126821633825955 4.1238752877170963 0.0083217913204062816 0.026572208623611374 4.2356245869134179 2.1529655591484196 2.809315319823201 3.5989963393051956 4.0874393203883512 2.3928571428571432 3.0208848155362391 2.0656821845074433
decision_type=2 2 2 2 2 2 2 2 2 2 2 2 2 2 2 2 2 2 2 2 2 2 2 2 2 2 2 2 2 2
left_child=2 4 7 8 9 11 17 24 21 27 18 23 -9 -6 -15 26 -11 -7 -5 -10 -13 25 -12 -4 -1 -3 -8 -2 -19 -26
right_child=1 3 5 10 13 6 15 12 19 16 22 20 -14 14 -16 -17 -18 28 -20 -21 -22 -23 -24 -25 29 -27 -28 -29 -30 -31
leaf_value=-0.062513178121465091 -0.041493450091563508 0.0016647362948785131 -0.049781232417742231 0.013310903089855559 -0.018595800195989443 -0.0097159054721345697 0.0016344638675014527 -0.0438035436461644 0.011876879992715118 -0.010680103563343649 0.023947162656408429 -0.0068912325152048941 -0.027311514069963717 0.0030683671323693575 0.013864514016003807 -0.0060221921839893949 -0.0026565058479096873 -0.025343433909275417 0.021606162307446497 0.020439920144796592 -0.026782391950571794 -0.0029008450179638938 0.032807094826728549 -0.03192436848225174 -0.06178203314920655 0.0081963011547060895 0.016549069460896026 -0.020188092377908279 -0.015482857403412532 -0.043451293719787495
leaf_weight=5033 1941 34198 3991 50001 2946 20674 15899 9162 45024 41988 55294 4750 29338 35611 23646 26189 37727 12841 25053 23617 6587 18524 16843 12106 2504 45454 4753 17941 20853 11759
leaf_count=5033 1941 34198 3991 50001 2946 20674 15899 9162 45024 41988 55294 4750 29338 35611 23646 26189 37727 12841 25053 23617 6587 18524 16843 12106 2504 45454 4753 17941 20853 11759
internal_value=0 0.00812874 -0.0208079 0.0142569 -0.00376432 -0.013188 -0.00891459 -0.0377685 0.00835181 -0.00995403 0.0209494 -0.0289532 -0.0312362 0.0061464 0.00737648 -0.00113301 -0.00688275 -0.0156189 0.0160799 0.0148231 -0.0184484 0.00382731 0.0260158 -0.0363517 -0.050802 0.00539202 0.00506702 -0.022268 -0.0192408 -0.0466694
internal_weight=0 475808 186439 314008 161800 128643 101209 57796 166817 99597 147191 27434 38500 62203 59257 46841 79715 54368 75054 68641 11337 98176 72137 16097 19296 79652 20652 19882 33694 14263
internal_count=662247 475808 186439 314008 161800 128643 101209 57796 166817 99597 147191 27434 38500 62203 59257 46841 79715 54368 75054 68641 11337 98176 72137 16097 19296 79652 20652 19882 33694 14263
is_linear=0
shrinkage=0.05


Tree=12
num_leaves=31
num_cat=0
split_feature=23 2 2 23 23 23 23 2 2 2 2 2 2 2 2 23 2 11 23 23 23 2 23 2 20 23 2 13 2 13
split_gain=40640.9 10665.7 10548.7 4239.19 3450.26 2809.75 2482.77 2162.95 1652.07 1206.96 1170.4 1066.32 611.11 567.366 559.056 543.128 536.725 500.482 429.949 416.134 407.223 390.672 372.773 348.255 347.505 334.744 320.873 305.297 298.045 286.975
threshold=3.4395652173913045 3.4728501228501232 3.2763575738329633 2.7973901098901099 3.9251865671641792 3.9661998955477222 2.9160094779871941 3.6933819951338207 3.8643076332949753 3.0242761629554087 3.8606682083739048 3.7360555555555561 2.8129431450613831 4.0166945373467122 2.809315319823201 2.2169908940397356 2.5507507507507512 0.31144704747858648 2.2722662732804726 3.1310068649885587 4.2690914831185243 4.2356245869134179 4.2690914831185243 2.3928571428571432 0.080866468149705162 3.6911122676150003 4.2356245869134179 0.017259998510463993 4.2567126182813793 0.010881405702377571
decision_type=2 2 2 2 2 2 2 2 2 2 2 2 2 2 2 2 2 2 2 2 2 2 2 2 2 2 2 2 2 2
left_child=2 5 6 11 8 9 14 19 24 23 22 15 -8 27 -1 -4 -7 28 -16 -5 -18 -10 -6 -2 -3 -11 -12 -9 -13 -17
right_child=1 4 3 7 10 16 12 13 21 25 26 17 -14 -15 18 29 20 -19 -20 -21 -22 -23 -24 -25 -26 -27 -28 -29 -30 -31
leaf_value=-0.056348617289900829 -0.037695960156159947 0.0069725296665045337 -0.045065374143283626 -0.017405665395269269 0.013690133686487535 -0.019219928857080126 -0.035898677736068162 0.00090143583530840504 0.013716586845769886 -0.0074510173236837039 0.023219354138708615 -0.0089793737884375623 -0.021630457762905186 0.0084888883683717567 -0.053399728008398845 -0.021257940525881598 0.0057966913058695654 -0.023595888449773388 -0.036573343577518118 -0.0088750458841011844 0.016324937482843988 0.023719070421302769 0.022165846948900975 -0.014721896530532037 -3.7182678150381307e-05 -0.00035619534213292585 0.031414282228014574 -0.0082328877701471469 0.021169860690994108 -0.033565227010035309
leaf_weight=7423 1767 65780 5172 22677 51236 1796 10055 29378 52266 31056 50569 7521 29585 18769 4926 10512 34073 7263 16556 38681 12574 12004 17371 24814 24180 35779 15639 13284 920 8621
leaf_count=7423 1767 65780 5172 22677 51236 1796 10055 29378 52266 31056 50569 7521 29585 18769 4926 10512 34073 7263 16556 38681 12574 12004 17371 24814 24180 35779 15639 13284 920 8621
internal_value=0 0.00905893 -0.0169213 -0.00999337 0.0145698 -0.00216976 -0.0333756 -0.00538777 0.00946242 -0.0072371 0.0204127 -0.0241281 -0.0252497 0.0012444 -0.0445193 -0.0306895 0.00760195 -0.0139732 -0.0404318 -0.0120278 0.00863465 0.0155848 0.0158361 -0.0162491 0.00508842 -0.00365292 0.0251551 -0.00194279 -0.00569335 -0.0268034
internal_weight=0 430904 231343 162798 289045 141859 68545 122789 154230 93416 134815 40009 39640 61431 28905 24305 48443 15704 21482 61358 46647 64270 68607 26581 89960 66835 66208 42662 8441 19133
internal_count=662247 430904 231343 162798 289045 141859 68545 122789 154230 93416 134815 40009 39640 61431 28905 24305 48443 15704 21482 61358 46647 64270 68607 26581 89960 66835 66208 42662 8441 19133
is_linear=0
shrinkage=0.05


Tree=13
num_leaves=31
num_cat=0
split_feature=23 2 2 23 23 23 2 23 2 23 2 2 2 2 23 2 2 11 11 13 2 2 2 11 13 23 3 2 23 2
split_gain=36837.1 10953.5 8259.18 3774.01 3745.58 3035.95 1923.52 1527.4 1354.64 1077.5 989.439 888.096 779.633 606.607 597.857 535.196 446.496 426.637 401.223 377.86 365.278 344.352 316.715 314.783 290.858 257.792 250.411 245.446 240.335 236.052
threshold=3.5283372365339583 3.419046278321948 3.7146847565841985 2.980483625285606 2.9643551908952563 4.0337652960401318 3.2079755351681962 4.060891522376763 3.7685980211303041 2.4201456990753716 2.9231771435976714 2.8129431450613831 4.0319518170681921 3.9917660612632155 2.5141096979332276 3.2221013178575753 2.6401148625130531 0.31144704747858648 0.34381175889328069 0.017050409907552768 4.0453939393939402 4.1238752877170963 2.3928571428571432 0.36822204003166353 0.017555713608345191 4.382621656183038 238.50000000000003 2.2378214050252736 1.9698620188816272 4.248853211009175
decision_type=2 2 2 2 2 2 2 2 2 2 2 2 2 2 2 2 2 2 2 2 2 2 2 2 2 2 2 2 2 2
left_child=1 4 5 9 11 6 16 12 18 20 27 -1 26 19 -13 22 -2 29 -5 -11 28 -9 -7 -8 -12 -17 -4 -6 -3 -10
right_child=2 3 7 8 10 15 23 21 17 13 24 14 -14 -15 -16 25 -18 -19 -20 -21 -22 -23 -24 -25 -26 -27 -28 -29 -30 -31
leaf_value=-0.052240032538945082 -0.024493052012441185 -0.049266855507148627 0.0081098399834480597 -0.0021989391993043061 -0.055385113807011971 -0.027868622377878283 0.0050165403906318115 0.021258972121705043 0.0085041772728585655 -0.012952977004822988 -0.013550519750216436 -0.043424526876704041 0.019637520036405134 4.8294982526128622e-05 -0.029462605783051349 0.012701506767316807 -0.008517922541810408 0.0012245717709216761 -0.010639797555453143 -0.025636896074924212 -0.0096711083077794368 0.029168230284121129 0.005553696044500114 -0.0005535061313512111 -0.022631113485087121 0.022953423490626675 0.013914014844386431 -0.028189657153616529 -0.030257637417960545 0.025157345566304473
leaf_weight=8813 5004 2095 37256 30059 875 738 54782 47542 19471 22132 38872 11867 40353 6972 21666 44815 34736 31361 26481 7992 1788 19368 17926 47236 11406 7104 37076 16013 8059 2389
leaf_count=8813 5004 2095 37256 30059 875 738 54782 47542 19471 22132 38872 11867 40353 6972 21666 44815 34736 31361 26481 7992 1788 19368 17926 47236 11406 7104 37076 16013 8059 2389
internal_value=0 -0.0143047 0.00971622 -0.00591529 -0.0264699 0.00302107 -0.00119761 0.0175449 -0.00076312 -0.0174473 -0.0191277 -0.0381157 0.0140424 -0.0132421 -0.0344036 0.0114938 -0.0105295 0.00496213 -0.00615229 -0.0163181 -0.0305102 0.0235484 0.00423213 0.00243752 -0.0156105 0.0141043 0.0110049 -0.0295987 -0.0341797 0.0103241
internal_weight=0 268311 393936 158799 109512 212341 141758 181595 109761 49038 67166 42346 114685 37096 33533 70583 39740 53221 56540 30124 11942 66910 18664 102018 50278 51919 74332 16888 10154 21860
internal_count=662247 268311 393936 158799 109512 212341 141758 181595 109761 49038 67166 42346 114685 37096 33533 70583 39740 53221 56540 30124 11942 66910 18664 102018 50278 51919 74332 16888 10154 21860
is_linear=0
shrinkage=0.05


Tree=14
num_leaves=31
num_cat=0
split_feature=23 2 2 23 23 23 2 2 23 2 2 23 2 11 11 13 2 2 23 13 2 2 23 23 23 13 13 2 11 2
split_gain=33516.4 10824 6709.66 3585.04 3449.28 2386.14 1572.58 1502.63 1367.84 1111.2 1005.31 728.919 594.323 494.707 486.551 433.721 386.158 372.204 367.188 364.566 353.195 339.948 338.421 338.158 312.152 283.959 267.464 260.856 241.041 240.868
threshold=3.2909946236559144 3.5569937023533318 3.2763575738329633 3.8493055844029969 3.8432104184957567 2.5415339702760087 3.7193750000000008 3.101893842160806 2.59549138804458 3.9568123279154457 3.8606682083739048 4.0878948225333778 2.809315319823201 0.24027559741845458 0.2422647527910686 0.011460331611331779 2.6741322231139653 2.6105861164228226 4.2337223067816678 0.024237528760953645 4.076138716356108 2.3928571428571432 4.1473919115861078 3.6086742109634558 2.0656821845074433 0.023134767715692572 0.016844474709643252 4.286836200448767 0.39688598085544652 4.1642101343593891
decision_type=2 2 2 2 2 2 2 2 2 2 2 2 2 2 2 2 2 2 2 2 2 2 2 2 2 2 2 2 2 2
left_child=2 3 8 7 9 14 15 16 -1 19 22 17 -10 -8 20 -7 -2 -5 29 28 -4 -13 -6 -9 -16 -15 -14 -11 -3 -12
right_child=1 4 5 11 10 6 13 23 12 27 18 21 26 25 24 -17 -18 -19 -20 -21 -22 -23 -24 -25 -26 -27 -28 -29 -30 -31
leaf_value=-0.046442958187432812 -0.027103817876530902 0.0078002626435353488 -0.021542242480844086 -0.02102308838810335 0.011205199012462469 -0.010546830317060463 0.0071837489041954392 -0.0073784734627486042 -0.039315547978010949 0.011850044665018072 0.017500674049770369 -0.027231540624533174 -0.022753197289006127 -0.0026839338758799778 -0.047648932738960391 -0.019391314909364951 -0.013976169635061953 0.0022464609081539882 0.02713608337318273 -0.0019835827238507265 0.011581400841697891 0.011309366688389019 0.018450344674003909 -0.00085235362378515182 -0.029313152508368901 -0.0141641548811737 -0.034275079959827946 0.021669301165453347 0.0018242701929972233 0.024551963370406514
leaf_weight=14460 6973 48178 5817 1790 45162 30384 11073 40487 9708 37276 37844 581 24445 26492 2995 25490 28488 43011 24187 19451 934 37553 25062 38941 10317 6761 6344 8263 25969 17811
leaf_count=14460 6973 48178 5817 1790 45162 30384 11073 40487 9708 37276 37844 581 24445 26492 2995 25490 28488 43011 24187 19451 934 37553 25062 38941 10317 6761 6344 8263 25969 17811
internal_value=0 0.00673176 -0.0187682 -0.00228082 0.0128967 -0.0121541 -0.0090026 -0.00799965 -0.0332421 0.00722575 0.0181546 0.00564141 -0.0285285 -0.00196997 -0.0278935 -0.0145817 -0.0165576 0.00131674 0.0219926 0.00410899 -0.0169596 0.0107222 0.0137909 -0.00417893 -0.0334384 -0.00501809 -0.0251273 0.0136317 0.00570725 0.0197573
internal_weight=0 487027 175220 197824 289203 120263 100200 114889 54957 139137 150066 82935 40497 44326 20063 55874 35461 44801 79842 93598 6751 38134 70224 79428 13312 33253 30789 45539 74147 55655
internal_count=662247 487027 175220 197824 289203 120263 100200 114889 54957 139137 150066 82935 40497 44326 20063 55874 35461 44801 79842 93598 6751 38134 70224 79428 13312 33253 30789 45539 74147 55655
is_linear=0
shrinkage=0.05


Tree=15
num_leaves=31
num_cat=0
split_feature=23 2 2 23 23 23 2 23 2 2 2 2 23 2 23 13 2 2 13 2 2 2 3 13 11 13 23 13 13 3
split_gain=30514.5 9942.55 5875.6 4072.45 2554.52 1786.64 1420.49 1414.77 1320.2 1104.73 752.478 672.238 612.034 599.779 566.289 523.014 408.819 386.959 378.354 366.638 329.503 316.988 293.194 282.776 266.368 262.873 255.308 238.793 237.387 224.158
threshold=3.2689341506822234 3.419046278321948 3.3634588068181821 3.786374570446736 3.7809938040485669 2.5415339702760087 3.9182745825602971 2.7028619528619533 3.7767423717059647 3.9445724526369692 2.809315319823201 2.9082837878390042 4.0795317634173065 2.6105861164228226 4.0878948225333778 0.017050409907552768 4.1238752877170963 3.7360555555555561 0.022191443521083414 3.0378413929543977 4.3569498069498076 3.682733255903988 295.50000000000006 0.0071577697986090075 0.38924963924963935 0.02357255754223057 4.223001179681618 0.022639078035994086 0.0079470338091027753 116.50000000000001
decision_type=2 2 2 2 2 2 2 2 2 2 2 2 2 2 2 2 2 2 2 2 2 2 2 2 2 2 2 2 2 2
left_child=2 4 7 8 10 17 12 19 18 15 -2 -9 22 29 -15 21 27 -4 -3 -1 26 -7 -5 -19 -12 -11 -8 -10 -21 -6
right_child=1 3 5 6 13 9 20 11 16 25 24 -13 -14 14 -16 -17 -18 23 -20 28 -22 -23 -24 -25 -26 -27 -28 -29 -30 -31
leaf_value=-0.046210821408625966 -0.023109969699020273 0.0020415138773497757 -0.032068047938212045 0.0064174491101980872 -0.046942185024830461 -0.011622512525426502 0.017827483455778118 -0.034309496936663658 0.0091747109941765891 0.0059916720857136566 -0.0069193184678895863 -0.020492464579742027 0.016382642286082709 -0.00029900067273333551 0.0092753182673386333 -0.017952160660587711 0.015653892280662426 -0.0046972924915336467 -0.0063744254365002114 -0.02634940229709198 0.029579043986387301 -0.003478153200605585 0.013110892678921689 -0.024433604031794814 -0.013974424979763631 -0.008993662951210072 0.024809968080879034 0.0018018542353472188 -0.040105819506150955 -0.012041121465638767
leaf_weight=11115 11052 58755 9620 39412 533 27222 45430 12280 42984 14847 45581 31091 52869 40187 25084 18380 19566 2898 17283 5824 10052 21292 27972 4856 18937 3645 18391 14751 6795 3362
leaf_count=11115 11052 58755 9620 39412 533 27222 45430 12280 42984 14847 45581 31091 52869 40187 25084 18380 19566 2898 17283 5824 10052 21292 27972 4856 18937 3645 18391 14751 6795 3362
internal_value=0 0.00631048 -0.0182677 0.010897 -0.00470022 -0.0107531 0.0157079 -0.0297752 0.0048064 -0.00777913 -0.0110551 -0.0244046 0.0123556 0.00224306 0.00338046 -0.0107694 0.00940776 -0.0253688 0.000128619 -0.0395892 0.0211649 -0.00804809 0.00919599 -0.0170573 -0.0089901 0.00303788 0.0198396 0.00729098 -0.0337569 -0.0168171
internal_weight=0 492201 169865 347465 144736 102760 194126 67105 153339 85386 75570 43371 120253 69166 65271 66894 77301 17374 76038 23734 73873 48514 67384 7754 64518 18492 63821 57735 12619 3895
internal_count=662066 492201 169865 347465 144736 102760 194126 67105 153339 85386 75570 43371 120253 69166 65271 66894 77301 17374 76038 23734 73873 48514 67384 7754 64518 18492 63821 57735 12619 3895
is_linear=0
shrinkage=0.05


Tree=16
num_leaves=31
num_cat=0
split_feature=23 2 2 23 23 2 23 23 2 2 23 23 2 2 2 3 11 11 11 2 23 2 3 3 11 23 2 11 11 2
split_gain=27681.2 8141.35 6173.27 3196.53 2534.29 2188.26 1225.99 1180.33 1142.08 834.864 748.024 654.54 633.428 621.35 604.059 425.469 420.488 361.17 347.835 330.91 310.121 276.457 270.724 270.623 264.629 264.485 258.051 247.979 242.456 239.784
threshold=3.5283372365339583 3.3634588068181821 3.4096728971962622 2.9957447424411288 2.9643551908952563 3.8734570709368277 4.0067802359326139 4.0673911280512538 3.8097619047619049 4.0119971264367829 2.3801935483870973 4.0779201750342589 3.049778821974634 2.9682171717171721 3.049778821974634 491.50000000000006 0.36426504680064847 0.31144704747858648 0.34502429423703801 4.3339818417639435 2.1529655591484196 2.6105861164228226 185.50000000000003 295.50000000000006 0.24027559741845458 2.2722662732804726 2.3928571428571432 0.24587600833862053 0.38924963924963935 2.3928571428571432
decision_type=2 2 2 2 2 2 2 2 2 2 2 2 2 2 2 2 2 2 2 2 2 2 2 2 2 2 2 2 2 2
left_child=1 4 7 9 12 6 15 13 16 10 -3 19 25 29 21 28 -5 -10 -12 23 -14 -6 -8 -7 -11 -1 -9 -22 -4 -2
right_child=2 3 5 8 14 11 22 26 17 24 18 -13 20 -15 -16 -17 -18 -19 -20 -21 27 -23 -24 -25 -26 -27 -28 -29 -30 -31
leaf_value=-0.051775709617043697 -0.030370476203198507 -0.03086462436949626 0.0059504698472757286 -0.0018729772291032299 -0.034662532363913791 0.01163418646651064 0.010202359579110767 -0.024260569330017436 0.010345980078063373 0.0086397523954490265 -0.011331486215209076 0.022557430527404294 -0.043212746582044076 -0.0024090299871993713 -0.012952631707680812 0.011289507436918242 -0.0097425497843911264 0.001298803564351937 -0.021430268653249127 0.023990066397686569 -0.017294559405358598 -0.020793262125436845 0.016756164333110914 0.018704800192443728 -0.0089078997036597437 -0.037310983884595444 0.0073343283563870806 -0.029661781207212592 0.00044728097998319224 -0.010942224320983143
leaf_weight=4053 1736 9593 46458 42298 4332 49183 27032 661 19216 3648 22480 41385 2790 56311 33779 22919 28352 25899 13737 8601 6279 21063 37779 18670 5227 14347 28992 11435 35163 18648
leaf_count=4053 1736 9593 46458 42298 4332 49183 27032 661 19216 3648 22480 41385 2790 56311 33779 22919 28352 25899 13737 8601 6279 21063 37779 18670 5227 14347 28992 11435 35163 18648
internal_value=0 -0.0123726 0.00844953 -0.00576853 -0.0238498 0.0122603 0.00861961 -0.00184139 -0.00106248 -0.015731 -0.0184502 0.0174925 -0.0337622 -0.00511674 -0.0173328 0.00526993 -0.00503105 0.0051523 -0.0151619 0.0147508 -0.0277184 -0.0231591 0.0140226 0.0135797 -0.00169507 -0.0404972 0.00663004 -0.025278 0.00357965 -0.0125968
internal_weight=0 268528 393538 170450 98078 287190 169351 106348 115765 54685 45810 117839 38904 76695 59174 104540 70650 45115 36217 76454 20504 25395 64811 67853 8875 18400 29653 17714 81621 20384
internal_count=662066 268528 393538 170450 98078 287190 169351 106348 115765 54685 45810 117839 38904 76695 59174 104540 70650 45115 36217 76454 20504 25395 64811 67853 8875 18400 29653 17714 81621 20384
is_linear=0
shrinkage=0.05


Tree=17
num_leaves=31
num_cat=0
split_feature=23 2 2 23 23 23 2 23 2 2 2 2 2 23 13 23 11 23 13 2 2 13 23 3 11 2 13 13 11 13
split_gain=25061.2 8141.58 4871.32 2959.5 2427.87 1657.43 1125.24 1080.4 843.455 808.087 802.002 674.526 593.753 527.532 462.327 442.631 408.991 403.812 348.279 323.836 290.799 290.179 269.829 262.094 260.151 244.739 239.224 233.18 226.271 217.125
threshold=3.2689341506822234 3.588930659983292 3.5017438299405517 3.7691153846153851 3.786374570446736 2.7028619528619533 3.2148351648351654 2.6761946018972664 3.049778821974634 4.037915543575922 3.0242761629554087 4.0166945373467122 4.0166945373467122 4.1016152229228906 0.008789277506324961 4.2126821633825955 0.34502429423703801 2.0656821845074433 0.012678320273256985 2.809315319823201 2.3928571428571432 0.017655051150895145 2.1529655591484196 243.50000000000003 0.31393876950250227 4.0166945373467122 0.030059053212430218 0.026116341851968445 0.30388172043010758 0.010671411625148281
decision_type=2 2 2 2 2 2 2 2 2 2 2 2 2 2 2 2 2 2 2 2 2 2 2 2 2 2 2 2 2 2
left_child=2 3 5 6 11 17 18 14 -7 15 20 21 16 26 25 23 -9 -1 -2 -19 -5 -3 -16 -6 -8 -4 -12 -13 -10 -21
right_child=1 4 7 10 9 8 24 12 28 -11 13 27 -14 -15 22 -17 -18 19 -20 29 -22 -23 -24 -25 -26 -27 -28 -29 -30 -31
leaf_value=-0.047362625275925135 -0.010138629162032091 0.0058499640058871632 -0.013357538363450184 -0.025168767374570206 0.0084973612021489835 -0.028399576061777617 0.00046106608774991925 -0.0029464980492222154 -0.011605590102558332 0.02083101089782894 0.004675596240133916 0.014609125199135757 0.0052911598641522993 0.011430862007479559 -0.039065782924579392 0.018262993692577376 -0.012157064071031716 -0.044561011088869583 -0.019550156363284697 -0.024719502133674184 -0.0027441129033929641 -0.00021443677037754486 -0.020315537054183153 0.0142688361271098 -0.006022149672313782 0.0065550716201374344 -0.0048135834991543617 0.0048124486220241956 -0.01931040209230649 -0.035120891662338588
leaf_weight=5015 23263 54643 7681 1553 43156 19240 25475 27585 18571 48647 49339 24150 12364 31862 2403 29945 21405 4132 17023 11611 20927 30869 9521 36147 39412 1931 7675 8115 19571 8835
leaf_count=5015 23263 54643 7681 1553 43156 19240 25475 27585 18571 48647 49339 24150 12364 31862 2403 29945 21405 4132 17023 11611 20927 30869 9521 36147 39412 1931 7675 8115 19571 8835
internal_value=0 0.00571886 -0.0165552 -0.00153704 0.0114181 -0.0248212 -0.00755191 -0.00788179 -0.0198644 0.0154707 0.00414384 0.00598507 -0.00449981 0.00627791 -0.0175167 0.0130837 -0.00697083 -0.0344325 -0.0141155 -0.0317942 -0.00429329 0.00366077 -0.0240942 0.011128 -0.0034768 -0.0093572 0.0033982 0.0121452 -0.015559 -0.0292141
internal_weight=0 492201 169865 216529 275672 86975 105173 82890 57382 157895 111356 117777 61354 88876 21536 109248 48990 29593 40286 24578 22480 85512 11924 79303 64887 9612 57014 32265 38142 20446
internal_count=662066 492201 169865 216529 275672 86975 105173 82890 57382 157895 111356 117777 61354 88876 21536 109248 48990 29593 40286 24578 22480 85512 11924 79303 64887 9612 57014 32265 38142 20446
is_linear=0
shrinkage=0.05


Tree=18
num_leaves=31
num_cat=0
split_feature=23 2 2 23 2 23 23 23 2 2 23 2 11 2 23 3 23 13 11 2 23 2 2 11 13 2 13 13 3 11
split_gain=22745.5 6317.14 5463.98 2969.64 1900.56 1513.03 1084.12 1058.9 870.25 842.057 633.39 584.972 558.188 530.692 408.167 406.833 406.137 373.137 304.622 282.348 277.068 269.273 261.8 252.038 251.251 250.636 249.242 247.39 243.587 212.314
threshold=3.4908349851889802 3.5584383831327604 3.4096728971962622 2.9957447424411288 3.8606682083739048 2.9160094779871941 4.0007022471910121 4.0067802359326139 3.120606060606061 3.120606060606061 4.060891522376763 4.0453939393939402 0.24027559741845458 2.8558979728041352 2.1529655591484196 491.50000000000006 2.2169908940397356 0.017399714069464303 0.25971809957163938 4.3339818417639435 2.2722662732804726 2.6401148625130531 2.6105861164228226 0.30388172043010758 0.02571733821733822 4.0636609253630533 0.035200941720705474 0.017259998510463993 185.50000000000003 0.42654982024850535
decision_type=2 2 2 2 2 2 2 2 2 2 2 2 2 2 2 2 2 2 2 2 2 2 2 2 2 2 2 2 2 2
left_child=1 3 6 8 7 12 13 15 20 22 19 17 25 -2 -14 29 -10 -7 -18 26 -1 -8 -5 -11 -15 -3 -6 -16 -9 -4
right_child=2 5 4 9 10 11 21 28 16 23 -12 -13 14 24 27 -17 18 -19 -20 -21 -22 -23 -24 -25 -26 -27 -28 -29 -30 -31
leaf_value=-0.045983053265877455 -0.014578457928548092 -0.0070560595358772201 0.0045139724332567549 -0.032030975705301702 0.013090607399796532 0.00072829236524374352 -0.010910238408495429 0.0088707588420493567 -0.0359460696942571 -0.0051818323799120176 0.020042251018957371 0.0084795685981273652 -0.034937443544040186 -0.0024313681894614033 -0.010578756159417488 0.010053680885935964 -0.013743496642130114 -0.0072766700262749204 -0.024397118899374522 0.021472321688860138 -0.032503512066495391 0.0060494094276879566 -0.018016222346190318 -0.012176279438169117 -0.012251093673058528 0.011283095892887033 0.0053054010463268256 -0.022545297900784109 0.015193395941529481 -0.00083765170984266123
leaf_weight=4823 13474 6998 55530 3895 58272 45607 2512 26079 4946 22577 47562 17329 2668 53872 14457 24529 10685 21383 18035 8286 18190 34270 23064 29985 7410 2539 12483 6159 36630 27817
leaf_count=4823 13474 6998 55530 3895 58272 45607 2512 26079 4946 22577 47562 17329 2668 53872 14457 24529 10685 21383 18035 8286 18190 34270 23064 29985 7410 2539 12483 6159 36630 27817
internal_value=0 -0.0117676 0.00730016 -0.0190899 0.0108418 -0.00325403 -0.00213637 0.00739714 -0.0278349 -0.0128568 0.0154831 0.000291282 -0.0123621 -0.00559411 -0.0165352 0.00439362 -0.0227125 -0.00182687 -0.0204335 0.0127398 -0.0353285 0.00489116 -0.0200411 -0.00917195 -0.00361873 -0.00217369 0.0117171 -0.0141537 0.012564 0.00272787
internal_weight=0 253340 408726 136200 297188 117140 111538 170585 56679 79521 126603 84319 32821 74756 23284 107876 33666 66990 28720 79041 23013 36782 26959 52562 61282 9537 70755 20616 62709 83347
internal_count=662066 253340 408726 136200 297188 117140 111538 170585 56679 79521 126603 84319 32821 74756 23284 107876 33666 66990 28720 79041 23013 36782 26959 52562 61282 9537 70755 20616 62709 83347
is_linear=0
shrinkage=0.05


Tree=19
num_leaves=31
num_cat=0
split_feature=23 23 23 23 13 23 23 13 23 23 23 11 13 23 13 11 4 11 13 3 5 10 14 24 14 13 19 13 3 23
split_gain=20602.8 5731.56 2479.33 1249.51 606.361 556.587 526.222 511.201 359.949 323.561 305.931 183.14 182.205 178.648 166.603 151.366 135.937 135.033 127.383 155.243 118.582 116.824 108.907 104.397 102.893 99.4326 109.003 99.3018 92.527 92.3694
threshold=3.5733421866615216 2.9957447424411288 4.0636840612592176 2.3254701235117397 0.014394244604316549 4.3749844293149289 3.7416241125918548 0.0083217913204062816 3.2473404527629603 1.9698620188816272 3.2034201168233616 0.34502429423703801 0.0080710302777633035 2.7028619528619533 0.026116341851968445 0.39334927415696358 0.22608715215630595 0.21560175794455716 0.014725595331966568 899.50000000000011 0.13644120384734723 0.0094210013442724196 0.13834134615384619 1168.5000000000002 0.12520903010033449 0.02918298983705218 0.23988304093567253 0.0068704920509044228 899.50000000000011 4.2949878176122533
decision_type=2 2 2 2 2 2 2 2 2 2 2 2 2 2 2 2 2 2 2 2 2 2 2 2 2 2 2 2 2 2
left_child=1 3 6 9 8 16 14 11 17 27 21 22 -11 25 -2 -10 23 -3 19 -8 24 -6 -5 -4 -12 26 -9 -1 -24 -18
right_child=2 4 5 7 10 -7 18 13 15 12 20 -13 -14 -15 -16 -17 29 -19 -20 -21 -22 -23 28 -25 -26 -27 -28 -29 -30 -31
leaf_value=-0.034000081811899625 0.0026222199475919648 -0.001206977946898353 0.011806006808952128 -0.012282936461255334 -0.011414440122665327 0.020511279287801786 0.007370296010883683 -0.025490334449372792 0.00058961464824876079 -0.020881493349665298 -0.0094217156408119025 -0.019288501223618415 -0.0324827193855136 -0.017996852656233488 -0.0031206945169665826 -0.0045136174008912873 0.012629366466865577 -0.0080426985605074833 0.005024063324697195 0.017970878352062049 -0.0036403145025195646 -0.019825706348192196 -0.0056571267704105775 0.0073685806949757423 -0.0010208622471121673 -0.034083974706078539 -0.016038533438262146 -0.047551615730914196 0.030555374490527004 0.017926634032326968
leaf_weight=2383 68483 9273 35266 19639 13670 22278 77432 12026 55324 6080 31141 7700 7634 24719 15484 19706 40903 32704 79262 3615 20282 5914 5730 21236 4128 2359 4087 3124 182 10302
leaf_count=2383 68483 9273 35266 19639 13670 22278 77432 12026 55324 6080 31141 7700 7634 24719 15484 19706 40903 32704 79262 3615 20282 5914 5730 21236 4128 2359 4087 3124 182 10302
internal_value=0 -0.0100546 0.00773838 -0.0200545 -0.00507583 0.0133172 0.00476975 -0.017189 -0.00282501 -0.0314503 -0.008581 -0.012529 -0.0273394 -0.0207767 0.00156319 -0.000750706 0.0118292 -0.00653264 0.00644929 0.00784312 -0.00668662 -0.0139545 -0.0104919 0.0101382 -0.00843845 -0.0244966 -0.0230929 -0.0416876 -0.00454233 0.0136951
internal_weight=0 287805 374261 95663 192142 129985 244276 76442 117007 19221 75135 33251 13714 43191 83967 75030 107707 41977 160309 81047 55551 19584 25551 56502 35269 18472 16113 5507 5912 51205
internal_count=662066 287805 374261 95663 192142 129985 244276 76442 117007 19221 75135 33251 13714 43191 83967 75030 107707 41977 160309 81047 55551 19584 25551 56502 35269 18472 16113 5507 5912 51205
is_linear=0
shrinkage=0.05


Tree=20
num_leaves=31
num_cat=0
split_feature=23 2 2 23 2 23 23 2 2 2 23 11 23 13 2 3 23 2 23 2 3 11 23 2 11 11 11 11 23 11
split_gain=18528.4 6429.09 4422.54 2480.73 1686.09 1640.29 906.746 774.022 613.305 599.496 581.586 563.719 511.816 423.394 410.424 403.413 401.786 377.275 319.255 304.432 272.603 268.555 255.189 255.063 250.253 233.297 223.609 214.085 197.264 194.023
threshold=3.5599816849816852 3.49903138123695 3.7767423717059647 2.980483625285606 3.2221013178575753 3.0585379782981157 4.0746050486310237 3.101893842160806 4.0954913880445805 3.049778821974634 4.1866703539823016 0.31144704747858648 4.0673911280512538 0.022191443521083414 4.2356245869134179 406.50000000000006 2.4201456990753716 4.1642101343593891 2.2722662732804726 2.3928571428571432 292.50000000000006 0.32006097560975616 2.0656821845074433 2.2378214050252736 0.40165043290043295 0.39545753115595655 0.24716189007411218 0.30792263978651918 2.2722662732804726 0.36716012300650797
decision_type=2 2 2 2 2 2 2 2 2 2 2 2 2 2 2 2 2 2 2 2 2 2 2 2 2 2 2 2 2 2
left_child=1 3 4 9 12 11 15 23 13 28 17 14 19 24 22 -6 -13 20 -11 -2 -4 -9 -3 -5 -7 -8 -20 -25 -1 -21
right_child=2 5 10 7 6 8 25 21 -10 18 -12 16 -14 -15 -16 -17 -18 -19 26 29 -22 -23 -24 27 -26 -27 -28 -29 -30 -31
leaf_value=-0.043329953406534123 -0.029095562760649941 -0.024639532895686413 0.0085913940921044703 -0.04455928402909462 0.00078634484707939168 0.0035281002402746744 0.013501475180813028 -0.0049875124706701395 0.010915978513606026 -0.032799742758683213 0.019437690000836484 -0.028611428526779489 0.0028548994760158423 -0.0072633570299120466 0.019206148857302277 0.0070282687684894698 -0.012129529107882221 0.01727208472233643 -0.013030925209612285 -0.0041930113731492085 0.014479853089610745 -0.012113049649247238 -0.0047653342978267108 -0.014312047005705267 -0.0032256194040136688 0.0067913672466649692 -0.023064072091079038 -0.022844519800999143 -0.030851622253951518 -0.011583253941078626
leaf_weight=4029 1582 1742 59381 923 78530 45669 31132 25128 14143 5791 35442 4482 16431 17474 1701 38613 21128 27190 8253 25911 29379 27911 22187 17596 19604 22184 16977 12627 14807 13513
leaf_count=4029 1582 1742 59381 923 78530 45669 31132 25128 14143 5791 35442 4482 16431 17474 1701 38613 21128 27190 8253 25911 29379 27911 22187 17596 19604 22184 16977 12627 14807 13513
internal_value=0 -0.00971185 0.00720808 -0.0176458 0.00280756 -0.00253247 0.00530404 -0.0124112 0.00129378 -0.0264846 0.0138324 -0.00976756 -0.00460139 -0.00035083 -0.0045252 0.00284383 -0.015014 0.012119 -0.0222123 -0.0075891 0.0105404 -0.00873722 -0.00621215 -0.0186676 0.0014997 0.0107095 -0.0197821 -0.0178769 -0.0335207 -0.0067261
internal_weight=0 282172 379288 134042 227896 148130 170459 84185 96890 49857 151392 51240 57437 82747 25630 117143 25610 115950 31021 41006 88760 53039 23929 31146 65273 53316 25230 30223 18836 39424
internal_count=661460 282172 379288 134042 227896 148130 170459 84185 96890 49857 151392 51240 57437 82747 25630 117143 25610 115950 31021 41006 88760 53039 23929 31146 65273 53316 25230 30223 18836 39424
is_linear=0
shrinkage=0.05


Tree=21
num_leaves=31
num_cat=0
split_feature=23 2 2 23 23 23 2 2 2 2 23 2 3 2 2 11 11 2 23 23 2 23 13 3 20 20 2 13 23 11
split_gain=16788.5 5693.98 4162.13 2175.74 1828.15 1097.98 1049.96 1010.56 690.568 559.884 530.319 431.529 350.38 332.097 321.696 308.216 301.903 301.807 290.597 282.091 278.707 278.376 275.953 259.946 256.236 236.671 229.601 221.713 217.151 200.415
threshold=3.3495283018867927 3.6967994552264218 3.682733255903988 3.8084792070842117 2.6397852760736202 3.7961667961667964 3.2079755351681962 3.120606060606061 3.2221013178575753 4.2567126182813793 2.7329457364341088 4.1642101343593891 185.50000000000003 3.0554275473630317 4.1001432664756452 0.34381175889328069 0.2037935994246674 2.3928571428571432 4.3226619153489727 4.174381376701179 2.6741322231139653 4.238281216377894 0.017259998510463993 295.50000000000006 0.070222854433380763 0.069481580510992291 2.2378214050252736 0.022191443521083414 1.9698620188816272 0.24716189007411218
decision_type=2 2 2 2 2 2 2 2 2 2 2 2 2 2 2 2 2 2 2 2 2 2 2 2 2 2 2 2 2 2
left_child=2 3 4 6 13 14 20 26 17 10 16 18 -10 -1 25 -9 -4 27 23 -14 -2 -19 -12 -7 -8 -3 -6 -5 -15 -30
right_child=1 5 9 8 7 11 24 15 12 -11 22 -13 19 28 -16 -17 -18 21 -20 -21 -22 -23 -24 -25 -26 -27 -28 -29 29 -31
leaf_value=-0.03572574153485477 -0.021576201379480395 0.0075326363934627265 0.0020586992164047329 -0.008357259220319933 -0.047337887734513778 0.0095186791416504019 0.00016143543328023588 -0.0080278122687846409 0.0026588541321440735 0.014703414781337257 0.0016192061092608449 0.019356153703309339 0.0070530296979451545 -0.038152588364720935 0.012222395138548961 -0.014958368508297204 -0.015361432145813642 -0.0027512555010511678 0.01944735640603085 0.014770060296093016 -0.0097604389276400791 0.0082714911743155609 -0.006743194213857555 0.015284224916249912 -0.0056915975034952417 0.0015718722940943866 -0.021383577634739536 -0.049628636421205234 -0.015778364912128525 -0.026691094038288579
leaf_weight=10188 5886 39724 3144 843 879 60881 60039 38185 30968 4502 32412 28221 41795 2631 20148 27664 11905 26583 12714 16524 32812 7301 14182 28797 27157 28672 27853 530 6547 11773
leaf_count=10188 5886 39724 3144 843 879 60881 60039 38185 30968 4502 32412 28221 41795 2631 20148 27664 11905 26583 12714 16524 32812 7301 14182 28797 27157 28672 27853 530 6547 11773
internal_value=0 0.00508237 -0.0124713 -6.80604e-05 -0.017813 0.0109679 -0.00470341 -0.0143534 0.00461754 -0.00231855 -0.00356173 0.0138819 0.00695713 -0.028321 0.00666959 -0.0109394 -0.0117221 -0.00130739 0.012373 0.00923956 -0.0115576 -0.00037618 -0.000926091 0.0113701 -0.00166148 0.00503385 -0.0221776 -0.0242887 -0.0247203 -0.0227912
internal_weight=0 469595 191865 250438 125720 219157 125894 94581 124544 66145 61643 130613 89287 31139 88544 65849 15049 35257 102392 58319 38698 33884 46594 89678 87196 68396 28732 1373 20951 18320
internal_count=661460 469595 191865 250438 125720 219157 125894 94581 124544 66145 61643 130613 89287 31139 88544 65849 15049 35257 102392 58319 38698 33884 46594 89678 87196 68396 28732 1373 20951 18320
is_linear=0
shrinkage=0.05


Tree=22
num_leaves=31
num_cat=0
split_feature=23 2 2 23 23 2 23 2 2 2 11 23 23 2 23 2 20 23 2 11 23 13 11 13 11 2 13 13 11 13
split_gain=15246 5552.33 3426.44 2205.46 1454.37 1249.77 678.805 624.435 602.782 553.677 496.593 443.94 398.483 391.787 392.547 366.206 301.778 290.845 288.113 287.036 256.214 241.4 240.397 239.963 207.323 205.38 196.618 194.947 187.193 179.933
threshold=3.5989963393051956 3.49903138123695 3.7767423717059647 3.0342128365197039 3.0585379782981157 3.2221013178575753 4.1063893959838085 3.0665192436755966 2.8129431450613831 3.7730113091815225 0.34502429423703801 4.1866703539823016 2.2722662732804726 2.3928571428571432 4.0878948225333778 4.0636609253630533 0.0704535583545325 2.5141096979332276 4.1642101343593891 0.31144704747858648 2.0656821845074433 0.010671411625148281 0.32006097560975616 0.021937916098500047 0.44996318114874823 2.2378214050252736 0.022191443521083414 0.013722167302170128 0.37528280542986431 0.0087032267838206348
decision_type=2 2 2 2 2 2 2 2 2 2 2 2 2 2 2 2 2 2 2 2 2 2 2 2 2 2 2 2 2 2
left_child=1 3 5 8 10 13 16 25 -1 23 15 18 -10 26 27 20 -7 -12 24 -11 -3 -14 -9 -6 -4 -5 -2 -15 -18 -22
right_child=2 4 11 7 9 6 -8 22 12 19 17 -13 21 14 -16 -17 28 -19 -20 -21 29 -23 -24 -25 -26 -27 -28 -29 -30 -31
leaf_value=-0.034463326402496025 -0.013481628631971188 -0.024969312723982305 0.011412581261509477 -0.039907530295974381 -0.00076695592281921128 0.0049917487670128021 0.010362069638922668 -0.0040888494354653516 -0.031204397457208218 0.0089719336647560814 -0.027003078776022368 0.017675482398424053 -0.015216660344751632 -0.0021226668431631019 0.0044617480633407343 0.0072788092056684326 0.00316235376300245 -0.012008484379559767 0.015842862956210166 0.0018078745324581966 -0.0018881730271179396 -0.023280673094450061 -0.010612987105583473 -0.0094200749238783008 0.0059538978510657514 -0.015816475420945265 -0.045299282854050403 -0.0092576927249807383 -0.0034995133635187048 -0.010400296081903739
leaf_weight=10026 1377 1919 59744 914 38248 76146 44389 26895 7798 23193 4102 35442 20971 20893 13697 5078 20416 15282 26013 35204 12829 16648 29725 10135 24539 27578 750 17670 21809 12030
leaf_count=10026 1377 1919 59744 914 38248 76146 44389 26895 7798 23193 4102 35442 20971 20893 13697 5078 20416 15282 26013 35204 12829 16648 29725 10135 24539 27578 750 17670 21809 12030
internal_value=0 -0.00837746 0.00687672 -0.0156071 -0.00194691 0.00289641 0.00508912 -0.010552 -0.0233672 0.00137595 -0.00887146 0.0128073 -0.0209177 -0.00366555 -0.00280941 -0.00503181 0.00311177 -0.0151816 0.011243 0.00465316 -0.00736631 -0.0187853 -0.00751396 -0.00257956 0.00982329 -0.0165893 -0.0247008 -0.00539202 -0.000278467 -0.00600744
internal_weight=0 298575 362885 140555 158020 217147 162760 85112 55443 106780 51240 145738 45417 54387 52260 31856 118371 19384 110296 58397 26778 37619 56620 48383 84283 28492 2127 38563 42225 24859
internal_count=661460 298575 362885 140555 158020 217147 162760 85112 55443 106780 51240 145738 45417 54387 52260 31856 118371 19384 110296 58397 26778 37619 56620 48383 84283 28492 2127 38563 42225 24859
is_linear=0
shrinkage=0.05


Tree=23
num_leaves=31
num_cat=0
split_feature=2 2 24 2 24 2 24 2 2 2 2 11 24 24 13 4 3 3 2 3 3 24 11 20 3 20 3 20 24 2
split_gain=10825.4 2967.49 1822.78 1439.24 973.063 739.083 519.217 441.49 405.681 319.991 316.152 283.854 275.022 223.91 199.655 175.793 174.031 168.076 161.308 151.764 145.762 140.79 139.779 139.544 139.32 128.142 109.571 107.272 105.28 100.223
threshold=3.419046278321948 3.8890120719389016 551.50000000000011 2.809315319823201 1036.0000000000002 4.286836200448767 1443.5000000000002 3.682733255903988 3.24394506866417 3.101893842160806 2.5507507507507512 0.41696642685851326 465.50000000000006 805.50000000000011 0.012678320273256985 0.19684816125494095 681.50000000000011 425.50000000000006 4.5345238095238107 358.50000000000006 601.50000000000011 164.50000000000003 0.43932313792126881 0.064904241328291964 411.50000000000006 0.066597366597366606 230.50000000000003 0.060883500557413608 1835.0000000000002 2.2378214050252736
decision_type=2 2 2 2 2 2 2 2 2 2 2 2 2 2 2 2 2 2 2 2 2 2 2 2 2 2 2 2 2 2
left_child=2 4 3 10 7 13 9 12 21 14 29 24 23 25 20 -8 -14 27 -7 -9 -4 -5 -15 -2 28 -3 -17 -11 -6 -1
right_child=1 5 6 8 11 18 15 19 -10 17 -12 -13 16 22 -16 26 -18 -19 -20 -21 -22 -23 -24 -25 -26 -27 -28 -29 -30 -31
leaf_value=-0.043856153955025845 -0.0026589291746490018 0.0087777830020695745 -0.0084874657051283425 -0.017049333126466216 0.0061116224495247435 0.01602358366770092 -0.0037148116058532397 0.00073296093769380005 -0.007094016364624413 -0.0023272643128628289 -0.02065283706509774 0.0018445544599008407 -0.00050293575116998009 0.012888571196499665 -0.013848307640170775 0.0020939102069188575 0.008740994102969633 0.001073043421916491 0.027134559889472162 0.0046441437003185947 0.0017734296378062266 -0.011763300074441905 0.0071418678057322358 -0.0074840829778265372 0.01525471060797094 0.004912276106409718 0.012521346089754141 -0.0082679977508619447 0.012330904165326433 -0.030207212050722465
leaf_weight=1805 42861 43861 13657 18242 22786 21842 4332 63026 44977 16317 13567 17624 47286 34200 13828 4255 5706 17312 3841 40896 4636 40703 15322 23038 8222 41941 6176 14222 9702 5277
leaf_count=1805 42861 43861 13657 18242 22786 21842 4332 63026 44977 16317 13567 17624 47286 34200 13828 4255 5706 17312 3841 40896 4636 40703 15322 23038 8222 41941 6176 14222 9702 5277
internal_value=0 0.00449643 -0.0090908 -0.013066 0.00139664 0.00990923 -0.00386364 -0.000108458 -0.0106703 -0.00545405 -0.0251228 0.00714552 -0.0021893 0.00843343 -0.00931435 0.00475167 0.000492419 -0.00286274 0.0176853 0.00227211 -0.00588704 -0.0133992 0.0111106 -0.00434578 0.00944039 0.00688828 0.0082678 -0.00509386 0.00796891 -0.0336859
internal_weight=0 442154 219306 124571 281147 161007 94735 222813 103922 79972 20649 58334 118891 135324 32121 14763 52992 47851 25683 103922 18293 58945 49522 65899 40710 85802 10431 30539 32488 7082
internal_count=661460 442154 219306 124571 281147 161007 94735 222813 103922 79972 20649 58334 118891 135324 32121 14763 52992 47851 25683 103922 18293 58945 49522 65899 40710 85802 10431 30539 32488 7082
is_linear=0
shrinkage=0.05


Tree=24
num_leaves=31
num_cat=0
split_feature=23 2 2 23 23 23 2 23 2 2 2 23 11 2 3 13 13 2 23 13 11 13 11 2 13 23 11 3 2 23
split_gain=13373.4 4568.28 2730.18 1594.56 1414 1036.28 539.884 536.019 530.666 523.641 461.877 441.327 403.905 346.6 338.563 306.853 265.835 248.14 239.385 233.134 223.652 209.458 207.618 188.882 190.829 186.949 185.891 162.307 160.148 156.506
threshold=3.2689341506822234 3.49458357600466 3.5584383831327604 3.8156055332017957 3.7691153846153851 2.6397852760736202 4.0017182130584201 2.5415339702760087 3.120606060606061 3.9820980704452258 2.9231771435976714 4.238281216377894 0.31144704747858648 2.9682171717171721 241.50000000000003 0.01880709839113914 0.0070817356416712817 4.248853211009175 1.9698620188816272 0.008789277506324961 0.38924963924963935 0.023134767715692572 0.376494403429388 2.809315319823201 0.0081411276069282452 4.3382516881131368 0.39067673841059608 243.50000000000003 2.6105861164228226 4.2126821633825955
decision_type=2 2 2 2 2 2 2 2 2 2 2 2 2 2 2 2 2 2 2 2 2 2 2 2 2 2 2 2 2 2
left_child=2 4 5 9 10 18 14 19 28 15 -2 13 17 -6 25 27 -10 -9 -1 -4 -12 -14 -11 -20 -25 -5 -15 -3 -7 -16
right_child=1 3 7 6 11 8 -8 12 16 22 20 -13 21 26 29 -17 -18 -19 23 -21 -22 -23 -24 24 -26 -27 -28 -29 -30 -31
leaf_value=-0.037835092344924826 -0.014272541019024207 0.0013351110436506837 -0.0067387049603509722 0.0055892220716935058 -0.0065398742522577054 -0.029727273669014589 0.01523331699479704 0.0001566125149818338 -0.0062170493144407465 0.012400687363949385 -0.003240799687082567 0.0091914191298008326 -0.0046872207702091462 0.004244696458999957 0.010482586449182978 -0.0018279172822084589 -0.014237557140994625 0.019011286984392028 -0.034356079343977892 -0.020706392142653532 -0.009487989023126614 -0.014379294449225323 0.0051020927291846336 -0.016785435794034933 -0.026630200049079844 0.013603625446068949 -0.0017410526068686949 0.0060268498082980768 -0.018531265668885636 0.016668243588958961
leaf_weight=3665 17003 33370 5355 54655 14528 3760 52862 26108 17107 20283 48832 17605 26807 36496 40412 33606 26083 1870 3773 6757 20275 7038 18752 9030 10821 8394 20122 41183 21218 13690
leaf_count=3665 17003 33370 5355 54655 14528 3760 52862 26108 17107 20283 48832 17605 26807 36496 40412 33606 26083 1870 3773 6757 20275 7038 18752 9030 10821 8394 20122 41183 21218 13690
internal_value=0 0.00416335 -0.0121253 0.00774027 -0.00232536 -0.0177118 0.0110388 -0.00491257 -0.0144156 0.00393036 -0.00689002 0.00210346 -0.00302819 0.000349558 0.00914613 0.00213877 -0.0110607 0.00141683 -0.0259456 -0.0145309 -0.00507364 -0.00670267 0.00889452 -0.0241011 -0.0221519 0.00665622 0.00211737 0.00392682 -0.0202166 0.0120478
internal_weight=0 492068 169392 317207 174861 95457 170013 73935 68168 147194 86110 88751 61823 71146 117151 108159 43190 27978 27289 12112 69107 33845 39035 23624 19851 63049 56618 74553 24978 54102
internal_count=661460 492068 169392 317207 174861 95457 170013 73935 68168 147194 86110 88751 61823 71146 117151 108159 43190 27978 27289 12112 69107 33845 39035 23624 19851 63049 56618 74553 24978 54102
is_linear=0
shrinkage=0.05


Tree=25
num_leaves=31
num_cat=0
split_feature=23 23 23 23 13 23 13 23 23 11 11 14 23 23 13 13 13 7 13 14 3 10 11 11 11 10 24 19 20 11
split_gain=12021.4 3575.95 1421.27 927.742 522.882 371.846 371.077 335.2 257.626 238.592 223.4 147.688 146.662 143.613 130.927 127.896 127.134 122.682 100.603 99.6615 90.4723 88.0498 86.5374 84.6563 82.9129 81.8307 86.2009 80.1177 76.7664 74.9267
threshold=3.5989963393051956 3.0431731744421913 4.1016152229228906 2.4201456990753716 0.017555713608345191 3.7809938040485669 0.0083217913204062816 4.382621656183038 1.8139231056364318 0.46612628266072192 0.24406104610179052 0.13834134615384619 3.2034201168233616 3.3241393578285341 0.026572208623611374 0.017555713608345191 0.014559573776515315 0.10118485071231055 0.017399714069464303 0.12258706698890749 1177.5000000000002 0.0041580221300138321 0.47743708228905607 0.15708382526564349 0.21560175794455716 0.0094210013442724196 799.00000000000011 0.12840937267542776 0.037476591760299632 0.24027559741845458
decision_type=2 2 2 2 2 2 2 2 2 2 2 2 2 2 2 2 2 2 2 2 2 2 2 2 2 2 2 2 2 2
left_child=1 3 5 8 9 16 11 22 -1 13 28 17 -6 24 27 20 -2 23 -12 -17 21 -8 -4 -5 -3 -18 -27 -7 -10 -15
right_child=2 4 7 6 12 14 15 -9 10 -11 18 -13 -14 29 -16 19 25 -19 -20 -21 -22 -23 -24 -25 -26 26 -28 -29 -30 -31
leaf_value=-0.037573191262662009 0.0032675504007253966 0.00090584946784118292 0.010419684613177197 0.00068745541163372766 -0.012521338720070769 0.0042780109060118129 -0.010838244047859312 0.016730996693658916 -0.0085378602678351893 -0.0071707242907602014 -0.022818872767693284 -0.0015004733913865434 -0.0061420522400216825 0.0031580951320968617 0.0029830326313552698 -0.019950584471609373 0.0013346538414479899 -0.0055995595464670778 -0.032631593611211367 -0.01064151969406241 0.0022590722137502141 -0.016590961398008603 0.0066225721406545021 -0.013267381661916877 -0.0040211424586027045 -0.00046339566540995827 -0.0080015487418596942 0.0071626785830817543 -0.018674436104644296 -0.00046929413942544589
leaf_weight=2803 54396 10958 67525 1161 11234 33218 14383 20172 3060 17308 10463 6429 45506 20170 37424 15834 27350 10565 3481 3513 943 12374 19292 17005 38678 10793 5847 87403 4794 48389
leaf_count=2803 54396 10958 67525 1161 11234 33218 14383 20172 3060 17308 10463 6429 45506 20170 37424 15834 27350 10565 3481 3513 943 12374 19292 17005 38678 10793 5847 87403 4794 48389
internal_value=0 -0.00745076 0.00608412 -0.014786 -0.00337536 0.00406441 -0.0122368 0.010925 -0.0233045 -0.00168796 -0.0214697 -0.00835096 -0.00740509 -0.000885091 0.00556667 -0.0151409 0.00165123 -0.00988385 -0.0252685 -0.0182603 -0.0129622 -0.0134986 0.00957591 -0.0123755 -0.00293342 -0.000347436 -0.00311217 0.00636827 -0.0147251 0.000597881
internal_weight=0 299051 363420 106808 192243 256431 82207 106989 24601 135503 21798 35160 56740 118195 158045 47047 98386 28731 13944 19347 27700 26757 86817 18166 49636 43990 16640 120621 7854 68559
internal_count=662471 299051 363420 106808 192243 256431 82207 106989 24601 135503 21798 35160 56740 118195 158045 47047 98386 28731 13944 19347 27700 26757 86817 18166 49636 43990 16640 120621 7854 68559
is_linear=0
shrinkage=0.05


Tree=26
num_leaves=31
num_cat=0
split_feature=2 2 2 2 24 24 24 2 2 11 20 24 13 3 2 24 11 11 3 24 2 24 3 19 24 24 3 3 13 10
split_gain=8611.66 2470.76 1468.09 792.761 673.284 599.179 576.389 419.117 273.208 261.604 252.862 246.024 216.132 215.528 194.528 146.405 144.244 142.576 140.831 139.337 134.489 133.503 133.132 126.978 121.315 109.165 119.01 108.645 105.332 94.7371
threshold=3.4096728971962622 3.8097619047619049 2.9445815773630346 4.2356245869134179 1036.0000000000002 819.50000000000011 551.50000000000011 2.5507507507507512 3.2221013178575753 0.35071734548174344 0.063619283658458606 838.00000000000011 0.016844474709643252 491.50000000000006 4.5345238095238107 1443.5000000000002 0.37528280542986431 0.44849690539345716 334.50000000000006 322.50000000000006 3.6781715306730201 334.50000000000006 718.00000000000011 0.12169228375509843 1443.5000000000002 459.50000000000006 425.50000000000006 406.50000000000006 0.037700316242049538 0.021778656126482217
decision_type=2 2 2 2 2 2 2 2 2 2 2 2 2 2 2 2 2 2 2 2 2 2 2 2 2 2 2 2 2 2
left_child=2 5 6 11 8 10 7 -1 21 13 19 18 23 15 -5 -7 27 28 -3 -2 -12 -4 -21 -8 -25 -10 -27 -6 -13 -11
right_child=1 3 4 14 16 9 12 -9 25 29 20 17 -14 -15 -16 -17 -18 -19 -20 22 -22 -23 -24 24 -26 26 -28 -29 -30 -31
leaf_value=-0.030180471956075192 -0.0015227973813538385 0.0039215357394085703 -0.012365830482743366 0.0135121419682451 0.0010970254852749473 0.0033039324617106891 -0.015805884324744567 -0.01646531407257899 -0.0068818866819425721 0.0021521516565663878 -0.0053546271676162722 0.011682989040382247 -0.017066070329394705 0.015788684044441486 0.025445763261997979 0.010423160239192897 -0.003825025860280266 0.0050788068721207731 0.0076735265998453322 0.0011559462818013135 -0.00083303342445161714 -0.0076216396081444614 0.0082164355774902269 -0.0058109193390520758 0.0077775588030681332 -0.0053161328113412523 0.0011318489043736549 0.0092270457131679168 0.0046189969563421576 -0.0049707055404702924
leaf_weight=6991 47093 74744 27018 30912 11229 24329 2665 27409 40637 30868 40613 36679 5871 5857 3839 10270 8585 15562 37587 43172 27636 32869 7898 11366 1920 19352 11355 6481 6164 5500
leaf_count=6991 47093 74744 27018 30912 11229 24329 2665 27409 40637 30868 40613 36679 5871 5857 3839 10270 8585 15562 37587 43172 27636 32869 7898 11366 1920 19352 11355 6481 6164 5500
internal_value=0 0.00391005 -0.00828424 0.00794667 -0.00580869 0.000499889 -0.0152204 -0.0192526 -0.00727191 0.00415229 -0.00118624 0.00654557 -0.00886406 0.00691867 0.0148305 0.00541713 0.00149386 0.00917778 0.00517699 0.000438911 -0.0035237 -0.00976198 0.00224785 -0.00584519 -0.00384721 -0.00518172 -0.00293176 0.00407222 0.0106667 0.00107495
internal_weight=0 448723 213748 205487 157526 243236 56222 34400 131231 76824 166412 170736 21822 40456 34751 34599 26295 58405 112331 98163 68249 59887 51070 15951 13286 71344 30707 17710 42843 36368
internal_count=662471 448723 213748 205487 157526 243236 56222 34400 131231 76824 166412 170736 21822 40456 34751 34599 26295 58405 112331 98163 68249 59887 51070 15951 13286 71344 30707 17710 42843 36368
is_linear=0
shrinkage=0.05


Tree=27
num_leaves=31
num_cat=0
split_feature=23 2 2 23 23 2 2 23 23 23 2 2 11 13 3 13 11 2 13 11 2 11 13 13 23 2 2 23 3 11
split_gain=10525.6 3891 1992.69 1717.72 928.926 735.492 730.14 540.481 414.496 374.038 367.637 364.012 330.544 281.467 280.631 239.098 238.153 230.995 230.485 226.748 224.367 221.553 214.542 208.84 187.464 182.821 155.758 155.38 145.655 158.053
threshold=3.2126100849505108 3.6781715306730201 3.2763575738329633 3.7791958601040796 3.7257170428581321 3.2148351648351654 3.7730113091815225 2.7753667900726726 4.2690914831185243 2.59549138804458 4.037915543575922 3.0131387041143145 0.31144704747858648 0.024019230769230775 185.50000000000003 0.012678320273256985 0.47069901406890441 4.4870680044593092 0.010881405702377571 0.43315228654324406 3.9917660612632155 0.31393876950250227 0.011460331611331779 0.017050409907552768 2.4755952380952384 2.9445815773630346 2.3928571428571432 4.2690914831185243 937.50000000000011 0.36716012300650797
decision_type=2 2 2 2 2 2 2 2 2 2 2 2 2 2 2 2 2 2 2 2 2 2 2 2 2 2 2 2 2 2
left_child=2 3 9 5 13 15 7 18 11 -1 16 26 17 19 -13 -2 27 -8 -4 20 -3 -7 -9 25 -14 -11 -5 -6 29 -16
right_child=1 4 6 8 10 21 12 22 -10 23 -12 14 24 -15 28 -17 -18 -19 -20 -21 -22 -23 -24 -25 -26 -27 -28 -29 -30 -31
leaf_value=-0.026539915948418397 -0.0067940171766373032 0.0048125071683004887 -0.012289346552300549 -0.021530527546242427 0.0089185108314580649 0.0010058883144080509 0.0017941751657926147 -0.0039059059413194108 0.0097684828978985422 -0.020008891287818093 0.013663307577676516 -0.00079386416852249937 -0.019551047175392813 -0.0012914781266369583 0.0072492076386819516 -0.014144890699930869 0.0042427233051994598 0.041586586464476848 -0.022008946277880869 0.00048992115745896236 0.011787068648448775 -0.0040451484543099102 -0.011195040190124936 -0.024428995880716464 -0.0048263325153174372 -0.011654561352791038 -0.0031714865174249131 0.015003738776814443 0.017426609500020597 0.0020746880298155778
leaf_weight=14517 26523 35697 13602 1244 64043 35551 18597 21910 21274 10853 53756 27373 2476 20014 31223 18977 24397 372 11058 17449 17033 55762 18720 7413 17020 16511 16201 12545 2377 27983
leaf_count=14517 26523 35697 13602 1244 64043 35551 18597 21910 21274 10853 53756 27373 2476 20014 31223 18977 24397 372 11058 17449 17033 55762 18720 7413 17020 16511 16201 12545 2377 27983
internal_value=0 0.00343125 -0.0115215 -0.000773912 0.00797213 -0.00466645 -0.00758903 -0.0108085 0.00339722 -0.0197987 0.010323 0.00212334 -0.00212443 0.00393891 0.00341844 -0.0098599 0.00854483 0.00257454 -0.0166478 0.00543054 0.00706545 -0.00207862 -0.00726433 -0.0169847 -0.00669638 -0.014968 -0.00448067 0.00991526 0.00529076 0.00480353
internal_weight=0 509422 153049 264488 244934 136813 103755 65290 127675 49294 154741 106401 38465 90193 88956 45500 100985 18969 24660 70179 52730 91313 40630 34777 19496 27364 17445 76588 61583 59206
internal_count=662471 509422 153049 264488 244934 136813 103755 65290 127675 49294 154741 106401 38465 90193 88956 45500 100985 18969 24660 70179 52730 91313 40630 34777 19496 27364 17445 76588 61583 59206
is_linear=0
shrinkage=0.05


Tree=28
num_leaves=31
num_cat=0
split_feature=23 2 2 23 23 2 2 23 11 23 13 23 20 13 13 2 20 2 2 2 2 2 2 11 2 13 11 11 23 13
split_gain=9532.17 3348.06 2064.53 1501.75 820.487 759.605 696.682 450.741 426.222 400.549 338.432 303.327 283.221 267.166 260.287 250.144 219.556 215.794 204.548 198.869 183.078 181.217 178.857 170.639 164.886 154.896 138.403 137.62 137.13 137.082
threshold=3.5885142085637143 3.2763575738329633 3.4096728971962622 2.8785972936916338 2.9306272417111372 4.0017182130584201 3.7730113091815225 4.0779201750342589 0.24027559741845458 4.0217494089834522 0.010881405702377571 2.1529655591484196 0.0704535583545325 0.016844474709643252 0.02357255754223057 4.076138716356108 0.058112153627103799 3.7767423717059647 2.809315319823201 4.286836200448767 2.8129431450613831 2.809315319823201 4.3752828054298654 0.47069901406890441 2.3928571428571432 0.0084210899549693307 0.41696642685851326 0.31043117840078299 3.2034201168233616 0.024819054463323241
decision_type=2 2 2 2 2 2 2 2 2 2 2 2 2 2 2 2 2 2 2 2 2 2 2 2 2 2 2 2 2 2
left_child=1 4 9 8 21 7 10 12 15 16 26 -10 -4 18 19 -3 -2 29 -6 27 -18 -1 -7 -9 -11 -23 -5 -8 -12 -13
right_child=2 3 5 6 13 22 14 23 11 24 28 17 -14 -15 -16 -17 20 -19 -20 -21 -22 25 -24 -25 -26 -27 -28 -29 -30 -31
leaf_value=-0.02845557933842098 -0.00063537759126247649 -0.0067936326885082278 0.0062635625274601817 0.00067596540857227871 -0.016224413469181513 0.010989875453708499 0.0065932046588594298 0.010933132800178831 -0.026650670083256528 -0.01921680617485844 -0.010348105313276934 -0.014131966115420792 0.0015605995010296758 -0.017684043765608771 -0.003214290353812624 0.011825754842280376 -0.016537447807937516 -0.0065721436873690184 -0.0076198490224973691 0.015103635761595369 -0.0049175234267341923 -0.01518465845047106 0.018031516240633576 0.004827364500082575 0.0039765743183987345 -0.023546027924087391 -0.0059642189278829652 0.001233169161609415 -0.0048154583904594667 -0.02754809788875423
leaf_weight=7640 35384 12295 79486 37178 8812 61610 21125 48452 4366 784 16502 16233 53600 13118 14077 2114 3961 9975 31946 4036 23505 10665 10564 14981 33929 11524 9947 27649 34856 2157
leaf_count=7640 35384 12295 79486 37178 8812 61610 21125 48452 4366 784 16502 16233 53600 13118 14077 2114 3961 9975 31946 4036 23505 10665 10564 14981 33929 11524 9947 27649 34856 2157
internal_value=0 -0.00669125 0.0053717 -0.00335507 -0.0151611 0.00763375 -0.00111096 0.00602265 -0.0112276 -0.000858094 -0.0037855 -0.0143821 0.00436946 -0.0114777 0.00282698 -0.00406191 -0.00323904 -0.0124937 -0.00948018 0.00443733 -0.00659329 -0.021814 0.0120205 0.00949113 0.00345275 -0.0195272 -0.000725624 0.00355471 -0.00659317 -0.0157056
internal_weight=0 296215 366256 212510 83705 268693 165370 196519 47140 97563 98483 32731 133086 53876 66887 14409 62850 28365 40758 52810 27466 29829 72174 63433 34713 22189 47125 48774 51358 18390
internal_count=662471 296215 366256 212510 83705 268693 165370 196519 47140 97563 98483 32731 133086 53876 66887 14409 62850 28365 40758 52810 27466 29829 72174 63433 34713 22189 47125 48774 51358 18390
is_linear=0
shrinkage=0.05


Tree=29
num_leaves=31
num_cat=0
split_feature=2 2 2 24 24 2 24 2 13 2 11 3 11 3 17 2 3 3 24 3 10 3 2 2 24 11 24 2 2 24
split_gain=6457.2 1660.67 1300.24 602.415 568.504 497.406 385.124 383.365 255.217 230.393 221.834 203.508 201.647 186.498 159.865 142.698 129.344 125.41 115.285 107.688 105.202 101.273 96.2365 90.0022 87.0262 83.9863 82.748 81.5841 81.2352 80.8124
threshold=3.5569937023533318 3.120606060606061 4.0017182130584201 465.50000000000006 701.00000000000011 2.5507507507507512 1036.0000000000002 4.3752828054298654 0.012678320273256985 3.7656758405639921 0.40601598230889085 411.50000000000006 0.41873504273504281 512.00000000000011 0.13534759062776305 3.2763575738329633 392.50000000000006 601.50000000000011 1443.5000000000002 241.50000000000003 0.028986183719193433 343.50000000000006 2.809315319823201 4.6130952380952381 1464.5000000000002 0.37033876880293265 287.50000000000006 2.2378214050252736 3.3446251433969905 1443.5000000000002
decision_type=2 2 2 2 2 2 2 2 2 2 2 2 2 2 2 2 2 2 2 2 2 2 2 2 2 2 2 2 2 2
left_child=1 3 6 5 15 27 9 16 14 13 11 18 19 -2 17 -3 25 29 28 -8 -10 -11 -7 -9 -13 -4 -15 -1 -6 -5
right_child=2 4 7 8 10 22 12 23 20 21 -12 24 -14 26 -16 -17 -18 -19 -20 -21 -22 -23 -24 -25 -26 -27 -28 -29 -30 -31
leaf_value=-0.037275799377551537 -0.0014278593303702286 -0.0077026603154522581 0.0088085427070771129 -0.0051845682714763211 -0.0050557068843416642 -0.016525823813195038 0.0060989967517397136 0.015192234963228282 -0.0102363044858784 0.0020220935429237862 -0.0039789773928864819 0.0052466821054054473 0.0017879682636951786 0.00035406718828528993 -0.0084949324717780803 -0.0038958751875814699 0.012123988464295056 0.0059705518272152869 0.0052866898623282581 0.011535733893491364 -0.029264938208105079 0.0053430161343280547 -0.011342353977448229 0.026940707788241914 0.014929039415115405 0.0055177491683564093 0.0059327290037078833 -0.024309141425587752 0.00065756779505310057 0.0069418022991808844
leaf_weight=1640 76504 33497 36649 9369 9804 12155 23516 12058 18523 65201 18814 14499 17978 12111 9611 92864 15102 5281 8385 14866 756 35433 34007 1885 2763 41168 14734 4660 17028 1610
leaf_count=1640 76504 33497 36649 9369 9804 12155 23516 12058 18523 65201 18814 14499 17978 12111 9611 92864 15102 5281 8385 14866 756 35433 34007 1885 2763 41168 14734 4660 17028 1610
internal_value=0 -0.00552597 0.00440552 -0.0108619 -0.00289082 -0.0145058 0.00249933 0.00904949 -0.00662777 0.00148848 0.000679168 0.00234914 0.00615788 -0.000169678 -0.00338264 -0.00490501 0.0078894 -0.000360851 0.000169231 0.00820474 -0.0109825 0.00319138 -0.0127072 0.0167805 0.00679647 0.00706759 0.00341594 -0.0276846 -0.00142997 -0.00340631
internal_weight=0 295266 367205 97612 197654 52462 260343 106862 45150 203983 71293 52479 56360 103349 25871 126361 92919 16260 35217 38382 19279 100634 46162 13943 17262 77817 26845 6300 26832 10979
internal_count=662471 295266 367205 97612 197654 52462 260343 106862 45150 203983 71293 52479 56360 103349 25871 126361 92919 16260 35217 38382 19279 100634 46162 13943 17262 77817 26845 6300 26832 10979
is_linear=0
shrinkage=0.05


Tree=30
num_leaves=31
num_cat=0
split_feature=23 2 2 23 23 23 2 11 2 2 23 13 2 13 3 11 2 23 20 23 2 23 14 20 3 2 13 14 3 11
split_gain=8502.88 2915.46 1513.65 1188.59 862.053 698.776 408.992 408.425 406.061 384.785 360.509 345.952 274.505 251.905 243.735 232.633 222.3 211.094 207.74 197.355 181.257 177.143 175.531 175.372 174.287 189.797 168.391 140.943 140.912 146.114
threshold=3.2126100849505108 3.6346407382992756 3.682733255903988 3.7168743418743424 3.9078172729797283 2.59549138804458 2.9445815773630346 0.32525222842589879 3.3021429664778821 2.6401148625130531 4.3096166153893618 0.024019230769230775 4.037915543575922 0.017555713608345191 182.50000000000003 0.33048740992632181 4.2567126182813793 2.3254701235117397 0.058112153627103799 4.358949483508729 3.2221013178575753 2.0656821845074433 0.16366655951998288 0.084001539547116574 295.50000000000006 4.2356245869134179 0.021585720215857206 0.086114200964034132 857.00000000000011 0.36822204003166353
decision_type=2 2 2 2 2 2 2 2 2 2 2 2 2 2 2 2 2 2 2 2 2 2 2 2 2 2 2 2 2 2
left_child=2 3 5 8 11 21 -7 16 15 18 14 12 23 22 -11 -2 -4 -9 -5 24 -16 -1 -8 -3 25 -6 27 -10 29 -22
right_child=1 4 7 9 19 6 13 17 26 10 -12 -13 -14 -15 20 -17 -18 -19 -20 -21 28 -23 -24 -25 -26 -27 -28 -29 -30 -31
